{
  "layers": [
    {
      "activation": "rectified",
      "bias": [
        0.12363167107105255,
        0.17119058966636658,
        -0.20750175416469574,
        -0.13104067742824554,
        0.6327027082443237,
        0.21234481036663055,
        0.38737404346466064,
        -0.061484213918447495,
        0.3019864559173584,
        0.4040634036064148,
        0.6664553284645081,
        0.10163604468107224,
        0.2944342792034149,
        0.3861750662326813,
        -0.04148930311203003,
        0.021196478977799416,
        -0.07680342346429825,
        0.07739804685115814,
        0.355292409658432,
        0.4071936309337616,
        0.6003669500350952,
        0.07669799029827118,
        0.482684463262558,
        0.5522093176841736,
        0.6749202609062195,
        0.1688956618309021,
        0.45625874400138855,
        0.06956367194652557,
        -0.6676995754241943,
        0.3356127440929413,
        -0.006175404414534569,
        0.3562200367450714,
        0.04704773798584938,
        0.78768390417099,
        0.4179983139038086,
        0.46121594309806824,
        -0.012906890362501144,
        -0.4916782081127167,
        0.16828331351280212,
        0.06173597276210785,
        -0.5846372842788696,
        -0.11126795411109924,
        -0.1399741768836975,
        0.29782867431640625,
        -0.07619035989046097,
        0.6336614489555359,
        0.2563324570655823,
        -0.11646682024002075,
        0.11543502658605576,
        0.3608970046043396,
        -1.0565844774246216,
        0.003999424632638693,
        0.4375438988208771,
        0.13474735617637634,
        0.291011244058609,
        0.07843411713838577,
        0.1688956916332245,
        0.8251911997795105,
        0.11523858457803726,
        -0.08606487512588501,
        0.590609073638916,
        0.04092448949813843,
        0.5746198892593384,
        0.13514389097690582,
        0.2438233643770218,
        0.1517832726240158,
        0.2743392586708069,
        0.3173750638961792,
        -0.15741918981075287,
        0.3729930818080902,
        0.04023580625653267,
        -0.18168571591377258,
        0.22737886011600494,
        0.7231605052947998,
        -0.0783010944724083,
        0.3446243405342102,
        0.18081294000148773,
        0.6326955556869507,
        -0.36920440196990967,
        0.07973635941743851,
        0.45565223693847656,
        0.004595546517521143,
        0.2046717256307602,
        -0.23789367079734802,
        -0.07607988268136978,
        0.4101014733314514,
        0.6846176385879517,
        0.2409687638282776,
        -0.3020825684070587,
        -0.0015553348930552602,
        0.2065669447183609,
        -0.28732427954673767,
        0.3323131203651428,
        0.7256405353546143,
        -0.28509649634361267,
        -0.21492774784564972,
        0.40248459577560425,
        0.548662006855011,
        0.32353389263153076,
        0.5655524134635925
      ],
      "weights": [
        -0.018056342378258705,
        -0.05948689952492714,
        0.04521292448043823,
        -0.11186237633228302,
        -0.025845669209957123,
        0.49487653374671936,
        -0.08835381269454956,
        0.03172055259346962,
        0.09921194612979889,
        0.03923874348402023,
        -0.11958986520767212,
        0.009953680448234081,
        -0.0009944176999852061,
        -0.015272541902959347,
        0.00764127355068922,
        0.060458969324827194,
        0.03941952809691429,
        0.2527800500392914,
        -0.12728917598724365,
        -0.24641373753547668,
        0.05149400234222412,
        0.011551323346793652,
        -0.08747156709432602,
        0.009518615901470184,
        -0.004403077997267246,
        0.02411719784140587,
        -0.010164843872189522,
        0.0016575431218370795,
        0.011050042696297169,
        0.01084231398999691,
        0.026411786675453186,
        0.012933054938912392,
        -0.08038312941789627,
        0.010717482306063175,
        0.015002863481640816,
        0.01793050207197666,
        0.08319452404975891,
        -0.013361801393330097,
        -0.038067691028118134,
        -0.02330416813492775,
        0.008899406529963017,
        -0.030495373532176018,
        0.01712406985461712,
        0.02286107838153839,
        -0.024255556985735893,
        -0.0022159914951771498,
        -0.08929653465747833,
        0.03190601244568825,
        0.6510871648788452,
        -0.09161572903394699,
        -0.29933393001556396,
        -0.18820883333683014,
        -0.0664185881614685,
        -0.02277197502553463,
        0.09703275561332703,
        0.018592700362205505,
        -0.003126966767013073,
        0.011865979060530663,
        0.022982800379395485,
        -0.023000186309218407,
        0.028657596558332443,
        0.03197915852069855,
        -0.06492427736520767,
        -0.005802456755191088,
        0.05822981894016266,
        0.0003835275419987738,
        -0.1964845210313797,
        -0.0011238737497478724,
        0.03150995448231697,
        0.004599721170961857,
        -0.07474896311759949,
        -0.002380289603024721,
        0.023226633667945862,
        -0.03703286126255989,
        -0.001081664813682437,
        0.03485887497663498,
        -0.011027408763766289,
        1.6096426406875253e-05,
        0.00013450704864226282,
        -0.0007801239844411612,
        0.07590436935424805,
        -0.0035471958108246326,
        -0.0007531461305916309,
        -0.0046236589550971985,
        -0.25518032908439636,
        0.006717382464557886,
        0.24707400798797607,
        -1.4912148714065552,
        -0.019680935889482498,
        -0.007107699755579233,
        -0.0010739436838775873,
        1.91129469871521,
        0.006947880145162344,
        -0.0037005185149610043,
        -0.00747988186776638,
        -0.0005855057388544083,
        0.0009028614731505513,
        -0.0005359055940061808,
        0.0013076429022476077,
        0.04373878985643387,
        -0.008096154779195786,
        -0.0049019427970051765,
        -0.0049251350574195385,
        -0.05192054808139801,
        0.005879910662770271,
        0.005301658529788256,
        0.0052047534845769405,
        0.002935949480161071,
        -0.002359942998737097,
        -0.0011090374318882823,
        -0.0008036605431698263,
        -0.015392028726637363,
        0.0022618540097028017,
        -0.0022679450921714306,
        0.0017211500089615583,
        -0.002119387499988079,
        0.0007487134425900877,
        0.0021304674446582794,
        0.002589147537946701,
        -0.0029771514236927032,
        -7.759907748550177e-05,
        -0.01921253278851509,
        -0.003829588880762458,
        0.03509330004453659,
        5.059527757111937e-05,
        0.0008208793005906045,
        -0.0071467189118266106,
        -0.0023006931878626347,
        0.004479359369724989,
        0.004717797972261906,
        -0.0015691332519054413,
        0.005401997361332178,
        -0.004676882643252611,
        0.0005620652809739113,
        0.08205605298280716,
        0.0018828726606443524,
        -0.15898527204990387,
        -0.07813315838575363,
        0.3345411419868469,
        -1.3809202909469604,
        -0.013204285874962807,
        0.01775442063808441,
        -0.01082513015717268,
        -0.06809038668870926,
        -0.022654496133327484,
        0.019904054701328278,
        -0.004658728372305632,
        -0.04103158414363861,
        0.006644191686064005,
        -0.12221776694059372,
        -0.05366381257772446,
        0.1295807957649231,
        0.0062670330516994,
        0.044066332280635834,
        -0.036848947405815125,
        -0.030322851613163948,
        0.029783565551042557,
        0.0038229336496442556,
        0.01972421072423458,
        -0.023198068141937256,
        0.009048646315932274,
        -0.0048922207206487656,
        -0.04417821392416954,
        -0.005513843148946762,
        -0.018633021041750908,
        -0.010498386807739735,
        -0.022905541583895683,
        -0.03250793367624283,
        -0.054507218301296234,
        -0.08239448070526123,
        0.018474115058779716,
        -0.009750749915838242,
        0.00950066652148962,
        0.026910094544291496,
        0.019596051424741745,
        0.01557636447250843,
        0.03677745908498764,
        -0.01904296688735485,
        0.0864202156662941,
        0.014184029772877693,
        0.004256850574165583,
        0.009809919632971287,
        0.014460396952927113,
        0.008451155386865139,
        0.01439789216965437,
        0.02337430603802204,
        0.02916921116411686,
        -0.07881880551576614,
        0.0021336122881621122,
        -0.0399404838681221,
        -0.006836882326751947,
        -0.026086028665304184,
        -0.022984696552157402,
        -0.09389891475439072,
        -0.15379215776920319,
        0.038903046399354935,
        0.06373322010040283,
        -0.032575659453868866,
        -0.015981988981366158,
        0.03515090420842171,
        0.0033483924344182014,
        -0.8344431519508362,
        0.04668130725622177,
        0.051014743745326996,
        0.17384298145771027,
        -0.058308739215135574,
        0.058672111481428146,
        0.11814295500516891,
        0.017734689638018608,
        -0.08967731893062592,
        0.11913003027439117,
        0.11235624551773071,
        0.22640188038349152,
        -0.03912580758333206,
        0.1316542774438858,
        -0.05576040595769882,
        0.06879647821187973,
        0.09729669243097305,
        -0.08008228987455368,
        0.035615868866443634,
        -0.009788951836526394,
        -0.015138334594666958,
        -0.020596222952008247,
        0.043196823447942734,
        0.022500211372971535,
        -0.04558244347572327,
        -0.012119164690375328,
        -0.011700209230184555,
        -0.01805310882627964,
        0.07788693159818649,
        0.05621666461229324,
        0.06502027064561844,
        0.010492648929357529,
        -0.02027764916419983,
        0.009741886518895626,
        -0.06960038840770721,
        -0.01705193519592285,
        0.10328338295221329,
        -0.03632787987589836,
        0.043211497366428375,
        -0.009466402232646942,
        -0.02330527827143669,
        0.00776544539257884,
        0.003838068339973688,
        0.005089606624096632,
        -0.08250774443149567,
        0.08674977719783783,
        0.003470140276476741,
        -0.005380693823099136,
        0.0841570645570755,
        0.006709773559123278,
        0.02960718423128128,
        -0.06680062413215637,
        -0.035720985382795334,
        -0.0012709262082353234,
        0.018216371536254883,
        0.010164178907871246,
        0.01943160593509674,
        0.022791074588894844,
        0.05402537062764168,
        0.006285884417593479,
        -0.029998380690813065,
        -0.07827895134687424,
        -0.008857883512973785,
        0.0108457300812006,
        -0.05893687158823013,
        0.047268737107515335,
        0.0044863405637443066,
        -0.005398924928158522,
        -0.027721421793103218,
        -0.018033800646662712,
        -0.08415310829877853,
        0.008680188097059727,
        0.019651910290122032,
        0.025313567370176315,
        -0.08329916000366211,
        -0.03891335800290108,
        -0.029475638642907143,
        0.01771266758441925,
        -0.03979259729385376,
        -0.003794357180595398,
        0.1133396103978157,
        0.017957786098122597,
        -0.001871007145382464,
        0.03156233951449394,
        -0.17489808797836304,
        -0.04451523721218109,
        0.11366621404886246,
        0.44643035531044006,
        0.01649503968656063,
        0.01921531744301319,
        0.00022224624990485609,
        1.8226603269577026,
        0.013929789885878563,
        -0.003161756321787834,
        0.009736182168126106,
        0.013272055424749851,
        -0.001502302591688931,
        -0.000795712519902736,
        -0.0014917977387085557,
        0.031026536598801613,
        0.0039048348553478718,
        -0.010492151603102684,
        -0.005006276536732912,
        -0.007965014316141605,
        -0.010637182742357254,
        -0.000941412232350558,
        -0.009946109727025032,
        0.1945478916168213,
        0.011515840888023376,
        -0.007494349963963032,
        0.006891247816383839,
        0.02091137506067753,
        0.003092487109825015,
        0.0020514160860329866,
        0.0016488736728206277,
        0.014341958798468113,
        0.0004256998363416642,
        0.010753734968602657,
        -0.007589718792587519,
        -0.014059276320040226,
        0.016884610056877136,
        0.031168876215815544,
        0.001860123360529542,
        -0.03265323117375374,
        -0.000896033423487097,
        0.0017519072862342,
        -0.02653813734650612,
        -0.012863753363490105,
        0.012503660283982754,
        -0.007913004606962204,
        -0.003944645170122385,
        -0.02048727124929428,
        0.009843356907367706,
        0.0005242813494987786,
        -0.020772818475961685,
        -0.10321340709924698,
        -0.06692866235971451,
        -0.1953570395708084,
        0.03439381346106529,
        0.12902452051639557,
        -0.17341476678848267,
        -0.04260322451591492,
        0.11320812255144119,
        -0.18186324834823608,
        0.10075454413890839,
        0.029141053557395935,
        -0.03044253960251808,
        0.07409115135669708,
        0.0010730810463428497,
        0.049803100526332855,
        0.15492568910121918,
        0.06144050136208534,
        -0.10157923400402069,
        -0.17435139417648315,
        -0.04673346132040024,
        -0.23451529443264008,
        -0.09686398506164551,
        -0.04046488553285599,
        0.20634622871875763,
        0.4808838665485382,
        0.25521329045295715,
        0.014763737097382545,
        -0.03514190390706062,
        -0.04410841688513756,
        -0.038039691746234894,
        -0.023433195427060127,
        -0.04595225676894188,
        -0.021325495094060898,
        0.07710041105747223,
        -0.04511769860982895,
        -0.06569240987300873,
        0.0722699835896492,
        -0.03504615277051926,
        0.021996114403009415,
        0.05847196280956268,
        0.025659052655100822,
        0.044052112847566605,
        0.03253670781850815,
        -0.37589871883392334,
        0.04668033868074417,
        0.015912998467683792,
        -0.1319185048341751,
        0.03416288271546364,
        0.029851727187633514,
        0.19456878304481506,
        -0.267503947019577,
        0.007860901765525341,
        0.19052021205425262,
        -0.03844231739640236,
        -0.14385215938091278,
        -0.1301477700471878,
        -0.05767722800374031,
        0.011731099337339401,
        0.04955528676509857,
        -0.09549497812986374,
        -0.012527035549283028,
        -0.05472569912672043,
        0.06826280057430267,
        -0.06923971325159073,
        -0.022108593955636024,
        -0.005111373495310545,
        -0.15313126146793365,
        -0.06780622899532318,
        0.11682748794555664,
        -0.0013770959340035915,
        0.031790681183338165,
        -0.10412947833538055,
        0.04317798465490341,
        -0.18062226474285126,
        -0.1334652602672577,
        0.24209578335285187,
        -0.12680263817310333,
        -0.06709279119968414,
        -0.002460066694766283,
        -0.055269934237003326,
        0.042045675218105316,
        -0.06640535593032837,
        -0.33453142642974854,
        0.02753983624279499,
        -0.1093192771077156,
        0.11137907207012177,
        0.009974959306418896,
        -0.0006596510647796094,
        0.1818506419658661,
        0.041360437870025635,
        -0.03403661400079727,
        0.6519157290458679,
        0.008461394347250462,
        0.04524993896484375,
        0.010586082004010677,
        -0.021398194134235382,
        0.027160268276929855,
        0.054150912910699844,
        0.11751671880483627,
        0.008363303728401661,
        -0.11141680926084518,
        -0.1855325549840927,
        -0.07567024230957031,
        -0.019825784489512444,
        -0.0034217580687254667,
        0.0497303381562233,
        -0.03919166699051857,
        0.12490520626306534,
        -0.08704952150583267,
        -0.026570428162813187,
        0.09882010519504547,
        0.16173075139522552,
        0.023779384791851044,
        0.025467943400144577,
        -0.010006680153310299,
        -0.0009270172449760139,
        -0.03151096776127815,
        -0.006026402581483126,
        0.040512815117836,
        0.06294003129005432,
        -0.03320968523621559,
        -0.09404274076223373,
        0.02493019960820675,
        0.06268005818128586,
        0.03326898440718651,
        -0.07087387144565582,
        0.006777922157198191,
        0.0561053566634655,
        -0.0936148464679718,
        -0.050931382924318314,
        -0.09416990727186203,
        -0.020369350910186768,
        0.014119862578809261,
        -0.004311436787247658,
        -0.08716773241758347,
        -0.107825867831707,
        0.10634014010429382,
        -0.002222135430201888,
        -0.19438397884368896,
        -0.05571212247014046,
        -0.009374785237014294,
        0.06935513764619827,
        -0.011905672028660774,
        0.00863586738705635,
        0.0065561565570533276,
        -0.03823360055685043,
        -0.09279759228229523,
        0.07735473662614822,
        0.035780008882284164,
        0.01423662155866623,
        0.10408070683479309,
        -0.05342886969447136,
        -0.10608481615781784,
        -0.01820847950875759,
        -0.016430241987109184,
        -0.024023085832595825,
        -0.00540757505223155,
        0.034449297934770584,
        0.002394174924120307,
        -0.01772991195321083,
        0.005517556797713041,
        0.01412274781614542,
        -0.008422897197306156,
        0.030205313116312027,
        -0.005383364390581846,
        0.03742960840463638,
        0.06469754874706268,
        -0.0683189257979393,
        0.013128431513905525,
        -0.06908993422985077,
        -0.03855610638856888,
        0.032087091356515884,
        -0.03507296368479729,
        -0.004372857045382261,
        -0.0321478396654129,
        0.14037571847438812,
        -0.03846300393342972,
        0.011732043698430061,
        0.08552180975675583,
        -0.7125644087791443,
        0.10777684301137924,
        0.005645411554723978,
        0.010500233620405197,
        0.02507023885846138,
        -0.0018266967963427305,
        -0.058315958827733994,
        -0.005366858560591936,
        -0.2602696418762207,
        0.0029319250024855137,
        -0.0002906732843257487,
        -0.027362298220396042,
        -0.39074084162712097,
        0.0870518684387207,
        0.24041911959648132,
        -0.07760224491357803,
        0.04326118901371956,
        -0.08376210182905197,
        -0.3835547864437103,
        0.09027092158794403,
        0.3143627345561981,
        0.05322425812482834,
        0.2807002067565918,
        0.006194159854203463,
        0.1251889020204544,
        0.25290390849113464,
        -0.00880700908601284,
        0.02325989305973053,
        0.05788422003388405,
        -0.07455041259527206,
        -0.06103963777422905,
        0.36347734928131104,
        0.27883076667785645,
        -0.03562008589506149,
        0.20728696882724762,
        0.10123181343078613,
        -0.008575054816901684,
        0.28626736998558044,
        -0.6833943724632263,
        0.16119319200515747,
        -0.8731850981712341,
        0.3283587694168091,
        -0.08590482175350189,
        -0.08836008608341217,
        -0.047138381749391556,
        -0.104646235704422,
        0.11821157485246658,
        0.11146347224712372,
        0.03794749453663826,
        0.11167553812265396,
        0.02754366584122181,
        0.043497875332832336,
        0.032747697085142136,
        -0.02283736690878868,
        0.033770784735679626,
        0.030213018879294395,
        -0.013675755821168423,
        0.03870057314634323,
        0.0188631359487772,
        -0.001426569651812315,
        0.002049744362011552,
        0.02352421171963215,
        0.005877774208784103,
        -0.009588134475052357,
        -0.042491331696510315,
        -0.020698940381407738,
        0.011618736200034618,
        0.018832193687558174,
        0.02075236849486828,
        -0.20449286699295044,
        -0.1863158792257309,
        -0.06505642086267471,
        -0.053860507905483246,
        0.018176540732383728,
        -0.05357179045677185,
        -0.027551371604204178,
        0.06392346322536469,
        0.07366787642240524,
        0.01081166137009859,
        -0.008690906688570976,
        0.034175630658864975,
        -0.04299754276871681,
        -0.05328066274523735,
        0.03201736509799957,
        -0.03324638679623604,
        -0.06695016473531723,
        0.020502323284745216,
        0.05338403955101967,
        0.0010154650080949068,
        0.02599261701107025,
        0.2565321624279022,
        0.08981770277023315,
        -0.007717064116150141,
        -0.4455139935016632,
        0.25367504358291626,
        -0.07465917617082596,
        -0.1791224628686905,
        -0.06963584572076797,
        0.16979411244392395,
        -0.12013980001211166,
        0.006727851927280426,
        -0.04098976403474808,
        -0.007983677089214325,
        0.12052318453788757,
        0.02220809832215309,
        -0.026809677481651306,
        0.08667214214801788,
        0.15487708151340485,
        -0.051782820373773575,
        0.16716529428958893,
        -0.12362021207809448,
        -0.11372844129800797,
        0.059430081397295,
        -0.04848339408636093,
        0.08627267926931381,
        0.024713505059480667,
        -0.041907452046871185,
        0.08448813110589981,
        0.11760669201612473,
        0.06307905167341232,
        0.09188243001699448,
        -0.08770418912172318,
        -0.03649245202541351,
        -0.01252546813338995,
        -0.033383093774318695,
        0.06479471921920776,
        0.017151791602373123,
        0.04537797346711159,
        -0.07101195305585861,
        -0.05449747294187546,
        0.0630696713924408,
        0.13902348279953003,
        -0.0019772483501583338,
        -0.026549097150564194,
        -0.2984536290168762,
        -0.3612549304962158,
        0.006030053831636906,
        0.019599491730332375,
        -0.023664282634854317,
        -0.040384210646152496,
        -0.04018467664718628,
        -0.11904846131801605,
        -0.07899495214223862,
        -0.02817275933921337,
        0.03143751621246338,
        0.0936419740319252,
        0.09829260408878326,
        0.03397994115948677,
        0.048292431980371475,
        0.041153956204652786,
        -0.02277529425919056,
        -0.05979657173156738,
        0.029953675344586372,
        -0.09906996786594391,
        -0.1479072868824005,
        0.01041471492499113,
        0.3321020305156708,
        0.41111108660697937,
        0.006437272299081087,
        -0.03176909312605858,
        -0.013081755489110947,
        -0.0994713082909584,
        0.15785597264766693,
        0.06126192957162857,
        -0.018927352502942085,
        -0.030505219474434853,
        0.3787931203842163,
        0.06499861925840378,
        -0.17108091711997986,
        0.20201948285102844,
        0.052927859127521515,
        0.16883835196495056,
        0.021669328212738037,
        -0.07409791648387909,
        -0.2483597844839096,
        -0.03796756640076637,
        -0.030445212498307228,
        -0.08141285181045532,
        -0.22759239375591278,
        0.18467570841312408,
        -0.0562315359711647,
        0.010254246182739735,
        0.0006817179964855313,
        -0.03280506655573845,
        -0.01901722326874733,
        -0.0004469747073017061,
        -0.00391806848347187,
        -0.12607410550117493,
        -0.06847532838582993,
        -0.12323124706745148,
        -0.06584548950195312,
        0.09641758352518082,
        0.08432451635599136,
        0.053397778421640396,
        0.004006956238299608,
        -0.1283213496208191,
        0.04178408160805702,
        -0.0024726842530071735,
        0.048211436718702316,
        -0.09356667101383209,
        -0.012059690430760384,
        -0.005001559387892485,
        -0.003544651437550783,
        0.05679672211408615,
        0.19093258678913116,
        0.06521935760974884,
        0.018115801736712456,
        -0.27771252393722534,
        -0.14125016331672668,
        0.010095786303281784,
        -0.07088413834571838,
        -0.04423177242279053,
        -0.018069515004754066,
        -0.015280860476195812,
        -0.10564647614955902,
        -0.014746800996363163,
        0.00916208140552044,
        -0.035639241337776184,
        0.09362488985061646,
        0.17144595086574554,
        -0.02659163624048233,
        -0.07267966866493225,
        -0.021370451897382736,
        -0.060289204120635986,
        -0.0424191839993,
        -0.11605324596166611,
        -0.09296995401382446,
        0.08464649319648743,
        0.08676385879516602,
        0.11954507976770401,
        -0.07896235585212708,
        -0.003922112751752138,
        0.2310260832309723,
        0.08459538221359253,
        0.033294741064310074,
        0.059353239834308624,
        0.1547844111919403,
        0.15721921622753143,
        0.008211653679609299,
        -0.31050440669059753,
        -0.04965630918741226,
        -0.37272870540618896,
        0.10584768652915955,
        0.0531567744910717,
        0.023463239893317223,
        0.028485063463449478,
        0.2160739004611969,
        0.09621749818325043,
        0.04602788761258125,
        -0.0045413607731461525,
        0.04758395999670029,
        -0.01731456257402897,
        -0.055656448006629944,
        -0.005922145210206509,
        -0.21330957114696503,
        -0.011106349527835846,
        -0.03921222686767578,
        -0.04412449896335602,
        -0.04991229623556137,
        -0.0699298232793808,
        0.023441890254616737,
        0.0046830386854708195,
        0.5681251287460327,
        0.04533926770091057,
        0.027979999780654907,
        -0.024070318788290024,
        -0.10809221118688583,
        0.04397072643041611,
        0.027240151539444923,
        0.09514226019382477,
        0.0390407033264637,
        0.037773340940475464,
        0.028382720425724983,
        0.02052500657737255,
        0.054593201726675034,
        0.08250867575407028,
        -0.09862449020147324,
        -0.005940779112279415,
        0.09186022728681564,
        -0.09689939767122269,
        -0.12415844947099686,
        -0.003234394360333681,
        0.06407026201486588,
        0.00946491677314043,
        -0.02843208611011505,
        -0.009303584694862366,
        0.12302537262439728,
        -0.005500412080436945,
        0.018596190959215164,
        0.005391566548496485,
        -0.009040339849889278,
        0.015780048444867134,
        0.0943136140704155,
        -0.02584454044699669,
        0.09819523990154266,
        0.012386748567223549,
        0.022184256464242935,
        0.020670974627137184,
        0.0068681975826621056,
        -0.08496303856372833,
        0.01681663654744625,
        0.009876887314021587,
        -0.11699753254652023,
        0.09897325187921524,
        -0.0360928475856781,
        0.013440846465528011,
        -0.0012836455134674907,
        -0.01849355734884739,
        0.04009540379047394,
        0.06860655546188354,
        0.06666672974824905,
        -0.015468367375433445,
        -0.012830210849642754,
        -0.014853059314191341,
        0.26263678073883057,
        0.01682989113032818,
        0.03651522845029831,
        0.05717847868800163,
        -0.8509910106658936,
        -0.010221008211374283,
        0.05825085937976837,
        -0.014851159416139126,
        0.3777419626712799,
        -0.017263708636164665,
        -0.032590560615062714,
        -0.03934434428811073,
        0.04157402738928795,
        -0.004105644300580025,
        0.010032843798398972,
        0.024417635053396225,
        0.10072103887796402,
        0.017772864550352097,
        0.021052144467830658,
        0.0023957695811986923,
        -0.07652714848518372,
        -0.004011640325188637,
        0.04359135031700134,
        -0.014006444253027439,
        0.0014210015069693327,
        0.0014335692394524813,
        -0.026696398854255676,
        -0.010544880293309689,
        0.0484277606010437,
        0.019154420122504234,
        -0.01462083961814642,
        -0.05020035058259964,
        -0.002338414778932929,
        0.02458806335926056,
        -0.01727795973420143,
        -0.012407050468027592,
        0.03131715953350067,
        0.02833089977502823,
        -0.03298763930797577,
        -0.08648701757192612,
        0.04953637719154358,
        0.05052323266863823,
        0.017986051738262177,
        -0.09181469678878784,
        0.05405033752322197,
        0.0731128677725792,
        -0.16636471450328827,
        0.0037523217033594847,
        -0.12432828545570374,
        0.35754409432411194,
        0.17625786364078522,
        0.36442118883132935,
        -0.20476557314395905,
        -0.2880856394767761,
        -0.01907067932188511,
        0.3257913291454315,
        0.21331962943077087,
        -0.005891537759453058,
        -0.1295979619026184,
        -0.20127183198928833,
        -0.0055028703063726425,
        0.2518627941608429,
        -0.12085031718015671,
        -0.31808364391326904,
        -0.14011859893798828,
        -0.05560523644089699,
        0.06653251498937607,
        -0.04100446030497551,
        0.035232968628406525,
        0.050923679023981094,
        -0.013735217973589897,
        -0.002180461771786213,
        -8.55207399581559e-05,
        0.023775653913617134,
        0.1510826051235199,
        0.022975929081439972,
        -0.017928248271346092,
        -0.02703525684773922,
        0.12877827882766724,
        -0.04189211130142212,
        -0.02206563390791416,
        -0.021912403404712677,
        0.11028093844652176,
        -0.014506015926599503,
        0.003927482292056084,
        0.015300327911973,
        0.33052948117256165,
        -0.02122725546360016,
        0.01680360920727253,
        0.028440961614251137,
        -0.004395363852381706,
        -0.08420922607183456,
        -0.013951231725513935,
        -0.09185807406902313,
        -0.0008711114642210305,
        -0.01821879670023918,
        -0.13500827550888062,
        0.05770386382937431,
        0.06990423053503036,
        0.0014852610183879733,
        -0.015224181115627289,
        -0.03623566776514053,
        -0.043928295373916626,
        -0.01738465018570423,
        0.0022410613019019365,
        -0.014138519763946533,
        -0.036203183233737946,
        0.06300937384366989,
        0.03712625801563263,
        0.0232761949300766,
        -0.00639524357393384,
        0.09467776864767075,
        -0.002693881979212165,
        0.05717962235212326,
        -1.060572624206543,
        0.02831820584833622,
        -0.22132404148578644,
        -0.05482511594891548,
        -0.1570104956626892,
        0.10298769921064377,
        0.09566015005111694,
        0.005914817098528147,
        0.04320787265896797,
        -0.00420354725793004,
        0.001871119369752705,
        0.13551542162895203,
        -0.25265565514564514,
        -0.07882194966077805,
        -0.10959748178720474,
        0.00574366794899106,
        0.2056134194135666,
        0.13826411962509155,
        0.08367446064949036,
        0.009105109609663486,
        0.025864548981189728,
        -0.06354918330907822,
        -0.03915414214134216,
        -0.02848721481859684,
        0.03565368056297302,
        0.010824140161275864,
        0.03704076632857323,
        -0.17865101993083954,
        -0.05765831470489502,
        -0.0067118313163518906,
        0.0008656619465909898,
        -0.00992385484278202,
        -0.0075765992514789104,
        -0.008500330150127411,
        0.014944723807275295,
        -0.1842435747385025,
        -0.03726361691951752,
        -0.006575660314410925,
        -0.006650106981396675,
        -0.030729083344340324,
        0.013407091610133648,
        0.030160849913954735,
        0.11131638288497925,
        0.12725171446800232,
        0.0739760547876358,
        0.09935835003852844,
        0.0635528638958931,
        -0.10654672235250473,
        0.11997371912002563,
        0.4792710244655609,
        -0.015295871533453465,
        -0.017046859487891197,
        0.033597081899642944,
        0.02583046443760395,
        0.015281734988093376,
        0.01908428966999054,
        0.021196182817220688,
        0.06648313254117966,
        -0.018581317737698555,
        0.007248654495924711,
        0.05140508711338043,
        0.08709439635276794,
        -0.006082131527364254,
        0.14709068834781647,
        -0.1828218251466751,
        0.13607634603977203,
        -0.12810741364955902,
        -0.3226369619369507,
        0.0039016425143927336,
        0.022992463782429695,
        0.002667890163138509,
        -0.13444989919662476,
        0.24269957840442657,
        0.06455469876527786,
        -0.0010068058036267757,
        0.048856690526008606,
        -0.3856241703033447,
        -0.018128346651792526,
        -0.018627149984240532,
        -0.13816715776920319,
        0.002548446413129568,
        0.07752286642789841,
        0.010710123926401138,
        0.008376906625926495,
        -0.0009959278395399451,
        -0.03311553969979286,
        0.00942460261285305,
        0.08464539051055908,
        0.04418104514479637,
        0.043622590601444244,
        0.16772648692131042,
        0.14116598665714264,
        0.20782910287380219,
        0.14199312031269073,
        0.0340622216463089,
        -0.0338357612490654,
        -0.09034175425767899,
        -0.06515464186668396,
        0.016206765547394753,
        0.05910507217049599,
        0.0673656091094017,
        0.014038920402526855,
        0.01093785185366869,
        -0.014924411661922932,
        -0.08369690924882889,
        -0.07117117941379547,
        0.013081984594464302,
        -0.03296735882759094,
        0.011831670999526978,
        0.019882824271917343,
        -0.0004987908760085702,
        0.04505319893360138,
        0.037529997527599335,
        0.03829970583319664,
        0.0038279255386441946,
        0.04335245117545128,
        0.22293621301651,
        -0.004218867979943752,
        0.03148135542869568,
        -0.06119099631905556,
        -0.12521523237228394,
        0.00017912493785843253,
        0.03534252196550369,
        0.005535985343158245,
        0.021014736965298653,
        -0.020680561661720276,
        0.023126844316720963,
        -0.02583511546254158,
        0.021252838894724846,
        -0.006646384485065937,
        -0.03442144766449928,
        0.06294360756874084,
        0.17553363740444183,
        0.05593442916870117,
        0.05698810890316963,
        0.16729648411273956,
        0.0627753958106041,
        -0.16553106904029846,
        0.06577051430940628,
        0.29079192876815796,
        -0.3956664204597473,
        0.05686897411942482,
        0.07018207013607025,
        0.15241360664367676,
        -0.033567167818546295,
        -1.1092357635498047,
        -0.684318482875824,
        -0.5953256487846375,
        -1.0835775136947632,
        -0.020914288237690926,
        0.03519166633486748,
        -0.0021400584373623133,
        -0.02053103782236576,
        0.14840048551559448,
        -0.023147208616137505,
        -0.006708057597279549,
        -0.0048162853345274925,
        0.0028503660578280687,
        0.0016360848676413298,
        0.0011813297169283032,
        -0.0029707318171858788,
        0.059475935995578766,
        -0.029708683490753174,
        -0.009969260543584824,
        0.008164324797689915,
        -0.04172791913151741,
        0.032185543328523636,
        0.021832464262843132,
        0.0039007000159472227,
        0.020766211673617363,
        0.028273090720176697,
        0.003265365958213806,
        0.01041788887232542,
        -0.0030963276512920856,
        -0.005044440273195505,
        0.00770341232419014,
        0.03120906464755535,
        0.01988799311220646,
        0.008400792255997658,
        0.023025019094347954,
        0.032068751752376556,
        -0.01465308666229248,
        -0.005261298269033432,
        -0.011641694232821465,
        -0.011611465364694595,
        -0.013925782404839993,
        0.007098196540027857,
        0.004495398141443729,
        0.00907063763588667,
        -0.00983236264437437,
        -0.01594293676316738,
        0.0024400774855166674,
        0.02794562093913555,
        0.021325713023543358,
        0.0037498553283512592,
        -0.004038173705339432,
        -0.006550041027367115,
        -0.02447894774377346,
        0.012557588517665863,
        0.11601471900939941,
        -0.013356443494558334,
        -0.029259826987981796,
        0.050674498081207275,
        -0.00028232260956428945,
        -0.06110209971666336,
        0.015317068435251713,
        -0.0756136104464531,
        0.03879151493310928,
        -0.004794460255652666,
        -0.163069486618042,
        -0.014451229013502598,
        0.008844593539834023,
        0.00760919414460659,
        -0.005671090912073851,
        -0.027401607483625412,
        -0.003729679388925433,
        -0.01610368862748146,
        -0.0023597474209964275,
        -0.030141672119498253,
        0.022358253598213196,
        -0.011951202526688576,
        0.00987487006932497,
        -0.010011296719312668,
        0.00017895472410600632,
        0.00191694893874228,
        0.004501810763031244,
        0.006414627656340599,
        0.0015583490021526814,
        0.04779509827494621,
        -0.009414687752723694,
        -0.01589454710483551,
        -0.024315958842635155,
        -0.03543825447559357,
        0.007710207719355822,
        0.012258104048669338,
        0.029121749103069305,
        -0.016612082719802856,
        0.0296148881316185,
        -0.004659316968172789,
        0.0042847623117268085,
        -0.04080522432923317,
        0.01713111437857151,
        -0.025200214236974716,
        0.004117372911423445,
        -0.49922481179237366,
        0.8601139187812805,
        -0.28892573714256287,
        -0.02698405832052231,
        -0.013288132846355438,
        -0.011244877241551876,
        0.04576518386602402,
        0.006195803172886372,
        -0.009889994747936726,
        0.0030095248948782682,
        0.0022270730696618557,
        0.018589509651064873,
        -0.05598541721701622,
        -0.024211371317505836,
        0.04605776444077492,
        -0.009939583949744701,
        0.018982501700520515,
        -0.016743386164307594,
        -0.02919611893594265,
        -0.2198507934808731,
        -0.042859796434640884,
        -0.3176433742046356,
        0.05074312537908554,
        0.20425760746002197,
        0.172639399766922,
        -0.12951350212097168,
        -0.08097892999649048,
        0.06366133689880371,
        -0.05910121276974678,
        -0.27989068627357483,
        0.02688801847398281,
        0.005831578746438026,
        -0.19930222630500793,
        0.07982683181762695,
        -0.07414402812719345,
        0.11217286437749863,
        -0.1948942095041275,
        -0.05286549776792526,
        0.0879267007112503,
        0.04847098886966705,
        0.03694761171936989,
        -0.08157616853713989,
        0.01012641191482544,
        0.1280301809310913,
        0.10528823733329773,
        0.09051822870969772,
        0.07293465733528137,
        0.03417643532156944,
        0.10597411543130875,
        -0.07366962730884552,
        0.11983279138803482,
        -0.16031691431999207,
        -0.21038119494915009,
        0.012722977437078953,
        -0.10937970876693726,
        -0.10285282880067825,
        0.053359027951955795,
        0.013808829709887505,
        0.05558205768465996,
        0.05208650231361389,
        0.003272540168836713,
        -0.04423098638653755,
        0.04029436036944389,
        -0.036280833184719086,
        0.04737420380115509,
        0.029507579281926155,
        0.0413152277469635,
        -0.000137434879434295,
        0.09241446852684021,
        0.04708828032016754,
        0.097751684486866,
        -0.003609837032854557,
        -0.0041540986858308315,
        -0.050665371119976044,
        0.07095339149236679,
        0.1243528202176094,
        -0.04420236870646477,
        -0.052827853709459305,
        -0.10367828607559204,
        -0.053003013134002686,
        0.0999823808670044,
        -0.16924181580543518,
        -0.0772043764591217,
        -0.06655652821063995,
        0.07406891882419586,
        0.06433142721652985,
        0.0366947278380394,
        0.04375491291284561,
        -0.0021521528251469135,
        0.16332070529460907,
        0.18958638608455658,
        -0.2804647386074066,
        -0.1692473590373993,
        -0.5706821084022522,
        0.1792195588350296,
        -0.009223897941410542,
        -0.24536852538585663,
        -0.1768093854188919,
        -0.057864367961883545,
        0.19718782603740692,
        0.27802783250808716,
        0.18475082516670227,
        0.1139741837978363,
        0.21713010966777802,
        0.00850488618016243,
        0.10226691514253616,
        -0.12109631299972534,
        -0.5163953900337219,
        -0.2688383162021637,
        -0.07300873845815659,
        -0.04998857527971268,
        0.008094912394881248,
        -0.007900531403720379,
        0.0278808381408453,
        -0.003439172636717558,
        0.027055207639932632,
        0.03886020556092262,
        0.03232230991125107,
        0.030247697606682777,
        -0.059585511684417725,
        0.039418164640665054,
        0.06099698692560196,
        0.11609417200088501,
        -0.028299296274781227,
        -0.030112260952591896,
        -0.03672437742352486,
        -0.0221322663128376,
        -0.06234348192811012,
        -0.02451464533805847,
        -0.07638828456401825,
        0.021342935040593147,
        -0.04978303238749504,
        -0.009014641866087914,
        0.05510420352220535,
        0.019484680145978928,
        -0.05952639505267143,
        -0.07162299007177353,
        0.010018780827522278,
        0.00871273409575224,
        -0.045382410287857056,
        -0.17346970736980438,
        0.01587311364710331,
        0.029742911458015442,
        0.012496602721512318,
        0.00200072443112731,
        0.11072093993425369,
        -0.021259650588035583,
        -0.12030274420976639,
        -0.016982603818178177,
        -0.0713132843375206,
        -0.16092470288276672,
        5.0984963309019804e-05,
        0.022069545462727547,
        0.01440233364701271,
        -0.13771966099739075,
        0.0018367209704592824,
        0.006421064026653767,
        0.11497704684734344,
        -1.1522717475891113,
        0.08135197311639786,
        -0.04358052834868431,
        -0.10349629819393158,
        0.07286331057548523,
        -0.27570128440856934,
        0.16512036323547363,
        0.162784606218338,
        -0.08808265626430511,
        0.11974433064460754,
        -0.08616118133068085,
        -0.1687128096818924,
        0.08299017697572708,
        0.007794336415827274,
        0.12135246396064758,
        0.10107886046171188,
        -0.011203095316886902,
        -0.011893506161868572,
        -0.015085010789334774,
        -0.16051724553108215,
        0.04934991896152496,
        -0.028357110917568207,
        -0.014553241431713104,
        0.14047855138778687,
        0.01110790017992258,
        -0.00956779159605503,
        0.005635010078549385,
        -0.12301453202962875,
        0.020011018961668015,
        0.008963369764387608,
        0.005835955962538719,
        -0.0282729621976614,
        0.012344714254140854,
        0.001923299627378583,
        0.018122857436537743,
        0.03734284266829491,
        0.020945580676198006,
        -0.0028733150102198124,
        0.03605473414063454,
        -0.07972218841314316,
        -0.042578503489494324,
        -0.0003248343709856272,
        -0.005138408858329058,
        0.11067385971546173,
        -0.04694528877735138,
        0.07179387658834457,
        0.08947080373764038,
        -0.018074780702590942,
        -0.04574901983141899,
        -0.1742524355649948,
        0.030568670481443405,
        -0.006079575978219509,
        -0.009175530634820461,
        -0.0114493602886796,
        -0.04837280884385109,
        0.034316468983888626,
        0.03491142764687538,
        -0.036298688501119614,
        0.04246324300765991,
        0.06207425892353058,
        -0.015180809423327446,
        0.002782867755740881,
        -0.004421796649694443,
        -0.019665982574224472,
        0.034555356949567795,
        -0.06492561846971512,
        -0.003247553948312998,
        -0.04146498441696167,
        -0.10873298346996307,
        -1.0691133737564087,
        0.059065695852041245,
        0.6417884826660156,
        0.008663223125040531,
        -0.053436651825904846,
        0.007295855786651373,
        0.11764776706695557,
        -0.13688208162784576,
        -0.024398671463131905,
        0.01997934654355049,
        -0.14688637852668762,
        -0.001908258767798543,
        0.08850801736116409,
        0.025456154718995094,
        0.003923735581338406,
        0.04672335833311081,
        0.0641784742474556,
        0.02640613541007042,
        0.014773630537092686,
        0.02556591108441353,
        -0.012633022852241993,
        0.003776038531213999,
        0.003560457844287157,
        -0.0027182563208043575,
        -0.001483617234043777,
        0.010461948812007904,
        0.004073933698236942,
        0.002839303109794855,
        -0.0055139511823654175,
        -0.03131801262497902,
        -0.01781117357313633,
        0.006820910610258579,
        0.0008897677762433887,
        0.012675929814577103,
        0.014519432559609413,
        -0.0016222334234043956,
        -0.03377377241849899,
        -0.014796224422752857,
        -0.022749843075871468,
        -0.012854266911745071,
        0.0009854361414909363,
        -0.012224821373820305,
        -0.014522113837301731,
        -0.012870488688349724,
        -0.014283969067037106,
        -0.1421944797039032,
        0.006582524161785841,
        0.011789605021476746,
        0.03462504222989082,
        0.0022542353253811598,
        0.003138127736747265,
        0.004068724811077118,
        -0.010523742996156216,
        -0.05358046293258667,
        0.00025187115534208715,
        0.04146681725978851,
        -0.02342033199965954,
        -0.013170169666409492,
        0.05123843997716904,
        0.016108348965644836,
        -0.15070244669914246,
        -0.05679592490196228,
        -0.08372712880373001,
        0.0930214673280716,
        -0.18330079317092896,
        -0.47246792912483215,
        0.1294955611228943,
        0.14425843954086304,
        -0.09913697838783264,
        -0.04020111635327339,
        -0.15448936820030212,
        -0.07356151193380356,
        -0.03151438385248184,
        -0.13967718183994293,
        0.14424321055412292,
        0.08030354976654053,
        0.24007795751094818,
        -0.3034801483154297,
        0.024793170392513275,
        -0.2176429033279419,
        -0.12263545393943787,
        0.048946257680654526,
        0.07172130793333054,
        -0.0003253028553444892,
        0.12404850125312805,
        0.15029706060886383,
        0.1167968288064003,
        0.08846992999315262,
        0.06792294979095459,
        0.05516452342271805,
        0.05852147191762924,
        0.05739719420671463,
        -0.15469467639923096,
        -0.05741393193602562,
        -0.05845501646399498,
        -0.023456072434782982,
        0.08704203367233276,
        0.010603716596961021,
        -0.036876704543828964,
        -0.050949882715940475,
        0.0032885216642171144,
        0.13163401186466217,
        0.07988297939300537,
        0.0764201283454895,
        0.023874731734395027,
        -0.03738793730735779,
        -0.020109238103032112,
        -0.023532897233963013,
        0.0700758546590805,
        0.06447016447782516,
        0.020954053848981857,
        0.016549816355109215,
        0.10274748504161835,
        0.06004125624895096,
        0.0834713876247406,
        0.01580667868256569,
        -0.039881207048892975,
        -0.09991071373224258,
        -0.0013110211584717035,
        0.028606034815311432,
        0.012169308960437775,
        -0.0534624345600605,
        -0.03626173734664917,
        0.03191137686371803,
        -0.025448139756917953,
        -0.017970606684684753,
        -0.006384517531841993,
        0.006972585339099169,
        0.14566071331501007,
        -0.008404205553233624,
        0.10857123136520386,
        -0.008245453238487244,
        -0.00926832016557455,
        -0.05327681824564934,
        0.12693525850772858,
        0.0428929440677166,
        0.023581158369779587,
        0.20233863592147827,
        0.12299845367670059,
        0.0006526326178573072,
        -0.19026541709899902,
        -0.03230132535099983,
        -0.017239663749933243,
        0.04071604460477829,
        -0.13340678811073303,
        -0.02315801940858364,
        -0.5903911590576172,
        -1.112438440322876,
        -0.21669083833694458,
        -0.059629395604133606,
        0.03841569647192955,
        0.06397980451583862,
        0.0263393372297287,
        0.03344789147377014,
        0.0053171138279139996,
        0.03358788043260574,
        0.029626766219735146,
        0.011394976638257504,
        0.004382092505693436,
        -0.1401030421257019,
        -0.030628208070993423,
        0.0027886282186955214,
        -0.005441097542643547,
        0.0503598190844059,
        0.034354694187641144,
        0.0033628027886152267,
        -0.008509782142937183,
        0.011836967431008816,
        -0.10848869383335114,
        -0.05740871652960777,
        -0.05855869501829147,
        -0.05123545974493027,
        0.0013359572039917111,
        0.008693801239132881,
        0.025507528334856033,
        0.052755557000637054,
        0.001785054337233305,
        -0.0019645304419100285,
        0.008987941779196262,
        -0.004410342313349247,
        0.027021313086152077,
        0.11306006461381912,
        0.006106803193688393,
        0.0033024230506271124,
        0.010414252988994122,
        0.01829572767019272,
        -0.009904852136969566,
        -0.03879733383655548,
        0.023920515552163124,
        0.03217924013733864,
        -0.06874888390302658,
        -0.09757861495018005,
        -0.013869374990463257,
        0.03401318937540054,
        -0.011287946254014969,
        0.46983081102371216,
        0.07502476871013641,
        0.09300709515810013,
        -0.06054011359810829,
        0.16257350146770477,
        0.16978052258491516,
        0.11869263648986816,
        -0.19396786391735077,
        -0.08420056104660034,
        -0.7738258242607117,
        -0.39161863923072815,
        0.23715513944625854,
        -0.03636917099356651,
        0.4000001847743988,
        -0.008476217277348042,
        0.042040932923555374,
        0.10368295758962631,
        -0.05560856685042381,
        0.08547508716583252,
        0.1917661428451538,
        -0.013513398356735706,
        -0.11853787302970886,
        -0.06602905690670013,
        0.06757338345050812,
        0.013862980529665947,
        0.02466626837849617,
        0.026230132207274437,
        -0.0016986808041110635,
        0.02170240506529808,
        0.02232298068702221,
        0.021404342725872993,
        -0.02086486853659153,
        -0.05445610359311104,
        -0.03508026525378227,
        0.039007384330034256,
        -0.021810205653309822,
        0.040442585945129395,
        0.04419131204485893,
        0.005662359297275543,
        -0.009159460663795471,
        -0.08893679827451706,
        -0.09175287932157516,
        -0.030390052124857903,
        0.1078198179602623,
        0.04630718752741814,
        0.06729526817798615,
        0.03180143982172012,
        0.08316460251808167,
        -0.02090684324502945,
        0.045643214136362076,
        0.023029981181025505,
        -0.0916535034775734,
        -0.05367620661854744,
        0.036512307822704315,
        0.035386279225349426,
        0.0377713218331337,
        0.03901282697916031,
        0.025153975933790207,
        0.00276166177354753,
        -0.0379403792321682,
        -0.026818832382559776,
        -0.008568907156586647,
        -0.056359514594078064,
        -0.0814749225974083,
        0.038702692836523056,
        0.03949308022856712,
        0.013498350977897644,
        0.08183754235506058,
        -0.09263650327920914,
        0.11682453751564026,
        0.05416420102119446,
        -0.18193644285202026,
        0.10437848418951035,
        -0.023271506652235985,
        -0.12568022310733795,
        0.022682776674628258,
        0.028792746365070343,
        0.031067291274666786,
        -0.02636048197746277,
        0.009495862759649754,
        -0.010617667809128761,
        0.2518421709537506,
        0.04912422224879265,
        0.022892868146300316,
        -0.12867876887321472,
        -0.02507343515753746,
        0.0593978688120842,
        0.0017999307019636035,
        0.04296161234378815,
        -0.11527078598737717,
        -0.03420364111661911,
        0.048724155873060226,
        -0.028527338057756424,
        -0.05141669139266014,
        0.003299620235338807,
        0.022292451933026314,
        -0.006371481344103813,
        -0.013070707209408283,
        0.060537438839673996,
        0.0004959955695085227,
        0.03551343083381653,
        0.04314866662025452,
        -0.013741620816290379,
        0.011167791672050953,
        0.0372760109603405,
        0.02330121397972107,
        0.009806355461478233,
        -0.034482184797525406,
        0.0032971277832984924,
        -0.08743368834257126,
        0.009768931195139885,
        0.012846562080085278,
        -0.032570935785770416,
        0.05524768307805061,
        0.07694961875677109,
        0.060095131397247314,
        -0.037347376346588135,
        0.008875725790858269,
        -0.5696817636489868,
        -0.42805105447769165,
        -0.37395015358924866,
        -0.023982200771570206,
        -0.04359347000718117,
        0.059159647673368454,
        0.08459191024303436,
        -0.09008696675300598,
        -0.1246427521109581,
        0.008930932730436325,
        -0.054741907864809036,
        -0.14753609895706177,
        -0.07535993307828903,
        0.06767033785581589,
        0.05990657955408096,
        0.008289451710879803,
        -0.18944936990737915,
        0.04591449350118637,
        -0.1116945892572403,
        -0.01853586733341217,
        0.33891406655311584,
        0.1958346664905548,
        0.0032428507693111897,
        -0.21398182213306427,
        -0.07859156280755997,
        0.14840638637542725,
        0.04374377056956291,
        0.011909529566764832,
        0.2334757000207901,
        -0.02005627006292343,
        0.021688321605324745,
        0.11292362958192825,
        -0.030247073620557785,
        -0.06138806790113449,
        -0.28194379806518555,
        -0.028447672724723816,
        -0.036250077188014984,
        0.06220981851220131,
        0.10071416944265366,
        0.05470961704850197,
        -0.9925621151924133,
        -0.42062586545944214,
        -0.28547874093055725,
        0.06713477522134781,
        -0.02685866691172123,
        -0.01229309942573309,
        -0.01756591908633709,
        0.10944769531488419,
        0.00757487490773201,
        0.021105358377099037,
        0.04319778084754944,
        -0.09431246668100357,
        -0.031470201909542084,
        -0.02020716480910778,
        -0.0321747288107872,
        -0.09372112900018692,
        -0.00791880488395691,
        0.06968745589256287,
        0.06219467520713806,
        0.054259538650512695,
        0.04395462945103645,
        -0.023184433579444885,
        -0.0038407084066420794,
        0.003020435804501176,
        -0.029630206525325775,
        -0.01631864160299301,
        -0.006474245805293322,
        -0.08319975435733795,
        0.11070037633180618,
        0.1042240634560585,
        -0.30437007546424866,
        -0.3095150589942932,
        0.02126307785511017,
        0.02145952172577381,
        0.0005564430030062795,
        -0.028222370892763138,
        -0.00815465860068798,
        0.024430768564343452,
        0.076395183801651,
        0.054032206535339355,
        -0.009506406262516975,
        -0.03470519185066223,
        0.00822355691343546,
        0.003644912037998438,
        -0.059009961783885956,
        0.14471788704395294,
        0.05760261043906212,
        0.45695480704307556,
        0.1527366191148758,
        -0.016093838959932327,
        -0.16120411455631256,
        -0.003967898432165384,
        0.04739275202155113,
        0.012518028728663921,
        -0.011825935915112495,
        -0.13529981672763824,
        0.0073392209596931934,
        0.007310944609344006,
        -0.03375278785824776,
        0.10718382894992828,
        0.012613894417881966,
        -0.11473143100738525,
        0.03242615610361099,
        0.055591389536857605,
        -0.04427404701709747,
        -0.03434707224369049,
        -0.03512599319219589,
        0.008153150789439678,
        0.004482813645154238,
        -0.006523633375763893,
        -0.008816051296889782,
        0.000605338835157454,
        -0.00873624812811613,
        -0.016695667058229446,
        0.015369955450296402,
        -0.0755114033818245,
        0.009641866199672222,
        0.062177903950214386,
        0.006743189413100481,
        -0.010945634916424751,
        -0.012536751106381416,
        -0.037916019558906555,
        -0.005240580067038536,
        0.08766151964664459,
        -0.003691485384479165,
        -0.008392160758376122,
        0.027107346802949905,
        -0.10600566118955612,
        -0.027477717027068138,
        0.004721214063465595,
        0.010785126127302647,
        0.01684187725186348,
        -0.07870107889175415,
        0.05850299820303917,
        0.0706772655248642,
        -0.2663898766040802,
        -0.004477576818317175,
        0.05468146130442619,
        -0.013607640750706196,
        -0.2284289300441742,
        -0.006875721737742424,
        0.2766849398612976,
        0.044853027909994125,
        0.062287360429763794,
        -0.12221860140562057,
        -0.37384334206581116,
        0.12844984233379364,
        0.18562635779380798,
        -0.069413922727108,
        -0.007656332105398178,
        -0.0903482511639595,
        -0.020667223259806633,
        -0.022767841815948486,
        0.007340378127992153,
        0.04141586646437645,
        0.00749720586463809,
        -0.03371967747807503,
        -0.04608926549553871,
        -0.0028073948342353106,
        0.030262527987360954,
        0.01795624941587448,
        0.007255030795931816,
        0.04533430188894272,
        0.035967227071523666,
        0.022644583135843277,
        -0.006141230929642916,
        0.08858168125152588,
        0.010857678949832916,
        -0.09191913902759552,
        0.010237613692879677,
        -0.012400689534842968,
        0.09423511475324631,
        -0.005415737628936768,
        0.005197103135287762,
        0.017936846241354942,
        0.03933265432715416,
        -0.025140469893813133,
        -0.0027282319497317076,
        -0.0002241106703877449,
        0.12397753447294235,
        -0.0035033393651247025,
        0.09117522835731506,
        0.12364351004362106,
        -0.7693120837211609,
        0.07007096707820892,
        -0.03407967463135719,
        -0.02225237712264061,
        -0.41278502345085144,
        -0.0011166844051331282,
        -0.02079501748085022,
        -0.024610502645373344,
        0.3863025903701782,
        -0.02302095852792263,
        -0.021711822599172592,
        0.0075315083377063274,
        -0.04021034389734268,
        0.0142099903896451,
        0.021571451798081398,
        -0.012120544910430908,
        0.032486554235219955,
        -0.030074916779994965,
        -0.04698724299669266,
        0.00285148061811924,
        -0.0002656297292560339,
        -0.004177498631179333,
        0.007935529574751854,
        -0.0007051590946502984,
        -0.010359933599829674,
        0.0465664304792881,
        0.029908720403909683,
        0.037696473300457,
        0.044619277119636536,
        -0.018297556787729263,
        -0.024663249030709267,
        0.008555823937058449,
        0.02291935868561268,
        -0.17889437079429626,
        0.12050061672925949,
        0.17017921805381775,
        0.0850336104631424,
        -0.3530745804309845,
        0.046820059418678284,
        -0.09477882832288742,
        -0.1103750616312027,
        0.19006797671318054,
        -0.14684954285621643,
        0.01855461299419403,
        -0.22106894850730896,
        -0.0023581471759825945,
        -0.20047427713871002,
        -0.2259272187948227,
        0.16097970306873322,
        -0.050326231867074966,
        0.22102507948875427,
        0.10287252068519592,
        -0.1264011710882187,
        0.22642946243286133,
        -0.0775873214006424,
        -0.045595649629831314,
        -0.06620604544878006,
        0.1667601615190506,
        0.02446022816002369,
        0.024844486266374588,
        0.02241843193769455,
        -0.0461340993642807,
        -0.006653861608356237,
        0.07359766215085983,
        -0.02186076156795025,
        0.016400475054979324,
        0.0516921803355217,
        0.05052623152732849,
        0.0005167476483620703,
        -0.014227607287466526,
        -0.0016454405849799514,
        -0.03141406178474426,
        0.01677549257874489,
        -0.0461181104183197,
        -0.03629112243652344,
        0.02519065886735916,
        0.09096923470497131,
        -0.007251204922795296,
        -0.023823199793696404,
        0.051921311765909195,
        0.010325989685952663,
        0.07320850342512131,
        0.03235665336251259,
        0.04015301540493965,
        -0.12041528522968292,
        -0.041676849126815796,
        -0.09600888937711716,
        -0.0833740308880806,
        -0.09798372536897659,
        -0.2208460122346878,
        -0.17327238619327545,
        0.13110077381134033,
        0.1179753839969635,
        -0.11223635077476501,
        0.03553461283445358,
        0.03833940997719765,
        0.12227337062358856,
        -0.11284761875867844,
        0.03612426668405533,
        -0.05371588468551636,
        -0.0016403086483478546,
        -0.001039639813825488,
        -0.009763630107045174,
        -0.02152893878519535,
        -0.03426498919725418,
        0.008086321875452995,
        0.08790691941976547,
        0.0333542600274086,
        -0.0642356425523758,
        -0.034224942326545715,
        -0.02789837308228016,
        -0.023804305121302605,
        0.010868338868021965,
        0.049199316650629044,
        -0.14428885281085968,
        0.023176472634077072,
        -0.02044650726020336,
        0.11551100760698318,
        0.03808528557419777,
        -0.05366608500480652,
        0.045489054173231125,
        -0.547535240650177,
        0.014019487425684929,
        0.014730997383594513,
        0.011384178884327412,
        -0.11994002014398575,
        0.05003374069929123,
        0.01090416219085455,
        -0.0001871678396128118,
        0.03270435333251953,
        -0.001962838228791952,
        -0.0039208754897117615,
        0.005495812278240919,
        -0.07896019518375397,
        0.00028442757320590317,
        0.03516370803117752,
        -0.005432605277746916,
        -0.005418194457888603,
        0.034141600131988525,
        -0.009576437063515186,
        -0.04747999832034111,
        0.164397194981575,
        -0.02373681776225567,
        -0.0008625949267297983,
        0.0706833153963089,
        -1.2132686376571655,
        0.08425723016262054,
        0.051934000104665756,
        0.021762175485491753,
        0.014135508798062801,
        0.024172360077500343,
        0.02063661627471447,
        -0.05075306072831154,
        0.0015516647836193442,
        0.35232144594192505,
        0.00895727053284645,
        0.010937172919511795,
        -0.00022439550957642496,
        -0.0003878934949170798,
        -0.023086071014404297,
        -0.023682566359639168,
        0.03553848713636398,
        0.0023932617623358965,
        0.012446734122931957,
        0.05849285423755646,
        0.0005614501424133778,
        0.05578712746500969,
        -0.020201679319143295,
        -0.03744342550635338,
        -0.24953433871269226,
        0.02405707538127899,
        -0.031768109649419785,
        0.05915818735957146,
        0.024043980985879898,
        0.030437754467129707,
        0.06894099712371826,
        0.12121853977441788,
        0.039908234030008316,
        0.09698928147554398,
        -0.20297282934188843,
        -0.06245573237538338,
        -0.09651834517717361,
        -0.07476801425218582,
        -0.010138776153326035,
        -0.14651456475257874,
        -0.00897173397243023,
        0.10090722888708115,
        0.11487475782632828,
        -0.12923206388950348,
        -0.03454515337944031,
        0.0903046503663063,
        -0.10203169286251068,
        0.04920686036348343,
        -0.18276074528694153,
        -0.2347198724746704,
        -0.17738066613674164,
        -0.20595398545265198,
        -0.058722276240587234,
        -0.06657715886831284,
        -0.04559978470206261,
        0.14976058900356293,
        0.1096416562795639,
        0.12764333188533783,
        0.08135106414556503,
        -0.10060595721006393,
        -0.021675394847989082,
        -0.01520058885216713,
        0.05729274824261665,
        -0.022237254306674004,
        0.07134655863046646,
        0.14833785593509674,
        0.06285081803798676,
        0.1567213088274002,
        -0.08918830007314682,
        -0.18049807846546173,
        0.04439061880111694,
        0.16892708837985992,
        0.12295952439308167,
        0.021544592455029488,
        -0.009038920514285564,
        0.06536881625652313,
        0.06396401673555374,
        -0.007422259543091059,
        -0.028971834108233452,
        0.028241591528058052,
        -0.005035527050495148,
        0.017868855968117714,
        -0.09987185150384903,
        0.05488389730453491,
        0.18716086447238922,
        -0.03883863985538483,
        0.09474162012338638,
        0.08842825889587402,
        -0.04958341643214226,
        0.0068666934967041016,
        -0.08016931265592575,
        0.06558515876531601,
        0.13184955716133118,
        -0.004216419067233801,
        -0.14451242983341217,
        0.016248121857643127,
        -0.0473761111497879,
        0.010366510599851608,
        0.017105568200349808,
        0.4268505871295929,
        -0.028032872825860977,
        -0.15582208335399628,
        -0.024935154244303703,
        0.12209382653236389,
        -0.040118034929037094,
        -0.2153361737728119,
        -0.8250102400779724,
        0.018962809816002846,
        -1.1196914911270142,
        -0.008019102737307549,
        0.04400475695729256,
        0.038451649248600006,
        -0.06463256478309631,
        -0.046040792018175125,
        -0.02089609205722809,
        -0.018737975507974625,
        0.019798416644334793,
        0.019896654412150383,
        -0.0020132323261350393,
        0.006854023784399033,
        0.010590656660497189,
        -0.026274746283888817,
        0.13205985724925995,
        0.020247971639037132,
        0.044286854565143585,
        -0.04572438821196556,
        -0.043903037905693054,
        0.01726899854838848,
        0.01972929947078228,
        -0.023510511964559555,
        -0.07707879692316055,
        -0.09128446877002716,
        -0.04413093626499176,
        -0.041311610490083694,
        0.058809880167245865,
        0.03913132846355438,
        -0.02820938266813755,
        0.11544483155012131,
        0.059062257409095764,
        0.08217238634824753,
        0.045576851814985275,
        -0.07911237329244614,
        0.0017730712424963713,
        -0.0036516066174954176,
        -0.00978950783610344,
        0.030698582530021667,
        -0.0007478978368453681,
        -0.0016199974343180656,
        -0.031788989901542664,
        0.08901015669107437,
        0.07000785320997238,
        -0.055328406393527985,
        -0.046487320214509964,
        -0.005081983748823404,
        -0.017836567014455795,
        -0.0028249393217265606,
        0.013405980542302132,
        -0.002899774583056569,
        -0.5966499447822571,
        0.14048148691654205,
        0.05766032263636589,
        -0.0968763455748558,
        0.14686483144760132,
        -0.088076151907444,
        0.011576388962566853,
        0.05005194991827011,
        0.07404160499572754,
        0.03889459744095802,
        -0.004777754656970501,
        -0.09078632295131683,
        -0.10291505604982376,
        0.031107215210795403,
        0.029587365686893463,
        0.04236903041601181,
        -0.03160439059138298,
        -0.08472275733947754,
        -0.015021366998553276,
        0.016230765730142593,
        -0.02375098131597042,
        0.11362951993942261,
        0.05103087052702904,
        -0.03905031085014343,
        -0.003749242052435875,
        0.01975247636437416,
        0.005345256999135017,
        0.00219043530523777,
        0.001956004649400711,
        0.0053576016798615456,
        -0.04679706320166588,
        0.009131946600973606,
        0.014670604839920998,
        0.013576999306678772,
        0.06316749006509781,
        -0.007335048168897629,
        -0.00901209656149149,
        0.02444569766521454,
        -0.01551758497953415,
        0.0838034451007843,
        0.03535202518105507,
        0.1047353446483612,
        -0.0032053992617875338,
        -0.061597757041454315,
        0.026759736239910126,
        -0.04249400272965431,
        0.05969345197081566,
        0.042472679167985916,
        0.013991551473736763,
        -0.011474588885903358,
        -0.05959133058786392,
        0.12676392495632172,
        -0.7090786099433899,
        0.026145508512854576,
        0.02577386610209942,
        0.0011197479907423258,
        -0.018085772171616554,
        -0.009626857005059719,
        0.1542178988456726,
        0.010306920856237411,
        -0.13251280784606934,
        0.11868120729923248,
        -0.028491554781794548,
        -0.041283827275037766,
        0.013835611753165722,
        -0.005248839966952801,
        0.19316425919532776,
        0.13304777443408966,
        -0.1268976926803589,
        0.22042109072208405,
        0.4950821101665497,
        0.009816689416766167,
        0.03197937831282616,
        0.012693439610302448,
        -0.013070899061858654,
        -0.20241643488407135,
        -0.3997419774532318,
        -0.004438494797796011,
        0.10460808128118515,
        -0.8446361422538757,
        -0.0858706384897232,
        0.020184965804219246,
        -0.0911678895354271,
        0.04567062854766846,
        -0.38822174072265625,
        0.07398613542318344,
        0.09121467918157578,
        -0.02404945343732834,
        -0.0013999396469444036,
        -0.2323758900165558,
        -0.037381697446107864,
        -0.05012797191739082,
        -0.06487669050693512,
        0.07130308449268341,
        0.003831572597846389,
        0.008965929970145226,
        0.010194528847932816,
        -0.16443869471549988,
        -0.06227414309978485,
        -0.048495206981897354,
        -0.023777205497026443,
        0.10059568285942078,
        0.015596704557538033,
        0.019024871289730072,
        -0.003675900399684906,
        -0.05146998167037964,
        -0.021210715174674988,
        -0.017935581505298615,
        0.026501962915062904,
        -0.047005362808704376,
        0.007577235344797373,
        0.023246752098202705,
        0.012743297964334488,
        -0.037365105003118515,
        -0.10312212258577347,
        -0.0006049528019502759,
        0.059526436030864716,
        -0.0446765311062336,
        -0.02505999431014061,
        -0.05732304975390434,
        -0.03883584961295128,
        -0.0780331939458847,
        -0.01610870473086834,
        -0.008966157212853432,
        0.02263062074780464,
        0.0224610585719347,
        -0.05713440850377083,
        -0.00830314215272665,
        0.06486931443214417,
        0.03214414790272713,
        0.012177038937807083,
        0.038628727197647095,
        0.04832633584737778,
        -0.06464316695928574,
        0.14396168291568756,
        -0.03163360804319382,
        -0.012348289601504803,
        -0.6571833491325378,
        0.10905937105417252,
        -0.0643157809972763,
        -0.11022753268480301,
        -0.06109219789505005,
        -0.08825603127479553,
        0.01352626271545887,
        -0.012707848101854324,
        -0.032962605357170105,
        -0.12703804671764374,
        -0.017179545015096664,
        0.23904329538345337,
        -0.04173482209444046,
        -0.15515866875648499,
        -0.11331421136856079,
        0.21148882806301117,
        0.1559421569108963,
        -0.020182978361845016,
        -0.1593565195798874,
        0.18726952373981476,
        -0.06059867516160011,
        0.009324201382696629,
        -0.016214843839406967,
        0.15053300559520721,
        -0.0040984670631587505,
        -0.03148040547966957,
        -0.04502086341381073,
        0.0256939884275198,
        -0.11815381050109863,
        -0.006949848961085081,
        0.011670182459056377,
        0.2087031900882721,
        0.019701968878507614,
        -0.004823666997253895,
        0.0073766144923865795,
        0.2714790105819702,
        -0.1375713050365448,
        -0.025023119524121284,
        0.004154480993747711,
        -0.00346181052736938,
        0.11151887476444244,
        0.011580086313188076,
        -0.007197336759418249,
        0.09000005573034286,
        0.17501048743724823,
        0.03082272969186306,
        0.02591557614505291,
        -0.2076675146818161,
        -0.02301652915775776,
        0.18513475358486176,
        -0.0599406398832798,
        0.0035683305468410254,
        -0.013824538327753544,
        0.014816521666944027,
        0.1005333662033081,
        0.02826237864792347,
        -0.03253503143787384,
        0.035292088985443115,
        0.061487145721912384,
        -0.001322953263297677,
        -0.009973027743399143,
        -0.0023742339108139277,
        -0.0054648444056510925,
        -0.04065300524234772,
        0.008172892034053802,
        -0.04967360198497772,
        0.04706593602895737,
        0.5792176127433777,
        0.03525431081652641,
        0.017225956544280052,
        0.0018282701494172215,
        0.017156708985567093,
        -0.06355197727680206,
        0.006188644096255302,
        0.016854405403137207,
        0.00024170629330910742,
        0.002775804838165641,
        0.02944319322705269,
        0.021872278302907944,
        0.1259818822145462,
        -0.025515975430607796,
        -0.08264593034982681,
        0.0011513573117554188,
        -0.041687168180942535,
        0.022798728197813034,
        -0.031132159754633904,
        -0.002297020750120282,
        0.009640472941100597,
        0.004201293922960758,
        -0.05544840171933174,
        -0.011893750168383121,
        -0.006596321705728769,
        0.008305922150611877,
        0.033599354326725006,
        -0.005008957348763943,
        0.027941374108195305,
        0.010655655525624752,
        -0.03895553573966026,
        -0.017933841794729233,
        -0.017907004803419113,
        -0.011322089470922947,
        0.05267137289047241,
        0.007750882767140865,
        -0.026112886145710945,
        0.004666381049901247,
        0.20517966151237488,
        0.010720008984208107,
        0.05241694673895836,
        0.026597127318382263,
        -0.913320779800415,
        0.016835574060678482,
        0.00859782937914133,
        0.00018126344366464764,
        0.005462927743792534,
        -0.010323391295969486,
        -0.021733181551098824,
        -0.015026486478745937,
        -0.006990928202867508,
        0.02710125595331192,
        -0.006760136689990759,
        -0.016542455181479454,
        0.01302860863506794,
        0.010351644828915596,
        -0.006602173671126366,
        -0.016127869486808777,
        -0.008969960734248161,
        -0.04563501849770546,
        0.04000473394989967,
        0.03784674033522606,
        -0.021502189338207245,
        -0.05201197415590286,
        -0.02421705052256584,
        0.0019488577963784337,
        0.016923319548368454,
        -0.14919252693653107,
        0.13474895060062408,
        -0.04940297082066536,
        -0.17513103783130646,
        0.0003747843438759446,
        0.02190730907022953,
        -0.022512473165988922,
        0.009029059670865536,
        0.09480045735836029,
        0.0012416084064170718,
        -0.03416188061237335,
        -0.016939114779233932,
        0.21631115674972534,
        0.015089248307049274,
        -0.16803553700447083,
        0.005961522925645113,
        0.03419383987784386,
        0.02004602551460266,
        0.011130391620099545,
        -0.045601848512887955,
        0.24989865720272064,
        -0.03292622044682503,
        0.0016759722493588924,
        -0.019518744200468063,
        0.09580068290233612,
        -0.00029727272340096533,
        -0.002370524685829878,
        0.18410290777683258,
        -0.9649978280067444,
        0.07728326320648193,
        0.10498443245887756,
        0.00587191479280591,
        -0.558584451675415,
        0.029212145134806633,
        0.001995537895709276,
        -0.11728817224502563,
        0.296265572309494,
        -0.06059851497411728,
        -0.02522667497396469,
        -0.028540734201669693,
        0.05855738744139671,
        -0.01186488475650549,
        -0.0153043232858181,
        -0.003222361207008362,
        -0.030520163476467133,
        0.013919899240136147,
        -0.059870921075344086,
        0.021643711254000664,
        0.026884429156780243,
        0.040006373077631,
        0.01694098673760891,
        0.0067639728076756,
        0.016186432912945747,
        0.0017222822643816471,
        0.004986951127648354,
        -0.010097079910337925,
        0.006679745391011238,
        0.043498482555150986,
        -0.040823571383953094,
        -0.05532500147819519,
        -0.009772238321602345,
        0.0005520199774764478,
        0.0007908348343335092,
        0.14180023968219757,
        0.04102696105837822,
        -0.1910138726234436,
        0.008170029148459435,
        -0.16910499334335327,
        -0.021302133798599243,
        0.1000247523188591,
        -0.007902131415903568,
        0.030967295169830322,
        0.28931745886802673,
        0.26760244369506836,
        -0.4199521243572235,
        -0.07796750962734222,
        0.14754454791545868,
        -0.16640067100524902,
        0.06427715718746185,
        -0.07689546793699265,
        -0.021777136251330376,
        0.224644273519516,
        0.03037986159324646,
        -0.0024480274878442287,
        -0.02660810388624668,
        -0.02995345927774906,
        -0.000422583834733814,
        -0.0049468339420855045,
        -0.05283881723880768,
        -0.03480765223503113,
        0.005596231669187546,
        0.009961874224245548,
        0.02339337393641472,
        0.014148751273751259,
        0.011610385961830616,
        0.022955050691962242,
        -0.00807963963598013,
        -0.006628843490034342,
        0.01666940003633499,
        -0.0120689170435071,
        -0.029513301327824593,
        0.005938548129051924,
        0.020282059907913208,
        -0.014316282235085964,
        0.01236033532768488,
        0.001295302645303309,
        0.06698920577764511,
        -0.004721164703369141,
        -0.037257369607686996,
        0.009244916960597038,
        -0.6244215965270996,
        -0.09181267768144608,
        0.4628503620624542,
        -0.032997701317071915,
        0.003733518300577998,
        -0.004951924085617065,
        -0.02667255885899067,
        -0.053914278745651245,
        -0.026140080764889717,
        0.00030433398205786943,
        0.005119051784276962,
        -0.053631480783224106,
        0.04094260185956955,
        0.08136537671089172,
        -0.03193510323762894,
        0.03768482059240341,
        0.03647945076227188,
        0.008770025335252285,
        -0.0769604817032814,
        0.17171044647693634,
        0.036902669817209244,
        0.14868126809597015,
        0.10301999747753143,
        -0.03835064545273781,
        0.8858036398887634,
        -0.1644926816225052,
        0.05039538815617561,
        0.18444760143756866,
        -0.05246621370315552,
        -0.013796809129416943,
        0.04441870003938675,
        0.07403606921434402,
        -0.11469981074333191,
        -0.014776168391108513,
        -0.0593063160777092,
        -0.13468995690345764,
        -0.04246619716286659,
        0.08554627746343613,
        0.2647777497768402,
        0.003151679178699851,
        0.021328439936041832,
        0.019918292760849,
        -0.0008193503017537296,
        -0.06584963202476501,
        0.07720046490430832,
        0.013157488778233528,
        0.0005901213735342026,
        0.055413175374269485,
        0.011377843096852303,
        -0.020956894382834435,
        -0.020012978464365005,
        0.062118444591760635,
        0.01332095917314291,
        0.009752471931278706,
        -0.005363489966839552,
        0.0385928675532341,
        -0.02062354050576687,
        -0.016944631934165955,
        0.004711200017482042,
        -0.03882372006773949,
        -0.07816145569086075,
        -0.04932726174592972,
        -0.026985742151737213,
        0.029462691396474838,
        0.014962387271225452,
        0.0109582943841815,
        0.022193586453795433,
        -0.057002440094947815,
        -0.1632615178823471,
        -0.0697556659579277,
        -0.04637322574853897,
        -0.03861210495233536,
        -0.04527444392442703,
        -0.48207834362983704,
        0.012290059588849545,
        -0.010694517754018307,
        -0.017071111127734184,
        -0.013003330677747726,
        0.021735267713665962,
        0.10406503081321716,
        0.0033563205506652594,
        -0.07796742022037506,
        -0.012810666114091873,
        -0.05534131079912186,
        -0.051041413098573685,
        0.03266322240233421,
        0.009056666865944862,
        -0.030220968648791313,
        -0.009062236174941063,
        -0.046872369945049286,
        -0.019975848495960236,
        0.05511053651571274,
        -0.009568161331117153,
        0.15599983930587769,
        0.02113482914865017,
        0.1522723138332367,
        0.5993331670761108,
        0.034343019127845764,
        0.00041224044980481267,
        0.056229718029499054,
        0.027298517525196075,
        0.0164154265075922,
        -0.13342790305614471,
        -0.7179723381996155,
        0.13014313578605652,
        -1.388601541519165,
        -0.4478861689567566,
        -0.05637040734291077,
        -0.06526540964841843,
        -0.007074739784002304,
        -0.26844799518585205,
        0.013855082914233208,
        -0.010643644258379936,
        -0.006392066832631826,
        -0.012845830991864204,
        -0.0029079189989715815,
        0.003047620877623558,
        0.003459330415353179,
        0.06641970574855804,
        -0.010630113072693348,
        0.01171702891588211,
        -0.02824917621910572,
        -0.07004421204328537,
        -0.00014747258683200926,
        -0.010668543167412281,
        0.02658819407224655,
        0.0042042541317641735,
        0.004782746080309153,
        0.017312049865722656,
        0.020159555599093437,
        -0.38301894068717957,
        0.0516427643597126,
        0.006427788641303778,
        0.01433531567454338,
        -0.0017229970544576645,
        -0.0004086676344741136,
        0.0019987234845757484,
        0.006241221912205219,
        0.011789114214479923,
        0.00826950091868639,
        -0.0573347806930542,
        0.006821685004979372,
        0.029984526336193085,
        0.002883564680814743,
        0.0002245502982987091,
        -0.0042193285189569,
        -0.03224170580506325,
        0.00801170151680708,
        0.03453858941793442,
        -0.022583195939660072,
        -0.04711896926164627,
        0.010835079476237297,
        -0.010346533730626106,
        -0.002920833881944418,
        0.16471099853515625,
        -0.04074450209736824,
        -0.004879492335021496,
        -0.01238175667822361,
        -0.08780188113451004,
        0.09674222022294998,
        -0.0538407601416111,
        -0.0983208417892456,
        0.05204596370458603,
        -0.008942179381847382,
        0.004046576097607613,
        -0.006687443237751722,
        -0.01355840265750885,
        -0.008953594602644444,
        -0.00040179581264965236,
        -0.007002789527177811,
        0.12365636229515076,
        0.007369398605078459,
        -0.05083823576569557,
        -0.019386354833841324,
        -0.0661119893193245,
        0.0913083553314209,
        -0.1942301243543625,
        -0.01246603112667799,
        -0.06150144711136818,
        -0.009867565706372261,
        0.09961304813623428,
        -0.010390859097242355,
        -0.030052540823817253,
        0.0019742969889193773,
        -0.2017722725868225,
        -0.05331741273403168,
        0.011795311234891415,
        -0.036552608013153076,
        0.2909908592700958,
        0.06682419031858444,
        0.07342174649238586,
        -0.015003063715994358,
        0.059863168746232986,
        0.01720793917775154,
        -0.07116694003343582,
        0.11225325614213943,
        -0.3829721212387085,
        -0.04581558331847191,
        0.023124080151319504,
        -0.09952186048030853,
        0.19845081865787506,
        -0.013068721629679203,
        -0.0371134988963604,
        -0.030292721465229988,
        0.07518389821052551,
        0.00897778570652008,
        0.21147306263446808,
        0.01342983078211546,
        -0.01026967167854309,
        0.04775053635239601,
        0.009218484163284302,
        -0.045792363584041595,
        -0.15084043145179749,
        -0.002614114433526993,
        -0.042978428304195404,
        0.09140389412641525,
        0.13739028573036194,
        -0.04430209845304489,
        -0.13186326622962952,
        -0.022775128483772278,
        -0.005146403796970844,
        0.0003565835941117257,
        -0.02330564707517624,
        -0.10114145278930664,
        0.01594550348818302,
        0.06044266000390053,
        0.039503008127212524,
        0.0060746329836547375,
        -0.06017083302140236,
        -0.0006729505257681012,
        0.014190717600286007,
        0.009302781894803047,
        0.0035897030029445887,
        0.09201957285404205,
        0.007181020453572273,
        0.003497749799862504,
        0.00863222498446703,
        -0.030373521149158478,
        -0.015670375898480415,
        0.02772008255124092,
        -0.013616295531392097,
        0.016633713617920876,
        0.02832608111202717,
        0.007336369715631008,
        0.02128409594297409,
        -0.0008451009634882212,
        1.2603695392608643,
        -0.02215600199997425,
        -0.004005978815257549,
        -0.0020660136360675097,
        0.012928981333971024,
        -0.007425180170685053,
        0.007612090557813644,
        -0.004368296824395657,
        -0.005867891479283571,
        0.027509694918990135,
        -0.007848307490348816,
        0.0008802171796560287,
        0.006344606634229422,
        -0.02675430104136467,
        0.010189822874963284,
        0.011471366509795189,
        0.2979621887207031,
        -0.0016625880962237716,
        -0.0359932966530323,
        0.0007628695457242429,
        0.0734957605600357,
        0.012654479593038559,
        -0.004824137315154076,
        -0.001564962905831635,
        -0.007773326709866524,
        -0.005541684105992317,
        -0.0014758111210539937,
        0.0014136614045128226,
        0.01940438151359558,
        -0.005453980527818203,
        0.0008427592110820115,
        -0.010442053899168968,
        0.004724716767668724,
        -0.009666228666901588,
        -0.025093501433730125,
        0.014776072464883327,
        0.01613703928887844,
        -0.013599175028502941,
        -0.014294352382421494,
        0.01072716899216175,
        0.007056041155010462,
        0.08286570757627487,
        -0.07126838713884354,
        0.10707596689462662,
        0.013455519452691078,
        0.2504071295261383,
        0.7381355166435242,
        -0.17931164801120758,
        0.09000855684280396,
        0.13434846699237823,
        0.14900271594524384,
        -0.1440901905298233,
        -0.13288751244544983,
        0.016278447583317757,
        -0.08016316592693329,
        -0.04501662403345108,
        -0.2915090024471283,
        -0.01783285103738308,
        -0.019227424636483192,
        0.004557457286864519,
        -0.22636422514915466,
        -0.06607690453529358,
        0.011133210733532906,
        0.04318954050540924,
        -0.025415007025003433,
        0.1485477089881897,
        -0.022607427090406418,
        0.050543226301670074,
        0.08611951023340225,
        0.1318543702363968,
        0.10585249215364456,
        0.12508153915405273,
        0.10000623017549515,
        -0.04230697080492973,
        -0.01589522697031498,
        0.0347614660859108,
        0.051651403307914734,
        0.0003118093009106815,
        0.0028112689033150673,
        -0.03596024960279465,
        0.007724944967776537,
        0.02019958570599556,
        -0.001114036189392209,
        0.050559770315885544,
        0.005026636645197868,
        0.014293459244072437,
        -0.005361279938369989,
        0.002766494872048497,
        -0.001093096099793911,
        0.0555633082985878,
        0.08979281783103943,
        0.058954156935214996,
        0.0890490859746933,
        -0.011736029759049416,
        -0.0148028414696455,
        0.06906899809837341,
        0.07816184312105179,
        0.11576550453901291,
        0.07793644070625305,
        0.0622066855430603,
        -0.0002923192223533988,
        0.0410168394446373,
        0.037632476538419724,
        0.021023273468017578,
        -0.030094392597675323,
        0.016857502982020378,
        0.0542355552315712,
        -0.008840116672217846,
        0.015867605805397034,
        -0.2550807297229767,
        0.16284947097301483,
        0.061660926789045334,
        -0.051050782203674316,
        0.018602801486849785,
        -0.07037856429815292,
        0.1129196509718895,
        0.08462396264076233,
        0.08704619854688644,
        0.08054457604885101,
        -0.0970434844493866,
        0.09047828614711761,
        0.011589436791837215,
        0.004588407929986715,
        0.15124480426311493,
        0.15169058740139008,
        -0.21516048908233643,
        -0.2653718888759613,
        -0.2723977863788605,
        0.2784259021282196,
        -0.031793441623449326,
        -0.10412324965000153,
        -0.0421721450984478,
        0.264210045337677,
        0.04256288707256317,
        0.015414266847074032,
        -0.007991660386323929,
        0.054377224296331406,
        0.019025081768631935,
        0.04291730746626854,
        0.0283918809145689,
        -0.5389144420623779,
        -0.05277101323008537,
        -0.015634167939424515,
        -0.015246999450027943,
        -0.08696942776441574,
        -0.05494770407676697,
        0.03343820944428444,
        0.033177126199007034,
        -0.14283888041973114,
        0.012497350573539734,
        -0.027786845341324806,
        -0.018256455659866333,
        -0.004337327554821968,
        0.09837053716182709,
        0.008089765906333923,
        0.02465951070189476,
        -0.030681008473038673,
        -0.049183499068021774,
        -0.041830018162727356,
        0.026857446879148483,
        -0.014684929512441158,
        -0.09051112085580826,
        -0.159507155418396,
        0.0011110022896900773,
        0.008333765901625156,
        0.020826350897550583,
        0.008848314173519611,
        0.035241082310676575,
        0.07136887311935425,
        0.006386184133589268,
        -0.04083756357431412,
        -0.012494259513914585,
        0.02612057700753212,
        -0.02380741387605667,
        0.02710127830505371,
        0.019657008349895477,
        -0.11304841935634613,
        -0.07983332127332687,
        0.04544885456562042,
        0.13844966888427734,
        -0.10074828565120697,
        0.03408564627170563,
        0.05593353509902954,
        -0.1048225462436676,
        -0.01353590376675129,
        -0.053253062069416046,
        0.08472694456577301,
        -0.022772636264562607,
        -0.019353680312633514,
        -0.08196450024843216,
        -0.030283784493803978,
        -0.29242727160453796,
        0.23016875982284546,
        -0.06315533816814423,
        -0.043394558131694794,
        -0.06925118714570999,
        0.016422130167484283,
        -0.012765240855515003,
        0.017416412010788918,
        0.1371157318353653,
        -0.026950709521770477,
        0.0343732088804245,
        0.018185056746006012,
        -0.29702228307724,
        -0.29441702365875244,
        -0.24229790270328522,
        -0.18912695348262787,
        0.006926027592271566,
        0.016657328233122826,
        -0.036034341901540756,
        -0.028204988688230515,
        -0.030407054349780083,
        -0.017151981592178345,
        0.01217739935964346,
        0.03561210632324219,
        -0.026669975370168686,
        -0.07019509375095367,
        -0.08104648441076279,
        -0.02691502496600151,
        0.07997400313615799,
        0.01788402535021305,
        0.040706247091293335,
        -0.0004615368088707328,
        0.09588368982076645,
        0.061185576021671295,
        0.10187605023384094,
        0.13112187385559082,
        0.03855464980006218,
        0.008583398535847664,
        -0.003315296256914735,
        0.035879652947187424,
        0.03736940771341324,
        -0.17535561323165894,
        -0.13145768642425537,
        -0.12732133269309998,
        -0.10442615300416946,
        0.08154881000518799,
        0.022743171080946922,
        0.0021822548005729914,
        0.0004725655307993293,
        0.008948382921516895,
        0.0078622130677104,
        -0.20905525982379913,
        -0.09497137367725372,
        0.14816772937774658,
        -0.1883469820022583,
        0.08267249912023544,
        0.04649104177951813,
        0.10220109671354294,
        0.06436294317245483,
        -0.021738223731517792,
        0.04682932049036026,
        -0.2452842891216278,
        -0.06809265166521072,
        0.05890326946973801,
        -0.051047585904598236,
        0.1636202484369278,
        0.027494793757796288,
        0.24156586825847626,
        -0.18359683454036713,
        -0.06644580513238907,
        0.16501976549625397,
        -0.03775652498006821,
        0.047385089099407196,
        -0.015588355250656605,
        0.1118851825594902,
        0.05561358481645584,
        0.008761297911405563,
        -0.0862203910946846,
        -0.000897315563634038,
        -0.13784615695476532,
        -0.19695398211479187,
        -0.14925254881381989,
        -0.14743901789188385,
        -0.14573074877262115,
        -0.03826850652694702,
        -0.08778183162212372,
        -0.04734927415847778,
        -0.06303849071264267,
        -0.09124582260847092,
        0.005299216136336327,
        0.02462034299969673,
        0.06016368791460991,
        0.1003568097949028,
        0.08038847148418427,
        -0.08026549220085144,
        0.014804593287408352,
        0.025419648736715317,
        -0.013906709849834442,
        0.10378745198249817,
        -0.016940806061029434,
        0.021776676177978516,
        0.018246689811348915,
        0.060743920505046844,
        0.05149790272116661,
        0.011262456886470318,
        -0.0529390312731266,
        -0.09795407950878143,
        -0.033896345645189285,
        -0.05280010402202606,
        -0.06523752212524414,
        0.062003567814826965,
        0.06433490663766861,
        -0.024757927283644676,
        -0.019372547045350075,
        0.11679752916097641,
        0.005656684748828411,
        -0.03861108794808388,
        -0.10328399389982224,
        -0.016925467178225517,
        0.04221827909350395,
        -0.14723892509937286,
        -0.09364698827266693,
        -0.10540352761745453,
        -0.23228375613689423,
        0.12289430946111679,
        0.0667068362236023,
        -0.12451589107513428,
        -0.04502202570438385,
        0.2015577107667923,
        0.293008029460907,
        -0.002955189673230052,
        0.06007043644785881,
        0.5038251876831055,
        0.13195694983005524,
        0.07211273163557053,
        -0.047323066741228104,
        -0.017750626429915428,
        0.05227517709136009,
        -0.040357690304517746,
        0.08285709470510483,
        -0.20336507260799408,
        0.16519194841384888,
        0.07138461619615555,
        -0.031685031950473785,
        0.07758763432502747,
        0.013287313282489777,
        -0.04225407540798187,
        -0.007570496294647455,
        -0.08536645770072937,
        0.0032154349610209465,
        -0.006613441277295351,
        -0.07054087519645691,
        0.1124388724565506,
        -0.09827440232038498,
        -0.003622838295996189,
        0.020088618621230125,
        0.006509876810014248,
        -0.011810763739049435,
        -0.021562378853559494,
        0.12472409009933472,
        -0.10225696861743927,
        0.13431870937347412,
        -0.0012733038747683167,
        -0.03642343357205391,
        0.03447213023900986,
        0.016941525042057037,
        0.004441742319613695,
        -0.1011180430650711,
        0.029493486508727074,
        0.31421351432800293,
        -0.29489463567733765,
        0.06749022752046585,
        0.07633206993341446,
        -0.01878729835152626,
        -0.0536934956908226,
        -0.06559205800294876,
        -0.08620405197143555,
        -0.07775122672319412,
        -0.0267944298684597,
        0.0953228622674942,
        -0.03989775478839874,
        0.06323486566543579,
        -0.028921687975525856,
        -0.03721897676587105,
        -0.11493340879678726,
        -0.05776643753051758,
        0.05639287456870079,
        -0.02419382520020008,
        0.08019906282424927,
        -0.025474464520812035,
        0.16501839458942413,
        -0.14285875856876373,
        -0.074443019926548,
        0.0759514644742012,
        -0.042420074343681335,
        -0.15020382404327393,
        -0.09495716542005539,
        -0.008407664485275745,
        0.05906335636973381,
        -0.0427359864115715,
        -0.2744606137275696,
        0.19855129718780518,
        0.09642183035612106,
        -0.018468191847205162,
        0.14114072918891907,
        -0.041290342807769775,
        -0.14114291965961456,
        -0.08972829580307007,
        0.03589501604437828,
        0.03509346395730972,
        -0.06364458054304123,
        -0.04352026432752609,
        -0.043173376470804214,
        -0.0036912616342306137,
        0.059314168989658356,
