{
	"layers": [{
		"activation": "rectified",
		"bias": [-0.19452200829982758, -0.6433480978012085, -0.850350558757782, -0.5284403562545776, -0.3811763525009155, -0.30241647362709045, -0.31921473145484924, 0.26858532428741455, -0.4204336404800415, -0.3540076017379761, 0.24253582954406738, 0.07261177897453308, -0.2508904039859772, -0.4758673906326294, -0.6188099980354309, -0.34235578775405884, -0.1262473165988922, -0.02405950427055359, -0.17214462161064148, -0.16864505410194397, -0.2990560233592987, -0.3071404993534088, -0.4613305330276489, -0.05592487007379532, -0.21304382383823395, -0.06181427836418152, -0.3175370693206787, -0.052547525614500046, -0.6997958421707153, -0.23989519476890564, -0.3578382134437561, -0.3180413842201233, 0.3290904760360718, -0.46479669213294983, -0.3076629638671875, -0.569625735282898, -0.16200971603393555, -0.2201506495475769, -0.6705558896064758, -0.13351406157016754, -0.2509579062461853, -0.06889722496271133, -0.09416206926107407, -0.5776787996292114, 0.1770775318145752, -0.22038376331329346, -0.10071688145399094, -0.3139074444770813, -0.293028324842453, 0.1085115298628807, -0.5228870511054993, 0.11248381435871124, -0.28182628750801086, -0.721132755279541, 0.13118667900562286, -0.15745647251605988, -0.39031982421875, -0.15174421668052673, -0.45670944452285767, -0.3439010977745056, -0.44702470302581787, -0.11255466938018799, -0.20769387483596802, -0.33709239959716797, -0.20595300197601318, -0.1711687296628952, -0.8052454590797424, -0.27155017852783203, -0.25585460662841797, -0.5264620184898376, -0.09344510734081268, -0.38691505789756775, 0.2050909698009491, -0.17392192780971527, 0.16207757592201233, 0.20066873729228973, 0.03244556859135628, -0.2546513080596924, -0.4645071029663086, -0.36803293228149414, -0.42088741064071655, -0.500985860824585, 0.2171938717365265, -0.1737426519393921, -0.486878365278244, -0.34154555201530457, -0.5677659511566162, -0.4824747145175934, -0.4969879388809204, -0.07673380523920059, -0.4002739489078522, -0.06187513843178749, -0.43189018964767456, -0.24419322609901428, -0.5793696641921997, -0.5137344002723694, -0.6425934433937073, -0.5849780440330505, -0.24715805053710938, -0.22698137164115906],
		"weights": [0.05822344496846199, 0.01561170257627964, 0.02110924944281578, 0.03332354873418808, -0.3062252998352051, 0.1666059046983719, -0.0476171113550663, 0.15285557508468628, 0.030072709545493126, -0.03644420579075813, -0.7354663610458374, -0.19927853345870972, -1.0100610779772978e-05, -0.020406704396009445, 0.033236268907785416, 0.11615607142448425, 0.12466158717870712, 0.023791838437318802, 0.009456710889935493, 0.02487187646329403, 0.005100295413285494, 0.009602898731827736, 0.05962523818016052, -0.004330587573349476, 0.02377544529736042, 0.0665769949555397, 0.024012230336666107, 0.021621450781822205, 0.0006767456652596593, 0.08818627148866653, 0.019375357776880264, 0.0004542080860119313, 0.014738604426383972, 0.009385948069393635, 0.020081007853150368, 0.00629894295707345, 0.1809576004743576, -0.027847377583384514, -0.9071853756904602, -1.5192683935165405, -1.879597783088684, 0.6639311909675598, -0.09375082701444626, 0.06393419951200485, -0.04526836797595024, 0.10065335035324097, 0.2812950611114502, -0.10002873837947845, 0.011191006749868393, 0.040512945502996445, -0.050284162163734436, -0.21348799765110016, -0.12438290566205978, 0.013165958225727081, 0.03347661718726158, 0.03136930987238884, 0.029023071750998497, 0.003077082335948944, 0.1111110970377922, 0.12871190905570984, 0.043880488723516464, 0.02129679173231125, -0.07531483471393585, 0.13289932906627655, 0.024071304127573967, 0.5363672971725464, 0.060438670217990875, -0.018979260697960854, 0.2606877088546753, 0.08768443018198013, 0.14095334708690643, -0.04422837868332863, 0.03898967429995537, 0.006752418354153633, -0.025684069842100143, 0.012347623705863953, 0.00032175242085941136, -0.34246793389320374, 0.005098654888570309, -0.0008137660915963352, 0.0008666847716085613, 0.0018078020075336099, -0.002572061028331518, -0.004055442288517952, 0.02846364863216877, 0.026334939524531364, 0.008758127689361572, 0.004954046569764614, 0.004033830948174, 0.007128144148737192, 0.002177164889872074, -0.005224172491580248, 0.005539503414183855, -0.0009857056429609656, 0.0031741263810545206, 0.005221856292337179, -0.007933721877634525, 0.0005848782020621002, -0.007161034736782312, 0.0016017737798392773, -0.004261383321136236, -0.004007881507277489, -0.0062354872934520245, -0.004535423591732979, -0.0008243076736107469, -0.005090578459203243, 0.0009465269977226853, -0.008978216908872128, -0.0031528619583696127, 0.00032791911507956684, -0.00859774835407734, -0.0040569971315562725, -0.007599154487252235, -0.0002447689475957304, 0.003167438320815563, -0.0019585194531828165, 0.001470435643568635, -0.0006654541939496994, -0.00476795481517911, -0.003773684846237302, 0.003006421262398362, 0.007786422036588192, 0.008129328489303589, 0.0012701732339337468, -3.360426664352417, 0.3861173391342163, 0.14643153548240662, 0.024483036249876022, -0.07388642430305481, -0.09021070599555969, -0.0008543964358977973, 0.07895126938819885, 0.05627444013953209, 0.012494826689362526, -0.022646494209766388, 0.006335301790386438, 0.02368192933499813, -0.1413719207048416, 0.04606805369257927, 0.024386731907725334, -0.03562828525900841, 0.005055931396782398, 0.0067480094730854034, -0.5451672077178955, -0.0026888379361480474, 0.003742567030712962, 0.010451586917042732, 0.005822420585900545, 0.0013017130549997091, -0.002735128626227379, -0.0037364305462688208, -0.005829760804772377, -0.0037485267966985703, -0.0012519326992332935, -0.0023125424049794674, -0.004215506371110678, -0.005109849851578474, -0.0041036102920770645, -0.0017425513360649347, -0.0034322740975767374, -0.0018215447198599577, 0.004047702066600323, 0.004832619335502386, 0.00447000190615654, 0.005266446620225906, 0.005091116297990084, 0.004111377988010645, -0.0024359500966966152, 0.002779207192361355, -0.001185939647257328, -0.0009657457703724504, 0.001644782954826951, -0.0007718207780271769, 0.001156755373813212, 0.001808930654078722, -0.0388939268887043, 0.0026357900351285934, -0.00895207840949297, 0.016496777534484863, -0.011815299279987812, 0.006930328905582428, 0.006099832709878683, 0.009795472025871277, 0.008255330845713615, 0.012923981994390488, 0.0068090385757386684, -0.004568594973534346, -0.009019478224217892, 0.0019507462857291102, -0.001983395777642727, -0.03404723107814789, 0.5973830223083496, 0.017020821571350098, 0.013896065764129162, 0.0006582072237506509, -1.671885371208191, 0.03341073915362358, -2.022458076477051, -0.15200339257717133, -0.12092819809913635, 0.18751807510852814, 0.1762673705816269, -0.4295428693294525, 0.3456072211265564, 0.004191246349364519, 0.11130347102880478, -0.05543243885040283, -0.022552667185664177, 0.6972774863243103, -0.4490738809108734, -0.03615454211831093, -0.07903885841369629, 0.17757605016231537, 0.3371032774448395, 0.3394589424133301, 0.3363162577152252, -0.19139525294303894, -0.21649660170078278, 0.003846475388854742, 0.10040582716464996, 0.09280708432197571, 0.07623112201690674, 0.055917493999004364, 0.2302156686782837, -0.04537124186754227, -0.04604222625494003, -0.155503511428833, -0.06783662736415863, 0.022201554849743843, -0.03499138727784157, 0.05009627342224121, 0.003505357075482607, 0.0756455510854721, -0.07406967878341675, -0.021090814843773842, -0.011067633517086506, -0.18308666348457336, -0.24529409408569336, -0.25528767704963684, -0.26584145426750183, -0.016225723549723625, 0.10575900226831436, -0.11430276930332184, -0.03784142807126045, -0.0506269671022892, 0.1721646934747696, 0.07517071068286896, 0.10161756724119186, -0.9281447529792786, -0.8158783316612244, -0.5072301030158997, -0.3833800256252289, 0.1418258249759674, 0.1621372103691101, 0.0033023590222001076, 0.009284241124987602, -0.017973363399505615, 0.3908662497997284, -0.41321074962615967, -0.03611573949456215, -0.05984467640519142, 0.19496233761310577, -0.02745637483894825, -0.16900752484798431, 0.2643200159072876, 0.10170838236808777, 0.04913320392370224, -0.014619847759604454, -0.10535837709903717, 0.06912583112716675, 0.02669721283018589, 0.03673126921057701, -0.023759467527270317, -0.007436720188707113, -0.0912427231669426, -0.20478399097919464, -0.2693614065647125, 0.013227773830294609, 0.0018523440230637789, -0.012130601331591606, -0.0194866806268692, -0.025778429582715034, 0.0033833880443125963, -0.02535059116780758, -0.03643478825688362, -0.027830513194203377, -0.0224611796438694, -0.027905043214559555, 0.02352752909064293, -0.02073761820793152, 0.00289312656968832, 0.03158354014158249, 0.030679797753691673, -0.003276336006820202, -0.04458547383546829, 0.04076668992638588, 0.018011951819062233, -0.010187016800045967, -0.0015159343602135777, 0.036961495876312256, -1.675582766532898, 0.010753072798252106, 0.002975268755108118, 0.0021619771141558886, 0.005747145041823387, 0.004893139470368624, -0.019025780260562897, -0.08273311704397202, 0.006434442009776831, -0.06804452836513519, 0.02733747661113739, 0.045767609030008316, -2.098076343536377, 0.04894949868321419, 0.038363631814718246, 0.02373514510691166, 0.05199699103832245, 0.018919337540864944, 0.054603211581707, 0.09899760782718658, 0.005071928724646568, 0.043955910950899124, 0.03319869562983513, 0.17992247641086578, -0.27676722407341003, 0.03045554645359516, -0.31729158759117126, -0.8023518919944763, -0.1073337271809578, -0.9454013109207153, 0.11022661626338959, -0.10153196007013321, 0.017474038526415825, -0.0645931288599968, -0.16417987644672394, 0.1305467188358307, -0.07387223839759827, 0.007558561395853758, 0.03270668536424637, -0.04159577563405037, -0.17960886657238007, -0.1164502277970314, 0.025515155866742134, 0.075178362429142, 0.050364766269922256, 0.037595149129629135, 0.008968008682131767, 0.07020402699708939, 0.3166731894016266, 0.314364492893219, 0.2509380280971527, 0.11230256408452988, 0.07098719477653503, 0.10111761838197708, 0.12457163631916046, 0.03535139560699463, -0.004834089428186417, 0.014119550585746765, -0.0012425155146047473, 0.019455384463071823, -0.05514798313379288, -0.026021091267466545, -0.01007133536040783, 0.0033110640943050385, 0.009092246182262897, -0.02257644012570381, 0.40554845333099365, 0.5380677580833435, 0.5328564643859863, 0.5142650008201599, 0.5108109712600708, 0.6739766001701355, 0.038107503205537796, -0.006079914513975382, -0.002208579331636429, -0.07409936934709549, 0.03109198994934559, 0.24702514708042145, 0.02727477066218853, 0.0002356137993047014, -0.003688329365104437, 0.019100122153759003, 0.010832244530320168, 0.03296832740306854, 0.055192895233631134, 0.08539737015962601, 0.009697685949504375, 0.019351141527295113, 0.3645443022251129, 0.09901811182498932, -0.21073748171329498, -0.05583656206727028, -0.1262759417295456, -1.3719003200531006, 0.0035543167032301426, -1.4226068258285522, -0.056754764169454575, 0.02967461757361889, 0.019521264359354973, 0.2516659200191498, -0.3971068561077118, 0.007115758955478668, -0.10487260669469833, -0.036904364824295044, 0.050673484802246094, -0.04734508693218231, 0.5218176245689392, -0.3124539852142334, 0.04840422049164772, 0.5287621021270752, -0.1732623428106308, 0.6229025721549988, -0.1570722460746765, 0.37139198184013367, 0.13225476443767548, 0.10140467435121536, -0.18927915394306183, 0.20845961570739746, -0.12208851426839828, 0.0727371945977211, -0.05942115932703018, -0.3051392138004303, 0.26356250047683716, -0.1699913740158081, 0.12563456594944, 0.02938500978052616, 0.07803377509117126, 0.00029674169491045177, -0.016285870224237442, -0.06686066836118698, 0.05823840945959091, -0.1806897222995758, -0.10056853294372559, -0.07214707136154175, 0.0365460179746151, -0.39577773213386536, 0.015843048691749573, -0.17453519999980927, -0.02099405601620674, 0.16850580275058746, -0.07572147995233536, 0.19355952739715576, -0.08520106971263885, 0.7623941898345947, 0.030798662453889847, -0.05417359992861748, 0.06852904707193375, -1.0058178901672363, 0.08014441281557083, -0.03599367290735245, 0.20541095733642578, -0.036444295197725296, -0.0096996845677495, 0.03528353571891785, 0.038083743304014206, 0.014183244667947292, 0.12554536759853363, -0.03349991515278816, 0.00611876742914319, -0.19732369482517242, -0.16920927166938782, -0.28593605756759644, 0.21075014770030975, -0.01193153951317072, -0.0022515426389873028, -0.008060426451265812, 0.6015211343765259, -0.06054643541574478, -0.10993728786706924, 0.01206565648317337, 0.13375090062618256, -0.01209207996726036, 0.03777558356523514, 0.15034815669059753, -0.054808203130960464, 0.04061925783753395, -0.008403576910495758, -0.007100965362042189, -0.007626540493220091, -0.0107441870495677, -0.10957282781600952, 0.057726673781871796, 0.008259596303105354, 0.0091314185410738, 0.0010169892339035869, 0.01994401589035988, 0.08477811515331268, -0.052118923515081406, 0.0069550457410514355, 0.058876343071460724, 0.03746296837925911, -0.0007424155483022332, -0.09872475266456604, 0.03590688854455948, 0.0025153399910777807, -0.04361661523580551, -0.014569774270057678, 0.01433225441724062, -2.7139699459075928, -0.30789586901664734, -0.0025375615805387497, 0.0010997798526659608, 0.00011997156252618879, -0.04150765389204025, -0.1271926462650299, 0.013526991941034794, -0.0575929619371891, -0.03329410031437874, -0.025869352743029594, -0.03936460241675377, 0.16116440296173096, -1.0638771057128906, 0.020434241741895676, 0.02053018845617771, 0.01605086401104927, -0.10845795273780823, 0.04398314654827118, -0.06421081721782684, -0.004998964257538319, -0.05274973437190056, 0.0568779781460762, -0.044379208236932755, -0.06062130630016327, 0.007518912199884653, -0.04519042372703552, 0.1745496392250061, 0.07384224981069565, -0.13744166493415833, 0.088289774954319, -0.21269628405570984, -0.1708621084690094, 0.22882840037345886, -0.12781281769275665, -0.2467847317457199, -0.1813918501138687, 0.004497597925364971, 0.21465055644512177, 0.015559063293039799, -0.021105846390128136, -0.07627682387828827, -0.03286268934607506, -0.009850841946899891, -0.009043734520673752, -0.01006172876805067, -0.015072615817189217, -0.005672565195709467, 0.19325794279575348, 0.1004958376288414, 0.08550479263067245, 0.034609198570251465, 0.017188630998134613, 0.015362332575023174, -0.05456212908029556, 0.007041750010102987, 0.0010927654802799225, 0.016435375437140465, 0.009633675217628479, 0.03955184668302536, 0.03296901285648346, 0.0022754312958568335, 0.009939861483871937, -0.008066092617809772, 0.016951052471995354, -0.029684392735362053, -0.017460579052567482, -0.01393960602581501, -0.011440754868090153, -0.02979624830186367, -0.01841616816818714, -0.011410795152187347, 0.012705394998192787, 0.02414874918758869, -0.02211810275912285, -0.017793802544474602, -0.01083079818636179, -0.01885637268424034, -0.0009013747912831604, -3.3420248655602336e-05, -0.0007961479132063687, 0.0018901844741776586, -0.006122060120105743, 0.014132357202470303, 0.13225938379764557, 0.118759885430336, 0.1440199911594391, 0.015416269190609455, -3.1894419193267822, 0.6563956141471863, 0.562703013420105, 0.27482593059539795, 0.12352292239665985, 0.23872794210910797, 0.010626403614878654, 0.22864043712615967, 0.07247593253850937, 0.030445050448179245, 0.0949539989233017, 0.0011564923916012049, 0.24082179367542267, 0.07780598104000092, 0.09351570159196854, 0.0947686955332756, -0.1068432554602623, -0.0029952265322208405, 0.07668350636959076, -0.05023576691746712, -0.07558542490005493, -0.07400950789451599, -9.879077697405592e-05, 0.008048244751989841, -0.018946612253785133, 0.005101591348648071, 0.06561613827943802, 0.05254746228456497, 0.003217556281015277, 0.012878787703812122, -0.015312602743506432, -0.00801732949912548, 0.0027216458693146706, -0.028273534029722214, 0.02492404915392399, 0.020785851404070854, 0.03104317933320999, -0.006377075798809528, 0.01536602433770895, 0.030251557007431984, -0.008487189188599586, -0.008780044503509998, -0.012828946113586426, 0.012751295231282711, -1.072744369506836, 0.04978741332888603, -0.003792061470448971, 0.0040618255734443665, 0.00957126822322607, -0.06673536449670792, 0.37206339836120605, -0.0446309819817543, -0.07623439282178879, -0.10934767127037048, -0.03554868325591087, -0.10137145966291428, 0.3780768811702728, -1.5202646255493164, 0.05412143096327782, 0.021500734612345695, 0.02719874493777752, -0.02188045345246792, 0.03031880035996437, 0.04068414494395256, -0.01710430346429348, 0.0022146892733871937, 0.13212622702121735, 0.005462938919663429, 0.01615152135491371, 0.04777895659208298, 0.3329264223575592, -0.7779356241226196, -0.21515926718711853, -0.8929279446601868, 0.7403647303581238, 0.4049842357635498, 0.07988259196281433, 0.050516705960035324, -0.04910110682249069, 0.29026713967323303, 0.14569765329360962, 0.10969327390193939, -0.14643314480781555, 0.022477099671959877, 0.03190978616476059, 0.06371044367551804, -0.6037641763687134, 0.012109987437725067, -0.01494226697832346, -0.02429654821753502, -0.057528771460056305, -0.08184368163347244, -0.07636352628469467, -0.10596474260091782, -0.10300806909799576, -0.0831480547785759, -0.14885187149047852, -0.17628876864910126, -0.18536458909511566, 0.030306274071335793, 0.010782965458929539, -0.021126287057995796, 0.017898164689540863, 0.07333569973707199, 0.1925671398639679, -0.015595408156514168, -0.0005193112301640213, 0.01995064504444599, -0.0193133894354105, -0.0692087933421135, -0.4757428765296936, 0.04839852452278137, -0.026058679446578026, 0.007688041310757399, 0.0270603746175766, 0.015428691171109676, 0.16137486696243286, -0.06757359206676483, -0.0874367207288742, -0.10840892791748047, -0.06979115307331085, -0.16494300961494446, -1.7368676662445068, 0.12404238432645798, 0.015978079289197922, 0.00565263582393527, -0.00024802162079140544, -0.05391757935285568, 0.07805982977151871, -0.05656236410140991, -0.010331837460398674, -0.019210059195756912, 0.2670460641384125, -0.02810266986489296, 0.03791901469230652, 0.13042233884334564, -0.012685366906225681, -0.019467439502477646, 0.14241111278533936, -0.015473415143787861, -0.044142309576272964, -0.016428781673312187, -0.5330362319946289, -0.7461683750152588, 0.2783706784248352, -0.17251399159431458, -0.01547013409435749, 0.051831524819135666, 0.011438908986747265, 0.09237629920244217, 0.13320790231227875, 0.5538091659545898, -0.03573569282889366, -0.022242240607738495, -0.02152963913977146, -0.03143511340022087, -0.0368049219250679, -0.04484157636761665, -0.16548004746437073, -0.08804082870483398, 0.03969378024339676, -0.24119186401367188, 0.06315883249044418, 0.0895078107714653, 0.013587395660579205, 0.07750153541564941, 0.08676505833864212, 0.028258172795176506, -0.0030427861493080854, 0.04729710891842842, 0.0016760320868343115, -0.05664563551545143, -0.1025722399353981, 0.02106732502579689, 0.02110128290951252, -0.0623021237552166, -0.0218623299151659, -0.03249690309166908, -0.05451976880431175, -0.06601306051015854, -0.011898588389158249, 0.014161099679768085, -0.007401946932077408, -0.05964593589305878, -0.09364856779575348, -0.2192932516336441, -0.030833425000309944, 0.021135244518518448, 0.05581675469875336, 0.021553006023168564, 0.032474152743816376, -0.016259336844086647, 0.025398222729563713, 0.0051780762150883675, -0.03287196159362793, 0.05013906583189964, 0.01472366601228714, -0.023497072979807854, 0.17047949135303497, 0.7470963597297668, -1.0744516849517822, -0.13586659729480743, 0.1302945762872696, 0.012058408930897713, -0.04669242724776268, 0.04229460656642914, -0.5753343105316162, -0.10747989267110825, 0.11974833905696869, 0.15463757514953613, 0.19078683853149414, 0.09978850185871124, 0.009135725907981396, -0.01915443316102028, 0.0751170739531517, -0.02436467818915844, 0.2188599556684494, -0.4168168604373932, -0.017918389290571213, -0.1558089256286621, 0.5338517427444458, 0.46792539954185486, -0.14284148812294006, -0.09913580864667892, 0.03578515723347664, -0.589596688747406, 0.2214147299528122, 0.24126379191875458, -0.4968336522579193, -0.1432356983423233, -0.13671734929084778, 0.5282135605812073, -0.17132578790187836, -0.19390979409217834, 0.29556769132614136, 0.0885661244392395, 0.13683994114398956, -0.08069798350334167, -0.02273888885974884, 0.002429901622235775, -0.042296890169382095, 0.02598552219569683, -0.03397436812520027, 0.04087380692362785, -0.18700966238975525, -0.17975926399230957, 0.04012065380811691, 0.013755322434008121, -0.005084572825580835, -0.006996592041105032, 0.15248003602027893, 0.14907288551330566, -0.15072931349277496, 0.9839785099029541, 0.017011431977152824, 0.12861770391464233, -0.6365214586257935, -0.45667168498039246, 0.09789913147687912, 0.16477441787719727, 0.259395956993103, -0.1354072391986847, -0.00476501788944006, 0.053156107664108276, 0.07649268209934235, 0.04475684463977814, -0.31759148836135864, 0.1433529257774353, 0.24273063242435455, 0.08964080363512039, -0.17679116129875183, -0.2888491749763489, 0.1447058469057083, -0.05192830041050911, 0.317633718252182, 0.20019623637199402, -0.5002233982086182, 0.5325647592544556, -0.1168348491191864, -0.18319615721702576, 0.12146413326263428, -0.0350603386759758, -0.03309055045247078, -0.5501950979232788, 0.16135621070861816, 0.010101488791406155, -0.0002045015135081485, -0.018113255500793457, -0.07138727605342865, -0.024767067283391953, 0.02045874111354351, -0.1404569447040558, -0.04053083062171936, 0.009304515086114407, -0.013961812481284142, -0.06596110016107559, -1.0624808073043823, 0.11755696684122086, 0.024769576266407967, -0.048118267208337784, -0.054303884506225586, 0.038824260234832764, -0.849037230014801, -0.03633551299571991, -0.0017783152870833874, 0.0259475726634264, 0.059020910412073135, -0.036242205649614334, 0.2996191382408142, -0.10546427220106125, -0.1254015862941742, -0.04394396394491196, 0.027452338486909866, 0.046364676207304, -0.04440402239561081, 0.020422615110874176, -0.1093655601143837, 0.006161946803331375, 0.0025522825308144093, -0.03180249407887459, -0.05802607536315918, 0.002342504682019353, -0.025568101555109024, 0.004576369654387236, 0.016232432797551155, 0.011385801248252392, 0.09906072914600372, 0.12994477152824402, -0.020508520305156708, 0.03976396098732948, 0.2524287700653076, 0.2659263014793396, 0.11461630463600159, 0.049812909215688705, 0.07140597701072693, 0.08749332278966904, -0.01846546120941639, -0.2854578495025635, 0.06327977031469345, -0.023381559178233147, 0.11333246529102325, 0.06990065425634384, 0.06671637296676636, -0.08206327259540558, 0.07975181937217712, 0.0017145542660728097, -0.053463902324438095, 0.004646576475352049, -0.0017111188499256968, -0.40972182154655457, 0.0008124844753183424, 0.0005340568604879081, 0.0015904339961707592, -0.0021146980579942465, 3.255693081882782e-05, -0.000762827810831368, 0.017366256564855576, 0.010661188513040543, 0.003554770490154624, 0.0038559490349143744, 0.0006158542237244546, -0.0008786438265815377, 0.011259711347520351, 0.00416828878223896, 0.0003984368813689798, 0.0007805174682289362, -0.00016674379003234208, 0.00954031478613615, -0.006208318751305342, -0.007003123871982098, -0.0011240277672186494, -0.0011178244603797793, 0.0018915762193500996, -0.005939892027527094, -0.0012939557200297713, -0.0009389157057739794, -0.001245345687493682, -0.00048475348739884794, 0.0016821232857182622, 0.0027353018522262573, -0.0015152775449678302, -0.0013570749433711171, 0.001474309479817748, -0.00653874920681119, 0.004192243795841932, 0.0020348564721643925, 0.004774678498506546, -0.0003516399010550231, -0.0004871285636909306, -0.0009154959116131067, -0.001777039491571486, 0.0011532066855579615, 0.008710253983736038, 0.012406456284224987, 0.0061797467060387135, 0.0002874129277188331, -3.443838596343994, 0.4311330020427704, 0.11400406807661057, 0.01822572946548462, -0.05053442344069481, 0.05805935338139534, -0.017564410343766212, -0.02645006962120533, -0.041771627962589264, -0.1542699933052063, 0.6487014293670654, 0.1183292493224144, 0.25670090317726135, 0.31097736954689026, 0.17846332490444183, 0.010286805219948292, -0.16842332482337952, -0.011809753254055977, -0.16608037054538727, -0.30545735359191895, -0.013624564744532108, -0.02675175480544567, -0.042321689426898956, -0.038733888417482376, -0.014534363523125648, -0.008746698498725891, 0.0283842571079731, 0.0010879324981942773, -0.006184796802699566, -0.014082684181630611, 0.0027024189475923777, 0.000500500260386616, 0.05425209924578667, 0.07787754386663437, 0.05913000926375389, 0.04485904797911644, 0.035493578761816025, 0.0748792290687561, -0.007825498469173908, -0.03621134161949158, -0.01751875691115856, -0.0005570935318246484, 0.010152885690331459, -0.037346258759498596, 0.009708247147500515, 0.0040189349092543125, -0.002907483372837305, 0.00245184195227921, 0.009744868613779545, -0.011817758902907372, -0.0198990311473608, -0.02779703214764595, -0.03013560175895691, 0.07020501792430878, 0.05976013094186783, 0.060674577951431274, 0.015306416898965836, 0.049974143505096436, 0.02447487972676754, 0.03825104236602783, 0.033146366477012634, 0.016158010810613632, 0.21903428435325623, -0.02486005797982216, 0.04289201274514198, 0.11014699935913086, 0.1321636587381363, -0.10747405886650085, -2.328881025314331, 0.0031856538262218237, 0.2213362157344818, 0.1812753826379776, -0.06788609176874161, -0.07174703478813171, -1.179956316947937, -0.042440589517354965, 0.23124879598617554, -0.05654984340071678, 0.047283727675676346, 0.0900966078042984, 0.12198440730571747, 0.035292137414216995, -0.027689184993505478, -0.04172687232494354, -0.12766295671463013, -0.35686570405960083, -0.011605977080762386, 0.5528078079223633, -0.11791226267814636, -0.031014353036880493, 0.45761510729789734, -0.11544380336999893, 0.16690374910831451, 0.15024448931217194, -0.3898845911026001, -0.0194421224296093, 0.23735643923282623, -0.4506280720233917, 0.0454460047185421, -0.2257651835680008, 0.2810409963130951, 0.2150469571352005, 0.0730048343539238, 0.28675973415374756, -0.04553229361772537, 0.06182807683944702, 0.015217390842735767, -0.06904029101133347, -0.15577109158039093, 0.023289190605282784, 0.028257014229893684, -0.34527766704559326, 0.01804034598171711, 0.022089509293437004, -0.20633405447006226, -0.011244726367294788, -0.35530564188957214, 0.13503079116344452, -0.10456501692533493, 0.7488255500793457, 0.3415457010269165, -0.011377875693142414, 0.01323725376278162, -0.8478950262069702, 0.08530928194522858, 0.16143377125263214, -0.48197177052497864, 0.19965839385986328, 0.024625834077596664, 0.10041303932666779, 0.005172163248062134, 0.048291854560375214, -0.08179125934839249, 0.0750376358628273, -0.40201061964035034, 0.07573746144771576, 0.26810935139656067, -0.2789557874202728, -0.046159498393535614, -0.3497771620750427, 0.5313560962677002, 0.00652907881885767, -0.3059193193912506, -0.9618936777114868, 0.028455594554543495, -0.16413556039333344, -0.03276798129081726, 0.008145567961037159, 0.08110536634922028, 0.07674182206392288, -0.4848686456680298, 0.27559149265289307, -0.024766607210040092, 0.022278090938925743, -0.013071873225271702, -0.050748180598020554, -0.043861981481313705, -0.0440501943230629, 0.4022957980632782, 0.1902763992547989, -0.3550446033477783, -0.18441060185432434, -0.19613870978355408, -0.16131168603897095, 0.1320382058620453, 0.10031501948833466, 0.09868952631950378, 0.06957042962312698, -0.03577785566449165, 0.07460054010152817, -0.021761422976851463, -0.05595828592777252, 0.009160256944596767, 0.012957779690623283, 0.08657168596982956, 0.0042620329186320305, 0.030380889773368835, 0.057767413556575775, -0.01744573563337326, 0.014659528620541096, 0.01879126951098442, 0.0031044979114085436, 0.024090280756354332, 0.0077964309602975845, 0.06376457214355469, -0.002713615307584405, -0.014894556254148483, 0.022726621478796005, 0.012548706494271755, 0.022495616227388382, 0.01964961364865303, 0.03843164071440697, 0.05639418587088585, 0.08886635303497314, 0.059248246252536774, 0.03306654840707779, -0.01379824336618185, 0.0726626068353653, 0.241971954703331, 0.61371910572052, -0.2425975501537323, -0.4382241368293762, 0.12931393086910248, -0.13475145399570465, -0.010369931347668171, 0.01460950169712305, -0.05753152444958687, -0.10805098712444305, 0.07306751608848572, -0.054839640855789185, 0.32182085514068604, 0.19035200774669647, 0.06070712208747864, 2.038905143737793, 0.12234781682491302, 1.338777780532837, -0.07277373224496841, -0.08483030647039413, 0.03328755870461464, 0.04763234779238701, 0.03233980014920235, -0.0008429562440142035, -0.03425276651978493, -0.01662817783653736, -0.08801361918449402, -0.04566935822367668, 0.008099940605461597, -0.006896156817674637, -0.025181928649544716, -0.036455459892749786, 0.07400954514741898, 0.06268689781427383, 0.010992927476763725, 0.016746031120419502, 0.02189214527606964, 0.039484936743974686, -0.017769159749150276, -0.05679713189601898, -0.022144736722111702, -0.02077213115990162, -0.02854214236140251, -0.03217259794473648, -0.07541777193546295, -0.052474185824394226, -0.04511065408587456, -0.03475220873951912, -0.05202213302254677, -0.07795443385839462, 0.02473962865769863, -0.09090988337993622, -0.10358048975467682, 0.0018589046085253358, 0.11664490401744843, 0.12688091397285461, -0.1360481232404709, -0.036422573029994965, -0.02133055590093136, -0.010232449509203434, -0.026720890775322914, 0.005753024481236935, 0.006663099396973848, 0.005746553651988506, 0.01489088125526905, -0.002749576698988676, -0.017015406861901283, 0.026386447250843048, 0.16041876375675201, 0.032358866184949875, 0.04534513130784035, -0.15458256006240845, 0.00793079100549221, 0.19066080451011658, -0.6298699378967285, 0.2309776246547699, -0.3966192901134491, 0.36058104038238525, 0.5992689728736877, 0.4261382222175598, -0.03625985234975815, -0.046191148459911346, 0.08410268276929855, 0.2076626569032669, -0.04791584238409996, -0.022812359035015106, 0.19732387363910675, 0.18422824144363403, 0.20654039084911346, 0.1980830878019333, 0.1323036253452301, 0.1046246811747551, -0.08090265840291977, -0.02910366654396057, -0.012996204197406769, 0.024958772584795952, 0.0427573136985302, -0.02961064502596855, -0.08377391844987869, 0.06599780172109604, 0.039072465151548386, 0.0058968886733055115, 0.027873052284121513, 0.08165169507265091, 0.13018053770065308, -0.04412604123353958, 0.000964891689363867, 0.028976453468203545, -0.009264984168112278, -0.07252518087625504, -0.08263746649026871, -0.033026207238435745, 0.009185007773339748, 0.07377876341342926, -0.007328120060265064, -0.03340056166052818, -0.22996658086776733, 0.5147665739059448, 0.15461881458759308, 0.0824325755238533, 0.16149115562438965, 0.12687279284000397, -0.34979069232940674, -0.3738337755203247, -0.3501478135585785, -0.3180159330368042, -0.2613127827644348, -0.18435890972614288, 0.055074065923690796, -0.17924991250038147, -0.2018590271472931, -0.07159608602523804, 0.24774734675884247, 0.26555776596069336, 0.14800387620925903, 0.18705041706562042, 0.8042102456092834, -0.08239556103944778, 0.14968259632587433, -0.18320153653621674, -0.43948352336883545, -0.0172589011490345, -0.09927400946617126, -0.029361844062805176, 0.499661922454834, -0.19927778840065002, -0.02248261496424675, 0.08213189244270325, 0.04264223948121071, 0.04625643044710159, -1.1630034446716309, -0.0002724718360695988, -0.032931141555309296, -0.060358669608831406, -0.10242155194282532, -0.07846633344888687, -0.0693938285112381, -0.020808473229408264, -1.4828038215637207, 0.5665309429168701, 0.42086976766586304, 0.15829776227474213, 0.42216411232948303, -0.1228473111987114, 0.14894217252731323, -0.026849007233977318, -0.004456228576600552, 0.05544690787792206, 0.004626993555575609, -0.005477187689393759, -0.04263683035969734, -0.02062186598777771, -0.010740863159298897, 0.0109283197671175, -0.027723468840122223, 0.03668732941150665, -0.013998202048242092, -0.003826812142506242, 0.002864271169528365, 0.001079693203791976, -0.00620377017185092, -0.007145891897380352, -0.0008405887638218701, -0.037359800189733505, -0.02780482918024063, -0.11366285383701324, -0.2176005244255066, -0.15209463238716125, -0.0020960927940905094, 0.06466392427682877, 0.05208972468972206, 0.04639546200633049, 0.059446364641189575, 0.04235832393169403, -0.047506239265203476, -0.03460056334733963, -0.035425834357738495, 0.00014350248966366053, 0.06427500396966934, 0.3153095543384552, -0.030195491388440132, -0.11548162251710892, -0.09777118265628815, 0.02833998017013073, 0.04312719404697418, 0.07787913829088211, 0.057938914746046066, -0.019990848377346992, -0.28956350684165955, 0.05579023063182831, -0.15943844616413116, 0.03497473523020744, -0.0017325570806860924, -0.29104840755462646, 0.014097388833761215, 0.018863296136260033, -1.3215107917785645, -0.3396128714084625, 0.008193330839276314, -0.006931102368980646, -0.036105476319789886, -0.02083618752658367, -0.048070963472127914, 0.021627625450491905, 0.06858374178409576, 0.007591576781123877, 0.16035360097885132, 0.2039860337972641, 0.2841171324253082, 0.11462267488241196, 0.051481544971466064, 0.09939184784889221, -0.055198006331920624, -0.1335431933403015, -0.17762431502342224, -0.07511366903781891, -2.437427428958472e-05, 0.007499991450458765, 0.10151132941246033, 0.05834599956870079, 0.021993741393089294, -0.06465231627225876, -0.012937856838107109, -0.028403423726558685, 0.006833240855485201, 0.04648073762655258, 0.054791539907455444, -0.02038397081196308, 0.0532912015914917, -0.7546234726905823, -0.9669462442398071, -1.273500680923462, -1.0843244791030884, -0.32139235734939575, 0.012557127512991428, 0.017449170351028442, 0.05277484282851219, 0.07955045998096466, 0.088435098528862, 0.173391655087471, 0.1275303065776825, 0.10628946125507355, 0.07827693969011307, 0.05089123919606209, -0.06842745095491409, 0.21452923119068146, -0.006593228317797184, 0.02555030584335327, 0.03958694264292717, 0.003998330794274807, -0.08408912271261215, 0.09718028455972672, 0.3264406621456146, -0.08332101255655289, 0.06947203725576401, 0.3770623803138733, -0.02771146036684513, 0.13403834402561188, 0.09658483415842056, 0.0666438415646553, -0.04842670261859894, -0.015397853218019009, 0.039111584424972534, -0.3384997546672821, -0.05661269277334213, 0.6535853147506714, -0.08339856564998627, 0.5435792207717896, -0.10073550790548325, -0.09186556190252304, -0.435218870639801, 0.0710982233285904, -0.13452617824077606, 0.15568609535694122, -0.24819129705429077, -0.30577996373176575, 0.13395416736602783, -0.34883585572242737, 0.23558130860328674, -0.15792030096054077, 0.2025526612997055, 0.1061486005783081, 0.07017724961042404, 0.08018424361944199, -0.09463783353567123, 0.005517440848052502, -0.024685490876436234, 0.03777717798948288, 0.007891353219747543, -0.32268694043159485, 0.002589066978543997, -0.16464123129844666, 0.019094957038760185, -0.010023216716945171, 0.014184268191456795, -0.3722935914993286, -0.09317908436059952, 0.18265198171138763, -0.06316553801298141, 0.03816799819469452, 0.034811489284038544, -1.0313376188278198, 0.03702757507562637, -0.23902033269405365, 0.07620903849601746, 0.038951627910137177, -0.22334006428718567, 0.20631571114063263, -0.10079329460859299, 0.006133271846920252, 0.011134237982332706, 0.48552265763282776, -0.676673948764801, 0.12109729647636414, 0.13606901466846466, -0.016998963430523872, 0.1652480959892273, 0.11602677404880524, 0.26391610503196716, 0.1760449856519699, -0.07686351239681244, -0.2604844868183136, 0.7825052738189697, -0.04417074844241142, 0.10731898248195648, 0.12104512006044388, 0.2525367736816406, -0.12029055505990982, 0.7026024460792542, 0.004179668612778187, -0.017584439367055893, -0.09434159100055695, -0.1230202168226242, -0.13419583439826965, -0.11432772129774094, -0.10479594767093658, 0.4063231647014618, 0.36785024404525757, 0.418870210647583, 0.47591349482536316, 0.26545289158821106, 0.2664909362792969, 0.057601846754550934, 0.08693636953830719, 0.08998598158359528, 0.02649662084877491, 0.02225065417587757, -0.012771230190992355, 0.0628834068775177, 0.07720498740673065, 0.05405551940202713, 0.029500003904104233, -0.023712148889899254, -0.043655380606651306, 0.015302550047636032, 0.10497422516345978, 0.08685072511434555, -0.037602975964546204, -0.03334219753742218, -0.043306492269039154, 0.02219531126320362, -0.13641135394573212, -0.1653057187795639, -0.09044641256332397, -0.024416744709014893, -0.05559898540377617, 0.019556565210223198, -0.05887814983725548, -0.0359187088906765, -0.04468267038464546, -0.07178598642349243, -0.12535879015922546, -0.052711714059114456, -0.011150941252708435, -0.020294638350605965, -0.023031676188111305, -0.10209764540195465, 0.3934176564216614, -0.3661491870880127, -0.006588692311197519, -0.13536272943019867, 0.027375129982829094, 0.12383168190717697, 0.11543893069028854, 0.29359111189842224, 0.06247823312878609, 0.1738625466823578, 0.4270499348640442, -0.6141973733901978, -0.17555995285511017, -0.06509239971637726, 0.03577791899442673, 0.021209945902228355, -0.07421039044857025, 0.11646870523691177, -0.35009393095970154, 0.33859217166900635, -0.08210176229476929, 0.5398412942886353, -0.07031023502349854, 0.3738600015640259, -0.11574406176805496, 0.20251746475696564, -0.06699622422456741, 0.17828133702278137, -0.051918815821409225, 0.10262560844421387, -0.0722571611404419, -0.30955949425697327, 0.23016314208507538, -0.18339991569519043, 0.17361944913864136, -0.03209201619029045, -0.06087980791926384, 0.07954087853431702, -0.09255442023277283, 0.023386480286717415, -0.02116444706916809, -0.06648336350917816, 0.15944257378578186, 0.20683059096336365, 0.07480473071336746, -0.26079097390174866, 0.04334951192140579, -0.28653088212013245, 0.005229040049016476, -0.1530180275440216, -0.03818397969007492, -0.036681294441223145, -0.0401880219578743, 0.4495144486427307, -0.005071141757071018, -0.357014536857605, 0.06940712034702301, -0.2305542230606079, 0.09838884323835373, -0.06657479703426361, 0.0420098714530468, 0.08741021901369095, 0.07380105555057526, -0.03184580057859421, 0.015120740979909897, -0.10484717786312103, 0.06375270336866379, 0.12320607900619507, -0.2686455547809601, -0.24787047505378723, -0.059407204389572144, -0.43808460235595703, 0.20192988216876984, -0.32292303442955017, 0.011499153450131416, -0.08169075846672058, -0.01326722465455532, 0.07063871622085571, -0.12529759109020233, -0.0789351761341095, 0.011486414819955826, 0.0551784411072731, -0.03220802918076515, -0.09279333055019379, -0.10949195176362991, -0.00740203820168972, 0.01353804673999548, 0.09320643544197083, 0.6665487289428711, -0.037220776081085205, -0.026315215975046158, 0.009285619482398033, -0.025830261409282684, -0.007037234026938677, 0.0872611254453659, -0.10590162873268127, -0.09115026146173477, -0.02845826931297779, -0.0035388462711125612, 0.013817002065479755, -0.07039706408977509, -0.0010896511375904083, 0.014791946858167648, 0.0006121452315710485, 0.005691416561603546, -0.029850278049707413, -0.003109089797362685, 0.020835664123296738, -0.008702550083398819, 0.0686008408665657, 0.20361188054084778, 0.9687792062759399, 3.4271888732910156, -0.06278764456510544, 0.031331125646829605, -0.051440220326185226, -0.08896444737911224, -0.15266115963459015, 0.3511662185192108, -2.550210956542287e-05, 0.06741273403167725, 0.020890189334750175, 0.02089240774512291, 0.036528319120407104, -0.09661943465471268, 0.02094060182571411, 0.04542223736643791, -0.030475014820694923, -0.030443593859672546, -0.0022115421015769243, -0.009822830557823181, -0.06348942220211029, 0.14382648468017578, 0.04333186894655228, -0.038144033402204514, -0.22765275835990906, 0.2434075027704239, 0.1145879402756691, 0.37519243359565735, -1.8571025133132935, 0.038887329399585724, -0.24494008719921112, 0.1398300677537918, -0.40595343708992004, -0.1461118459701538, -0.004821447655558586, 0.007036054972559214, 0.005959916859865189, -0.007531648501753807, -1.1880182027816772, -0.09505312889814377, -0.018991859629750252, -0.08268065750598907, -0.1006489247083664, -0.10697786509990692, -0.07349429279565811, -0.06599696725606918, 0.10078572481870651, -0.1503186821937561, 0.24015596508979797, 0.31677311658859253, -0.10367650538682938, 0.23787453770637512, 0.076632559299469, 0.07488472759723663, 0.05807656794786453, 0.0030831219628453255, 0.06696164608001709, 0.11329509317874908, -0.03534169867634773, 0.034808266907930374, -0.012090613134205341, 0.027575505897402763, 0.05572756007313728, -0.07089590281248093, -0.026531033217906952, -0.0020764931105077267, -0.03588586300611496, -0.042986880987882614, -0.059617433696985245, -0.05134096369147301, 0.04757760092616081, 0.0065513611771166325, -0.08377691358327866, -0.08983630686998367, -0.08491303026676178, -0.0863572508096695, 0.00763872591778636, 0.031440384685993195, 0.06294523924589157, 0.057479653507471085, 0.04436657950282097, 0.0741923600435257, -0.09771471470594406, -0.07415702193975449, -0.08388282358646393, -0.08247733861207962, 0.6671252846717834, 0.6014465689659119, 0.21688996255397797, 0.02087901346385479, -0.11086065322160721, 0.0350707583129406, 0.05358774587512016, 0.013073456473648548, -2.2557051181793213, -0.05041390284895897, 0.5802364945411682, -0.2302069514989853, -0.4007599651813507, 0.6910373568534851, 0.0010004345094785094, 0.008469920605421066, 0.02494489960372448, 0.022024910897016525, 0.2666080594062805, -0.3597274124622345, 0.01985868439078331, 0.05581401288509369, 0.0015539429150521755, 0.016287431120872498, 0.006908159703016281, -0.006820780225098133, -0.12348775565624237, 0.05132662504911423, 0.06985544413328171, -0.016237400472164154, -0.08385738730430603, -0.029894953593611717, -0.03223845735192299, -0.05780556797981262, -0.048883963376283646, -0.008501683361828327, -0.005325787700712681, -0.02553895302116871, 0.026793399825692177, 0.005023943725973368, 0.030206939205527306, 0.01273200660943985, 0.03180275857448578, 0.006232882384210825, -0.00017302944615948945, 0.013342486694455147, -0.006305758375674486, -0.0149716567248106, -0.00013423485506791621, 0.006030662450939417, 0.009249660186469555, -0.008777824230492115, 0.020461952313780785, -0.0024237665347754955, -0.006313619203865528, 0.1776246279478073, 0.005842704325914383, 0.0018760096281766891, -0.008802162483334541, 0.014199326746165752, 0.016325194388628006, 0.020390955731272697, 0.10397215932607651, 0.07218566536903381, 0.020826011896133423, 0.05272131785750389, -0.7548279166221619, -0.11448532342910767, -0.12116603553295135, 0.1791640818119049, 0.3954865336418152, -0.046818580478429794, -0.06384553015232086, -0.060386139899492264, 0.5673916339874268, 0.0008143800660036504, -0.1399843841791153, 0.09311607480049133, 0.18463148176670074, 0.5725417733192444, -0.0825689360499382, 0.00894470326602459, 0.03852343186736107, -0.022696657106280327, 0.04545871540904045, -0.31527575850486755, -0.03532227501273155, 0.0006166644743643701, 0.012692810967564583, 0.023740120232105255, 0.011369932442903519, 0.03478759899735451, -2.212628126144409, -0.8516436219215393, -0.08432827144861221, -0.06530249863862991, 0.01815144345164299, -0.017655951902270317, 0.15627560019493103, 0.0779651552438736, -0.04855450987815857, -0.0255110003054142, 0.037780072540044785, 0.07666904479265213, -0.07024581730365753, -0.0007871048874221742, 0.040558572858572006, 0.015104856342077255, -0.028297917917370796, -0.0900321826338768, 0.13863009214401245, 0.06944836676120758, 0.011497807689011097, 0.028205864131450653, 0.052954819053411484, 0.07709117978811264, -0.007913503795862198, 0.07446060329675674, -0.07016989588737488, -0.08506720513105392, 0.06754264235496521, 0.16654156148433685, -0.039334021508693695, 0.03903892636299133, 0.014409445226192474, 0.009650158695876598, -0.0017817053012549877, -0.001384901232086122, 0.048886243253946304, 0.01849878579378128, 0.0022558493074029684, 0.08962106704711914, 0.16916823387145996, 0.5237284302711487, -1.3293352127075195, 0.30358266830444336, 0.2658950686454773, -0.04592086002230644, 0.1016354113817215, 0.16412898898124695, -0.7122636437416077, -0.5643529295921326, -0.052524130791425705, 0.4331684708595276, -0.5278781056404114, -0.08410388231277466, 0.028996603563427925, 0.027227027341723442, -0.09254002571105957, -0.019522735849022865, -0.27383509278297424, -0.009956076741218567, 0.036556143313646317, 0.05150093510746956, 0.07858776301145554, 0.08405426144599915, 0.009330029599368572, 0.010570422746241093, -0.4788026809692383, -0.16503944993019104, -0.2508450150489807, -0.16921330988407135, -0.1933484971523285, -0.1612488478422165, -0.3549892008304596, -0.12814906239509583, -0.029952971264719963, -0.11209774017333984, -0.0284697525203228, 0.03858266770839691, 0.055563315749168396, -0.006669305730611086, -0.008686942979693413, 0.0903032049536705, 0.056862153112888336, -0.007955683395266533, 0.022638093680143356, 0.02760094404220581, 0.09646524488925934, 0.07470820844173431, 0.05946749448776245, 0.03439297527074814, 0.011147189885377884, -0.021953711286187172, -0.08212918043136597, -0.10413629561662674, -0.1602647304534912, 0.021116795018315315, -0.008479456417262554, 0.06581038981676102, 0.029858237132430077, 0.020550072193145752, 0.05091162398457527, 0.07732601463794708, 0.41051188111305237, 0.36013492941856384, 0.12361105531454086, 0.11492418497800827, 0.4464688301086426, -0.0022680179681628942, 0.24555756151676178, -0.10846516489982605, 0.30032992362976074, 0.0342833511531353, -0.04775362089276314, -0.25858643651008606, 0.026794012635946274, -0.31387361884117126, 0.17293338477611542, 0.0007153380429372191, 0.24924595654010773, 0.10605869442224503, 0.03903542459011078, 0.002005521673709154, -0.014598077163100243, -0.010671108961105347, 0.059348657727241516, -0.3908940851688385, -0.06131041422486305, -0.02469826117157936, 0.008531641215085983, -0.004083533771336079, -0.0018515436677262187, -0.024516969919204712, -0.05826004594564438, 0.031976837664842606, 0.012200592085719109, 0.02828986383974552, 0.020875774323940277, -0.0017897062934935093, 0.44486841559410095, -0.0811053141951561, 0.018613604828715324, -0.03587779402732849, 0.041847363114356995, 0.008564330637454987, -0.11245076358318329, 0.06730930507183075, -0.009043535217642784, 0.037215203046798706, -0.04797149822115898, -0.007355320733040571, 0.06706133484840393, -0.11124671995639801, -0.02739054709672928, -0.11313597112894058, -0.05494118481874466, -0.07047060877084732, 0.024713357910513878, -0.22277429699897766, 0.27301186323165894, 0.11881650239229202, 0.19792184233665466, 0.06942398846149445, 0.6467248797416687, -0.36455532908439636, -0.05154348164796829, -0.1997976154088974, -0.05569233000278473, -0.11550672352313995, 0.16416241228580475, 0.18243910372257233, 0.05964365601539612, 0.033799514174461365, 0.0891745388507843, -0.014138421975076199, 0.033264972269535065, -0.012451253831386566, 0.07919976860284805, -0.3288383185863495, -0.8001593947410583, -0.660254180431366, 0.07107296586036682, 0.05025444179773331, 0.21973727643489838, 0.14820559322834015, -0.5074150562286377, -0.018627576529979706, 0.05909738317131996, -0.026395995169878006, -0.07917304337024689, -0.026632795110344887, 0.06908227503299713, -1.0006752014160156, -0.04427585378289223, 0.37295690178871155, 0.4609699547290802, -0.10432185232639313, 0.3997650444507599, -0.14039017260074615, -0.20705997943878174, 0.10381262004375458, 0.1373017281293869, -0.15513142943382263, 0.11156662553548813, -0.31489115953445435, 0.15185315907001495, -0.19637702405452728, -0.19665902853012085, 0.11720791459083557, -0.11354414373636246, 0.1254093050956726, 0.007287540473043919, 0.09978696703910828, 0.09953178465366364, -0.004911678843200207, 0.05469615384936333, -0.018784966319799423, -0.02070530690252781, -0.09110460430383682, -0.173646479845047, 0.033508919179439545, 0.17083489894866943, 0.003282332792878151, -0.02763156220316887, -0.09130457043647766, 0.20694518089294434, -0.09756603837013245, 0.36752986907958984, -0.07665190100669861, 0.10193020105361938, -1.3631561994552612, -0.25933173298835754, 0.036843929439783096, -0.11450915783643723, 0.1213156059384346, 0.1635715663433075, -0.11929155886173248, -0.16555266082286835, 0.2218664139509201, 0.0933496281504631, -0.13693052530288696, -0.02512175217270851, 0.20853747427463531, 0.4308973550796509, 0.16075091063976288, -0.24444684386253357, 0.08333445340394974, 0.08666568994522095, 0.07951143383979797, 0.03557745739817619, 0.01127208024263382, 0.11274098604917526, 0.06962060183286667, 0.14590077102184296, 0.004685988649725914, -0.135296031832695, 0.003048703772947192, 0.12455620616674423, 0.1589278280735016, -0.3395208418369293, -0.015234745107591152, 0.0016160417580977082, 0.007304878905415535, -0.010510984808206558, 0.23327487707138062, 0.08467895537614822, -0.03335468843579292, -0.01631002128124237, -0.007234374061226845, -0.013199475593864918, 0.016134915873408318, -0.14313407242298126, 0.025317389518022537, 0.02199002541601658, 0.010279282927513123, 0.03080439567565918, 0.05512885004281998, 0.06347975879907608, -0.012298445217311382, -0.024074040353298187, -0.01813938096165657, -0.019378865137696266, -0.06955435127019882, -2.5506350994110107, -0.002614632248878479, -0.0035279076546430588, -0.01097344420850277, 0.0009248561691492796, -0.15235745906829834, 0.32124969363212585, -0.11779551208019257, -0.06132051348686218, -0.05020483583211899, 0.014042536728084087, -0.11439035087823868, 0.07882694154977798, -0.022094441577792168, 0.00268870429135859, -0.034001097083091736, -0.019752157852053642, -0.3134702146053314, 0.026872050017118454, 0.01590290665626526, -0.026600589975714684, -0.0036425308790057898, 0.06263555586338043, -0.10892410576343536, -0.09122224897146225, 0.007651773281395435, 0.0321328267455101, -0.06647919863462448, -0.023656176403164864, 0.06597485393285751, 0.16473934054374695, -0.1852789968252182, -0.08132908493280411, -0.14434456825256348, -0.23359757661819458, 0.07826525717973709, -0.03935319185256958, 0.02085830084979534, 0.022979751229286194, -0.09162867069244385, -0.41095679998397827, -0.7683822512626648, -0.0035496188793331385, -0.010913040488958359, 0.016103630885481834, -0.018678046762943268, -0.012706567533314228, -0.02230711095035076, 1.3262838125228882, -0.13259842991828918, -0.25682303309440613, -0.14030854403972626, -0.09526047110557556, 0.056724101305007935, -1.0377497673034668, 0.11510073393583298, 0.13862304389476776, 0.009313573129475117, -0.038563694804906845, -0.10001765191555023, -0.9109311103820801, 0.01629180833697319, 0.00390828400850296, 0.05725309997797012, 0.10706484317779541, 0.15053614974021912, 0.11861716955900192, -0.005869889631867409, 0.03153716400265694, 0.05300087481737137, 0.020229002460837364, 0.014041595160961151, -0.027879880741238594, 0.013311701826751232, -0.0662863627076149, -0.09435036033391953, -0.06542801111936569, 0.03191381320357323, 0.014698061160743237, -0.010593567974865437, 0.0032231202349066734, 0.0005711307167075574, 0.021648669615387917, 0.0954795554280281, 0.03012658655643463, 0.12607812881469727, 0.08184655010700226, 0.09963364899158478, -0.3368249535560608, 0.1382911205291748, 0.046876903623342514, 0.2077316790819168, 0.1371198147535324, -0.009873065166175365, -0.08885280042886734, 0.06473276019096375, -0.1608169972896576, 0.0591251365840435, -0.41425228118896484, -0.18733972311019897, -0.1048659235239029, 0.16113446652889252, 0.06178059056401253, 0.014885404147207737, -0.0073965489864349365, -0.005138598848134279, 0.17868152260780334, -0.39690911769866943, 0.012074689380824566, 0.06502295285463333, 0.05313115194439888, 0.010477330535650253, -0.008218949660658836, -0.06608191877603531, 0.01677747443318367, 0.07726241648197174, 0.05828355252742767, 0.03620355948805809, 0.0324065275490284, 0.04826973378658295, -0.06741628050804138, -0.02253449149429798, 0.008199748583137989, 0.031794480979442596, -0.06788226962089539, 0.0552762895822525, -0.0294236671179533, 0.006661691702902317, -0.025027573108673096, -0.017111582681536674, 0.0892435610294342, -0.07385008037090302, -0.35359781980514526, -0.17284797132015228, -0.2216789871454239, -0.1118239238858223, -0.08458903431892395, 0.01830856129527092, -0.18155398964881897, -0.03953881561756134, -0.07378656417131424, -0.05205274745821953, 0.09280344843864441, 0.0608939602971077, -2.046520233154297, -0.7933037877082825, -0.926171064376831, -0.8049798011779785, -0.43377891182899475, -0.23563440144062042, 0.2994767725467682, -0.11853170394897461, 0.04305916279554367, 0.07891334593296051, 0.5285821557044983, -0.034056100994348526, 0.3555332124233246, -0.015549594536423683, 0.03726383298635483, -0.19691956043243408, 0.020013082772493362, -0.2144138664007187, 0.051459360867738724, 0.06292209029197693, -0.16639024019241333, -0.08438457548618317, 0.18054567277431488, -0.18660421669483185, -0.17441731691360474, -0.01620904915034771, 0.18499210476875305, 0.028481433168053627, 0.0256494153290987, -0.29499760270118713, 0.0031964152585715055, -0.040942687541246414, -0.032123543322086334, -0.026780132204294205, -0.005988272372633219, -0.028591692447662354, -0.00299257249571383, 0.014872999861836433, 0.021741624921560287, 0.009860599413514137, 0.003384524257853627, -0.0017664345214143395, -0.06416497379541397, 0.023784566670656204, 0.005423243623226881, 0.015018941834568977, 0.011364297941327095, 0.0011611097725108266, 0.07566181570291519, -0.012405489571392536, -0.0034685442224144936, -0.0076138717122375965, -0.005678175948560238, -0.004970034118741751, 0.04834270849823952, 0.0010179398814216256, 0.028747769072651863, 0.0006530132959596813, -0.0002506364544387907, -0.030869223177433014, 0.00223646336235106, -0.040995001792907715, 0.1219748854637146, 0.01477936003357172, 0.14151202142238617, -0.015387305989861488, -0.03186139464378357, 0.0029156547971069813, 0.015063208527863026, 0.00987166352570057, 0.008267595432698727, -0.0176275335252285, 0.0662190243601799, 0.036322325468063354, 0.008563287556171417, -0.012894499115645885, -0.02044105902314186, 0.38713952898979187, 0.07237254083156586, 0.06378999352455139, -0.042173974215984344, -1.7148054838180542, 0.07554620504379272, -2.013413906097412, -0.03819328173995018, 0.07120198011398315, -0.9072890877723694, 0.13835188746452332, -0.816552996635437, 0.007469159085303545, -0.06644538044929504, 0.04322582855820656, 0.12772338092327118, 0.10094578564167023, 0.023871107026934624, 0.09154918789863586, -0.028640516102313995, -0.011922427453100681, -0.012111516669392586, -0.04184017702937126, -0.037105854600667953, -0.03344269469380379, 0.05510886386036873, 0.010905605740845203, 0.0030824486166238785, -3.2098421797854826e-05, 0.008395325392484665, 0.024655602872371674, -0.032660115510225296, -0.031355053186416626, -0.01658141426742077, -0.003507711458951235, -0.00474930414929986, 0.023262659087777138, -0.008550471626222134, 0.027136389166116714, 0.04769827425479889, 0.05280141532421112, 0.07009236514568329, 0.02961702272295952, -0.06744138896465302, 0.011837798170745373, 0.013526221737265587, 0.015894385054707527, -0.011493931524455547, 0.008454506285488605, -0.10254878550767899, -0.018804581835865974, 0.030855821445584297, 0.0985533744096756, 0.04302322119474411, 0.5160494446754456, -0.030162563547492027, -0.012775653041899204, -0.008442264050245285, -0.015552084892988205, 0.010335875675082207, 0.023693587630987167, -0.08427632600069046, 0.4238666594028473, -0.06190936267375946, -0.09821925312280655, 0.3014127016067505, 0.021562889218330383, -1.5909976959228516, 0.05451492592692375, 0.05833707004785538, 0.02332577481865883, -0.049651138484478, 0.20659801363945007, -0.1723518669605255, -0.1388462483882904, 0.057155806571245193, -0.42931491136550903, -0.062116775661706924, -0.46692121028900146, 0.17139749228954315, 0.16782261431217194, -0.08557967841625214, -0.15474288165569305, -0.3209807872772217, -0.29569193720817566, -0.006505666766315699, -0.004275348968803883, 0.0003709459851961583, 0.00867443811148405, -0.02214648947119713, -0.017205625772476196, 0.49820423126220703, 0.12338791787624359, 0.11646155267953873, -0.08793859928846359, -0.06255355477333069, -0.20700156688690186, -0.5430341958999634, 0.006044459994882345, 0.037474457174539566, 0.07025127857923508, 0.10641613602638245, 0.07697091996669769, -0.44327694177627563, -0.023092307150363922, -0.0015321857063099742, 0.020029565319418907, -0.0230097696185112, 0.05088125541806221, 0.17269374430179596, -0.03774821013212204, 0.00014026441203895956, -0.062003158032894135, -0.03719663247466087, -0.09818680584430695, -0.005969230551272631, -0.001068377634510398, 0.0392703153192997, 0.1818309724330902, 0.2738955318927765, 0.4414896070957184, -0.02612273395061493, 0.04712609201669693, 0.09108287841081619, 0.06887587904930115, 0.07798056304454803, 0.111330546438694, 0.016163209453225136, 0.03134806454181671, 0.06473756581544876, 0.13116233050823212, 0.24030567705631256, -0.09907331317663193, 0.05134288966655731, -0.7466930747032166, -0.2503203749656677, -0.051633622497320175, 0.11113740503787994, 0.11327579617500305, 0.6920472383499146, 0.8481403589248657, 0.2373030185699463, 0.37172800302505493, -0.6138343214988708, 0.49243855476379395, -0.03056561015546322, -0.020250169560313225, 0.09396658837795258, -0.023296283558011055, 0.2467368096113205, -0.32285064458847046, -0.07526055723428726, 0.010838416405022144, 0.1841462105512619, -0.003309129737317562, -0.05205079913139343, -0.07520288974046707, 0.019999459385871887, -0.04924191161990166, -0.006507507525384426, -0.011788208037614822, 0.0010737907141447067, -0.06179147958755493, -0.021973703056573868, 0.008134800009429455, 0.02975926175713539, 0.0969158262014389, 0.04210469126701355, 0.07201018184423447, -0.00037363485898822546, -0.19560855627059937, -0.3341676592826843, -0.28019481897354126, -0.110099196434021, -0.17169874906539917, 0.050323035567998886, 0.05757342651486397, 0.002539292676374316, 0.0207438375800848, 0.021531609818339348, 0.005740766413509846, 0.01836603879928589, -0.17336033284664154, -0.21029061079025269, -0.09715428948402405, -0.06512434780597687, 0.15022481977939606, -0.11026220768690109, -0.09477873146533966, -0.04077662155032158, -0.0028770260978490114, -0.013103095814585686, 0.02072719670832157, 0.06420385837554932, 0.22258806228637695, 0.04539908468723297, 0.0353165827691555, 0.15338581800460815, 0.1360546052455902, -0.6429656147956848, -0.06919153034687042, 0.09621158987283707, 0.17766794562339783, -0.04200725629925728, 0.11519700288772583, -2.238898515701294, -0.01192636601626873, 0.9209464192390442, -0.06206096336245537, 0.07323410362005234, 0.7125822305679321, -0.04215987026691437, 0.017730873078107834, 0.025853203609585762, 0.040160004049539566, 0.10108191519975662, -0.08891946822404861, -0.0026861964724957943, -0.0073291342705488205, -0.00502900592982769, -0.007596071343868971, -0.0014635486295446754, -0.01511133462190628, 0.08565360307693481, 0.03048069402575493, 0.04232387989759445, 0.022031942382454872, 0.0697174072265625, -0.008398345671594143, -0.03240685164928436, -0.03465110808610916, -0.025178778916597366, -0.0030690068379044533, -0.04904764145612717, -0.007830342277884483, 0.02636490948498249, 0.015085568651556969, -0.006760540883988142, -0.01859564706683159, 0.01391211524605751, -0.010197097435593605, -0.029643438756465912, -0.0016651940532028675, -0.008137376978993416, -0.005760883912444115, -0.005329814273864031, -0.010643520392477512, -0.016862818971276283, -0.011475097388029099, 0.006692109629511833, 0.015218240208923817, 0.014621677808463573, 0.010604037903249264, -0.02774796262383461, -0.027026688680052757, -0.020298993214964867, -0.00939451064914465, -0.0086464062333107, -0.042827263474464417, 0.039566654711961746, 0.012725681066513062, -0.002989249536767602, 0.03409373015165329, 0.49278873205184937, 0.1413303017616272, -0.45542895793914795, 0.024672405794262886, 0.4107692241668701, -0.16417954862117767, 0.08638618886470795, -0.05050647258758545, 0.03888183459639549, 0.019795536994934082, -0.23660723865032196, -0.05084842070937157, 0.8793964982032776, -0.03601518273353577, -0.15194196999073029, -0.6839689016342163, 0.0725693628191948, 0.00972397904843092, -0.007720686960965395, 0.16620776057243347, -0.005335045047104359, 0.0098952054977417, -0.059508685022592545, -0.14248153567314148, -0.095534548163414, -0.04966219142079353, 0.18854962289333344, -1.0253849029541016, -0.9259505271911621, 0.5670357346534729, 0.4786180555820465, -0.15482649207115173, -0.013853618875145912, 0.11495024710893631, 0.032250117510557175, -0.10843545943498611, -0.05763738602399826, -0.014749612659215927, -0.00835855957120657, 0.01811014488339424, 0.05857071653008461, -0.012867831625044346, -0.10924199968576431, -0.022073892876505852, -0.0012499351287260652, 0.038774341344833374, 0.01634880155324936, 0.025400055572390556, 0.04635535180568695, 0.052452512085437775, 0.013198505155742168, 0.21897122263908386, 0.01416946854442358, 0.12383773922920227, -0.036325905472040176, 0.0499391034245491, 0.009267255663871765, -0.12208694964647293, -0.05655796080827713, 0.11359725892543793, 0.07738813012838364, 0.0027454630471765995, -0.038013409823179245, -0.03261890262365341, -0.002772320294752717, 0.025195403024554253, -0.05158444494009018, 0.1505921483039856, 0.1486731767654419, 0.034983955323696136, -0.03205989673733711, 0.024600978940725327, 0.08262703567743301, 0.010306143201887608, -0.3985333740711212, 0.03281891345977783, 0.030112873762845993, -0.013898641802370548, 0.01833435706794262, -0.07297036796808243, -0.09695250540971756, 0.03444476053118706, 0.08006711304187775, -0.056446947157382965, -0.07919492572546005, -0.22931461036205292, 0.0011054849019274116, 0.20501093566417694, -0.04606981948018074, 0.038110747933387756, 0.4649997055530548, 0.05822685360908508, 0.018394192680716515, 0.047328971326351166, 0.005154994782060385, -0.016548585146665573, 0.05454576388001442, -0.06414623558521271, -0.027913639321923256, -0.03250275179743767, -0.01711820252239704, 0.011193027719855309, -0.048807136714458466, -0.005186142865568399, 0.0068609085865318775, 0.00384116661734879, 0.017887331545352936, -0.019246583804488182, -0.010285946540534496, -0.0014031569007784128, -0.017352255061268806, 2.0969107151031494, -0.041300393640995026, 0.5589971542358398, 2.8006720542907715, 0.3406916558742523, -0.009203759022057056, -0.003774625714868307, 0.04029908403754234, -0.32244542241096497, 0.10250936448574066, -0.2996574640274048, -0.0011344001395627856, -0.006448994856327772, 0.039861053228378296, 0.05768274888396263, 0.056075382977724075, 0.02773083746433258, -0.030097519978880882, -0.02534053474664688, 0.004572554957121611, 0.0031207276042550802, -0.005416765809059143, 0.20155727863311768, 0.019637681543827057, -0.013476832769811153, -0.05035697668790817, -0.06287570297718048, 0.02761952020227909, 0.0791500136256218, 0.5301057696342468, -0.028283976018428802, 0.06721582263708115, 0.05049250274896622, -0.3198745548725128, 0.2340034395456314, 0.13918066024780273, -0.002523422008380294, -0.17460301518440247, -0.003427271032705903, -0.08752468973398209, -0.08580610156059265, 0.01863779127597809, -0.06659980863332748, 0.014941861853003502, 0.010631355457007885, -0.033977385610342026, -0.053103696554899216, 0.031465426087379456, -0.0680563822388649, -0.06435038894414902, -0.007138330023735762, -0.02650219015777111, -0.023589763790369034, 0.020117849111557007, 0.026078443974256516, 0.09744346886873245, 0.030884478241205215, 0.018285730853676796, 0.10600797086954117, -0.09002187103033066, -0.01000153087079525, -0.06942932307720184, -0.007167603820562363, -0.0042663211934268475, -0.09051003307104111, 0.3564026653766632, 0.06142358481884003, -0.06140252947807312, -0.009425501339137554, -0.008347352966666222, 0.03298235684633255, 0.004198554903268814, 0.03020762838423252, -0.18421024084091187, -0.21416042745113373, -0.07311839610338211, -0.06832972913980484, -1.2298462390899658, -0.6223260164260864, -0.27319198846817017, -0.3312036097049713, -0.23038294911384583, -0.27520301938056946, 0.09249749779701233, 0.06405989825725555, 0.051508061587810516, 0.03622928261756897, -1.6308577060699463, 0.030804907903075218, 0.11258191615343094, 0.1546587198972702, 0.1453019380569458, -0.26840972900390625, -0.04583471268415451, -0.18090711534023285, 0.037566669285297394, -0.08604690432548523, 0.14754831790924072, -0.1830521523952484, 0.4353574216365814, 0.3512800633907318, -0.03348853066563606, 0.07061014324426651, -0.01877615787088871, -0.08779304474592209, -0.2815554141998291, -0.5907742977142334, -0.03629693761467934, 0.03672938421368599, -0.01478250976651907, 0.004328555427491665, -0.02301466278731823, -0.000609378912486136, 0.4213400185108185, 0.05941599979996681, -0.022223008796572685, -0.03184032812714577, -0.12527382373809814, -0.11932286620140076, -1.087282657623291, 0.024013610556721687, 0.09700927138328552, 0.11057212203741074, -0.010693583637475967, 0.0759734958410263, -1.1484928131103516, -0.06852954626083374, -0.0737592950463295, 0.0024588238447904587, 0.17534247040748596, 0.07408274710178375, -0.09252769500017166, -0.011028828099370003, 0.00019941724895033985, -0.03604241833090782, -0.04382611811161041, -0.08987046778202057, 0.06223924830555916, 0.06706622242927551, 0.2869741916656494, 0.24705000221729279, 0.27947136759757996, 0.2898232042789459, 0.10806436836719513, 0.07486606389284134, -0.0010012008715420961, -0.025735272094607353, 0.01970815472304821, -0.06351827830076218, 0.03276253864169121, 0.06815854460000992, 0.10207000374794006, 0.03983273729681969, 0.034714628010988235, 0.24018874764442444, 0.3597642481327057, 0.05320782586932182, 0.0968906506896019, 0.017221208661794662, -0.023914072662591934, -0.04052901640534401, 0.6150363087654114, 0.4528140425682068, -0.35567885637283325, 0.07172780483961105, 0.12088475376367569, -0.2311311662197113, -0.04578600078821182, 0.10522124171257019, 0.11875992268323898, -0.05712111294269562, 0.3588497042655945, 0.13932807743549347, 0.06847710907459259, -0.11466742306947708, -0.057742148637771606, 0.041681114584207535, 0.2876040041446686, -0.117240771651268, 0.14262396097183228, -0.0350344218313694, -0.019081948325037956, 0.03418905287981033, 0.02457628957927227, -0.11163896322250366, 0.10627433657646179, 0.12417767941951752, 0.07581082731485367, -0.008543976582586765, -0.042579472064971924, 0.006903668865561485, -0.44994428753852844, 0.025419268757104874, 0.007465336471796036, 0.03202596306800842, 0.045325666666030884, 0.005903706885874271, -0.7694228887557983, 0.007428883574903011, -0.023833494633436203, -0.21277682483196259, -0.34345901012420654, -0.1340516358613968, -1.0767990350723267, -0.17668208479881287, -0.00544247031211853, 0.0015198548790067434, 0.04969702661037445, -0.037313200533390045, 0.026434222236275673, 0.02588963508605957, 0.04312911629676819, 0.017068374902009964, 0.02461022138595581, -0.03243642672896385, 0.016588546335697174, -0.10529614984989166, -0.025349589064717293, -0.03732319548726082, 0.10588771849870682, -0.16702091693878174, 0.3780761659145355, 0.2660329341888428, 0.03807822987437248, 0.10415703803300858, 0.04082431271672249, -0.04949534684419632, -0.02408229187130928, -0.18947383761405945, 0.1479969322681427, 0.06014544889330864, -0.7375295162200928, 0.13374733924865723, 0.07356739044189453, -0.018995270133018494, -0.1089257001876831, -0.06758828461170197, 0.08152978122234344, -0.14766770601272583, 0.11759606748819351, 0.09616721421480179, 0.031780604273080826, 0.007067857310175896, -0.021265553310513496, -0.026165267452597618, 0.23974062502384186, 0.06693829596042633, 0.0641801729798317, 0.07277016341686249, 0.021565575152635574, 0.00881629716604948, -0.05846954137086868, 0.02512066811323166, 0.017108863219618797, 0.03643063083291054, 0.0681534931063652, -0.04420646280050278, 0.16707350313663483, -0.04861849173903465, -0.025719642639160156, -0.0912509486079216, -0.09779743105173111, -0.015563486143946648, 0.15869732201099396, 0.024825498461723328, -0.009476454928517342, 0.0620909221470356, 0.06562751531600952, -0.0004824147326871753, 0.07130846381187439, 0.41983115673065186, 0.38803553581237793, -0.03632403537631035, 0.024532927200198174, 0.09158249944448471, -1.6378347873687744, -0.3540269434452057, 0.057117823511362076, 0.013622242026031017, -0.03574208542704582, 0.012611931189894676, 0.03532389923930168, 0.031888220459222794, -0.009751376695930958, 0.05204225704073906, 0.312582403421402, 0.1510126143693924, 0.16683734953403473, -0.002071303315460682, 0.12051796168088913, -0.9181633591651917, -0.06398957967758179, -0.915307879447937, -0.4623558521270752, -0.07824784517288208, 0.06649813801050186, -0.10767946392297745, -0.2700752317905426, 0.09902241080999374, -0.12388564646244049, 0.02949916385114193, 0.13536833226680756, -0.09575480967760086, 0.2802589535713196, -0.5157115459442139, 0.7252106070518494, 0.01962120085954666, -0.026264064013957977, -0.039459142833948135, -0.08459854125976562, -0.1338447630405426, 0.3283833861351013, -0.120930016040802, -0.19063584506511688, -0.33336690068244934, -0.2348720133304596, -0.5284210443496704, -0.2535099983215332, -0.05175730958580971, -0.020717814564704895, -0.02221699431538582, 0.016149256378412247, -0.10744168609380722, -0.0863044261932373, 0.00240257172845304, 0.005020336247980595, 0.010614286176860332, -0.005557889584451914, -0.016503145918250084, 0.6113508343696594, 0.14886926114559174, 0.09653519093990326, 0.007417972665280104, 0.037206850945949554, -0.1455339938402176, -0.013111243955790997, -0.08135470002889633, 0.03273865580558777, -0.06545153260231018, 0.3466782569885254, -0.07976698875427246, -0.464495986700058, 0.129266619682312, 0.13684241473674774, 0.06700533628463745, 0.12060108780860901, -0.015514375641942024, 0.08716960996389389, 0.1617693156003952, -0.006172381807118654, 0.06715376675128937, 0.03442136198282242, -0.11219285428524017, 0.10424234718084335, 0.1459367573261261, 0.1696043759584427, -0.16365444660186768, -0.005918628536164761, -0.30406054854393005, -0.6247233748435974, 0.008581907488405704, -0.03644678741693497, -0.02847224473953247, 0.21393394470214844, -0.06529584527015686, -0.09220416098833084, 0.7215866446495056, 0.00832246895879507, -0.03356452286243439, -0.06615034490823746, 0.09453785419464111, -0.020109569653868675, -0.10169614106416702, -0.042600151151418686, -0.05132589116692543, -0.14318591356277466, -0.08739825338125229, -0.04601322486996651, 0.15704306960105896, -0.02881942316889763, 0.04970486834645271, 0.08937779068946838, 0.016091516241431236, 0.0295026246458292, -0.31038305163383484, 0.010957655496895313, -0.011535163968801498, -0.013823687098920345, 0.050958044826984406, -0.022777194157242775, 0.024399960413575172, 0.015040881931781769, 0.008409278467297554, 0.006369085516780615, -0.02716836892068386, -0.10007573664188385, -1.4720933437347412, 0.6469496488571167, 0.09131158888339996, 0.6254774332046509, 0.5223835706710815, 0.02661055512726307, -0.14871716499328613, 0.08012627810239792, -0.03877301514148712, 0.44728991389274597, 0.16233842074871063, 0.015934647992253304, -0.06362128257751465, 0.08139872550964355, 0.03559364378452301, 0.056302204728126526, 0.07599315792322159, -0.10391072928905487, -0.02453671209514141, -0.05352611094713211, 0.020172106102108955, -0.7368432879447937, 0.25779271125793457, 0.10193978250026703, 0.13320067524909973, -0.7897136807441711, 0.3396206200122833, 0.17230631411075592, 0.45486825704574585, 0.33994606137275696, -0.07666456699371338, -0.13981571793556213, -0.05213555693626404, 0.3575625419616699, 0.00097674282733351, -0.002744435565546155, 0.05000017210841179, 0.0533873625099659, 0.009787640534341335, -0.07049485296010971, 0.2555067241191864, -0.059105586260557175, -0.049895863980054855, -0.08684112876653671, -0.0922519639134407, -0.13363099098205566, -0.1275085210800171, 0.5917173624038696, 0.014405219815671444, 0.21435308456420898, -0.060688722878694534, 0.04919137433171272, -0.0026968885213136673, 0.2744472622871399, 0.06452220678329468, 0.0638587474822998, 0.09647344797849655, 0.06942709535360336, 0.0916876494884491, -0.042834971100091934, -0.05348620191216469, -0.09635552763938904, -0.08228704333305359, -0.08366403728723526, -0.08844136446714401, 0.01785975694656372, 0.033258721232414246, -0.10473653674125671, 0.04891045764088631, 0.0001910154242068529, -0.01599286124110222, -0.02269788272678852, -0.03362833335995674, 0.011895756237208843, 0.1154993548989296, 0.13160178065299988, 0.23625290393829346, 0.048545919358730316, -0.01990615203976631, -0.06369558721780777, -0.04406900703907013, -0.09589981287717819, 0.044186148792505264, -0.2220861166715622, -0.040733762085437775, -0.029595252126455307, -0.054950930178165436, -0.5234763622283936, 0.2543349266052246, -0.379260390996933, 0.5375118255615234, -0.7136589288711548, 0.08867283165454865, 0.16871416568756104, 0.45486879348754883, 0.06157389655709267, -0.025242311879992485, -0.04133639484643936, 0.016429109498858452, 0.05187001824378967, -0.13154074549674988, -0.03341221809387207, 0.2060094028711319, 0.022588280960917473, 0.016766751185059547, -0.36768820881843567, 0.1348070651292801, -0.04084230959415436, 0.002096093026921153, -0.00850855465978384, 0.060814425349235535, 0.01801840215921402, 0.06062501668930054, -0.04085283353924751, -0.05459737405180931, -0.039273448288440704, -0.007064162287861109, -0.010068009607493877, 0.14832112193107605, 0.032249815762043, 0.052998825907707214, 0.07612300664186478, -0.034542638808488846, 0.03706306219100952, -0.16089601814746857, -0.01664450578391552, -0.006305387709289789, -0.01414284948259592, 0.0422338992357254, -0.004599987994879484, 0.06071939691901207, -0.49581971764564514, 0.21461434662342072, 0.42043986916542053, -0.9748485088348389, 0.39380037784576416, -1.0452286005020142, -0.0037541280034929514, -0.021543052047491074, -0.04606858268380165, 0.004046476911753416, -0.30007079243659973, -0.024752920493483543, 0.014126348309218884, 0.010548805817961693, 0.02919519692659378, -0.035540781915187836, 0.0264690313488245, -0.2913316488265991, 0.0013947207480669022, -0.009354183450341225, 0.014103353023529053, -0.000918519333936274, 0.17590929567813873, -0.21269874274730682, -0.08935674279928207, -0.11222178488969803, -0.19849418103694916, 1.1401242017745972, -0.08908957242965698, 1.4291551113128662, 0.07868198305368423, -0.03545759990811348, -0.48239460587501526, 0.09905701130628586, 0.552985668182373, -0.05883876979351044, 0.020102383568882942, 0.032359134405851364, -0.01457164529711008, -0.0064077312126755714, -0.026559721678495407, -0.14365729689598083, 0.3963322639465332, 0.0672895759344101, 0.23495054244995117, 0.2666464149951935, 0.013234563171863556, 0.18587088584899902, -0.0009062234894372523, 0.037064388394355774, 0.036827798932790756, 0.025040626525878906, -0.014879847876727581, 0.03643779084086418, -0.26815271377563477, 0.10685131698846817, -0.02760152891278267, -0.01680796779692173, 0.030091265216469765, -0.10136866569519043, 0.11426050961017609, -0.06777403503656387, 0.05649685487151146, 0.04283585771918297, 0.006038860883563757, 0.1085689514875412, -0.8486729860305786, -0.028790518641471863, -0.20768636465072632, -0.17975002527236938, 0.01862078160047531, -0.08881744742393494, -0.4411048889160156, -0.08480150997638702, 0.10518903285264969, -0.04015783965587616, 0.2028169184923172, 0.62767094373703, -0.30817610025405884, -0.021383054554462433, -0.7185268998146057, -0.4783880412578583, 0.017990561202168465, -0.04251592233777046, -0.049504354596138, -0.16226793825626373, 0.1498347520828247, 0.14517538249492645, 0.09391885250806808, 0.28728729486465454, 0.11585318297147751, 0.13126543164253235, -0.45656195282936096, -0.8168379664421082, -0.18061837553977966, -0.6278650164604187, 0.33406320214271545, 0.021893156692385674, 0.10091184824705124, 0.021935278549790382, -0.26894626021385193, 0.2080235332250595, -0.14567036926746368, -0.06574495881795883, 0.1538892239332199, -0.020751958712935448, -0.1268073171377182, -0.10969758778810501, 0.01677740551531315, -0.013085929676890373, -0.00024112702521961182, -0.0019294257508590817, -0.010910877957940102, -0.028290217742323875, -0.037803538143634796, -0.022579418495297432, -0.0128929503262043, -0.006291522178798914, -0.014560874551534653, -0.02151995338499546, 0.10040215402841568, 0.008054790087044239, -0.029948685318231583, -0.009344677440822124, 0.0237799771130085, 0.049283482134342194, 0.025342941284179688, -0.018916934728622437, 0.028612585738301277, 0.018999172374606133, -0.02035512402653694, -0.01316479779779911, -0.8839240074157715, 0.01716916263103485, 0.016809767112135887, 0.011060657911002636, 0.023310305550694466, 0.024165991693735123, -0.32904109358787537, 0.10327063500881195, 0.009222826920449734, 0.0027313893660902977, -0.01412282232195139, 0.04465651139616966, -3.062455415725708, 0.06734474003314972, 0.0606389045715332, 0.074436716735363, 0.051414214074611664, 0.09023924171924591, 0.07403252273797989, 0.11440373212099075, 0.034171976149082184, 0.005997112486511469, 0.10988632589578629, -0.1910238415002823, 0.05773322284221649, 0.026878729462623596, 0.039924368262290955, 0.07462509721517563, 0.0675584152340889, 0.01315519493073225, 0.13157275319099426, -0.06220352277159691, 0.12017912417650223, 0.18403911590576172, 0.379780113697052, 0.18609583377838135, -0.06834746897220612, -0.07337243109941483, 0.028049860149621964, -0.055849507451057434, -0.035073038190603256, -0.10277587920427322, -0.02925979346036911, -0.056304141879081726, -0.05218307301402092, -0.08054549992084503, -0.08803579956293106, 0.06226172298192978, 0.07622207701206207, -0.01815083809196949, -0.033356230705976486, -0.03730197995901108, -0.014641223475337029, 0.003375040600076318, 0.10089350491762161, 0.026003848761320114, 0.02075912244617939, 0.06245870888233185, 0.053146760910749435, -0.010598388500511646, -0.08273432403802872, 0.005928243510425091, 0.007824393920600414, -0.01761089451611042, -0.015144236385822296, 0.02305498719215393, -0.005780136212706566, -0.008428588509559631, -0.023320483043789864, -0.010591553524136543, 0.004861228168010712, -0.09719333052635193, -0.6768680214881897, -0.12148216366767883, 0.05914892256259918, 0.029857026413083076, 0.3112352788448334, 0.3233150243759155, 0.03414687514305115, -0.008979741483926773, 0.0013327248161658645, 0.025404203683137894, 0.054882146418094635, 0.03020009770989418, 0.2819209098815918, -0.07244235277175903, 0.026646001264452934, 0.017305150628089905, 0.0273056048899889, 0.1396138221025467, -0.8616415858268738, 0.0970524400472641, 0.1277475506067276, -1.5235106945037842, 0.11214946955442429, -1.6731318235397339, 0.05720766633749008, 0.026268966495990753, -0.009488075971603394, 0.0020748020615428686, -0.006367378402501345, -0.09311218559741974, -0.02878057211637497, 0.0011846302077174187, 0.0349775105714798, -0.002943823579698801, 0.010309970006346703, -0.47741052508354187, -0.0004029560077469796, 7.496556645492092e-05, 0.004190616309642792, -0.0018282656092196703, 0.0058145043440163136, -0.00689904997125268, -0.002448817016556859, 0.0023784225340932608, -0.005193471442908049, -0.005887041799724102, -0.005380487535148859, 0.0015534262638539076, -0.014628925360739231, 0.00782997440546751, -0.0010244689183309674, 0.0026439570356160402, 0.006214093416929245, 0.01111569069325924, 0.01744154281914234, -0.008184275589883327, 0.005210794974118471, 0.0029297934379428625, -0.007091340143233538, -0.006803965661674738, -0.004514171741902828, 0.002040290739387274, 0.004699720069766045, 0.0032469858415424824, 0.0033857712987810373, 0.0011143045267090201, 0.008216921240091324, -0.015556925907731056, -0.02130342647433281, 0.007955571636557579, -0.01591252163052559, 0.05673375725746155, 0.010492738336324692, 0.006204210687428713, -0.0025673210620880127, 0.00034796205000020564, -0.0048150187358260155, 0.007543983403593302, -0.017532069236040115, -0.011970524676144123, 0.0007819721358828247, -0.0007508581620641053, -0.009181111119687557, 0.524674117565155, 0.026763536036014557, 0.017718156799674034, 0.08668259531259537, -1.7632741928100586, 0.12951095402240753, -2.049905300140381, -0.3002243638038635, -0.47249478101730347, -0.5886188745498657, -0.057450514286756516, 0.10218027234077454, -0.7347711324691772, -0.0011944413417950273, 0.0027309292927384377, 0.14449691772460938, 0.05772165209054947, 0.008818899281322956, 0.2611863613128662, -0.0373411700129509, -0.044092923402786255, -0.06412944942712784, -0.047659341245889664, -0.05354062467813492, -0.07610779255628586, 0.0787821114063263, 0.12865933775901794, 0.09258432686328888, 0.06422553211450577, 0.057894326746463776, 0.0784013643860817, -0.017425736412405968, 0.08371482789516449, 0.1203884482383728, 0.10037597268819809, 0.025270750746130943, 0.04495951533317566, 0.10119915008544922, 0.003950927406549454, 0.0026473046746104956, -0.005793989636003971, 0.029477586969733238, 0.015555587597191334, 0.0521366260945797, -0.005017182324081659, -0.06880935281515121, -0.04346434026956558, -0.004189986735582352, -0.0264249537140131, -0.025147542357444763, 0.10090261697769165, -0.008269157260656357, -0.059845443814992905, -0.01144858542829752, 0.039421841502189636, -0.09041757881641388, -0.02056438848376274, 0.024569513276219368, 0.013701383024454117, 0.006085672881454229, 0.043588876724243164, 0.6297210454940796, 0.5896822810173035, 0.11515157669782639, 0.07280244678258896, 0.22801129519939423, 0.06812416017055511, 0.3194654583930969, 0.10739924013614655, 0.18645799160003662, 0.07772311568260193, -0.08442472666501999, -0.016801107674837112, -1.9385812282562256, -0.2431575506925583, -1.6921169757843018, -0.16149887442588806, 0.029830176383256912, 0.04677354916930199, -0.02726505696773529, -0.004421045072376728, 0.012551998719573021, 0.0043120840564370155, 0.33157211542129517, 0.22630713880062103, -0.005106749944388866, -0.04297413304448128, -0.005994904320687056, -0.013605593703687191, 0.0015044299652799964, -0.024893544614315033, 0.09821797162294388, 0.07550301402807236, 0.07901545614004135, 0.010691769421100616, 0.049072522670030594, -0.16055677831172943, -0.02425049990415573, 0.05848336219787598, 0.0009994420688599348, -0.009772316552698612, -0.002953385468572378, -0.026862775906920433, -0.008911767974495888, -0.06529774516820908, -0.008064134046435356, 0.035148050636053085, -0.031033093109726906, 0.13743384182453156, -0.05719185248017311, -0.04050843045115471, -0.05015168339014053, -0.04209766536951065, -0.05894974246621132, -0.03318582475185394, -0.0058226860128343105, 0.031168144196271896, 0.013800530694425106, -0.01421157456934452, 0.33450639247894287, -0.019089506939053535, 0.005105821415781975, -0.01918867975473404, -0.012645645998418331, -0.028071561828255653, 0.0181434266269207, 0.004568943753838539, 0.16117551922798157, 0.033380575478076935, -0.05590268597006798, 0.010869142599403858, 0.23548203706741333, 0.07150339335203171, -0.7701064348220825, -0.11905772238969803, 0.39483264088630676, 0.2213330715894699, 0.10889634490013123, -0.09094652533531189, -0.20524053275585175, -0.11461153626441956, 0.09072171151638031, 0.1373552531003952, 0.08413366973400116, 0.05126025155186653, 0.15801037847995758, -0.045362748205661774, -0.09568661451339722, -0.02997514046728611, 0.3652259111404419, -0.5113901495933533, -0.00831257551908493, 0.45306193828582764, 0.7589131593704224, -0.18580546975135803, -0.11951229721307755, 0.334559828042984, -0.07562605291604996, 0.135749951004982, 0.23927398025989532, -0.459649920463562, -0.3385128378868103, 0.16853249073028564, 0.1579355150461197, -0.1704055219888687, -0.36882656812667847, 0.3123299181461334, 0.1807977706193924, -0.04653555527329445, -0.05517566204071045, -0.050312675535678864, -0.0336729995906353, 0.01262257993221283, -0.01783411204814911, -0.045995958149433136, -0.013341798447072506, -0.14162404835224152, -0.42175862193107605, 0.07015518099069595, 0.03882988169789314, -0.12754277884960175, -0.01966250315308571, 0.1246873289346695, -0.1346706598997116, -0.11872397363185883, 0.042170532047748566, 0.6796970367431641, 0.04559732601046562, -0.09091393649578094, -1.3551452159881592, 0.1576739102602005, 0.07336041331291199, -0.3243168294429779, -0.035090744495391846, 0.09888488054275513, 0.02721327356994152, 0.0357464924454689, -0.015589631162583828, 0.18804843723773956, 0.07216213643550873, 0.09933197498321533, 0.18509900569915771, -0.0959300622344017, -0.15547321736812592, -0.28771868348121643, -0.4736529290676117, -0.003840775229036808, -0.03428875282406807, 0.012039204128086567, -0.051289692521095276, 0.04054888337850571, 0.016050776466727257, 0.008308188058435917, -0.021842582151293755, -0.05016258731484413, -0.007229143753647804, -0.18542274832725525, 0.006810534279793501, 0.05290737748146057, 0.7747160196304321, -0.033529140055179596, -0.011442713439464569, -0.05289819464087486, -0.006261821836233139, -0.04383642598986626, 0.13832715153694153, -0.1189371794462204, -0.01638798788189888, -0.06263795495033264, -0.01691371016204357, -0.0013806428760290146, -0.09270523488521576, 0.02113514579832554, -0.0023570088669657707, -0.020901527255773544, -0.0062932660803198814, -0.013444125652313232, 0.009137294255197048, -0.01766158454120159, -0.014107518829405308, 0.009912589564919472, -0.007090423721820116, 0.4386161267757416, 3.732023239135742, 0.05259837210178375, 0.2905674874782562, 0.058464180678129196, -0.015362975187599659, -0.08694212138652802, 0.29638370871543884, -0.02527504228055477, -0.17060106992721558, 0.11361531168222427, 0.002388597233220935, 0.0013624320272356272, -0.1740892082452774, 0.028586823493242264, 0.04722165688872337, 0.03724077716469765, 0.0009029106004163623, -0.004531468264758587, -0.004746066872030497, 0.011044235900044441, -0.019818462431430817, 0.20313619077205658, 0.007671699859201908, 0.02216150052845478, -0.0051039112731814384, 0.03998761251568794, 0.01566595770418644, -0.007511492818593979, 0.10922519862651825, -0.0523497499525547, -0.013966635800898075, -0.0022373637184500694, -0.4716578423976898, -0.14397187530994415, -0.0018519271397963166, -0.007773593999445438, -0.0039460803382098675, -0.007999778725206852, 0.10421843081712723, -0.14767897129058838, -0.26778778433799744, 0.22372134029865265, 0.13523714244365692, 0.11227009445428848, 0.14023363590240479, 0.12893876433372498, 0.02621050737798214, -0.010934961959719658, 0.048574525862932205, 0.08071853220462799, 0.06414400786161423, 0.04516123607754707, 0.22018346190452576, -0.0371784009039402, -0.013678650371730328, -0.031912922859191895, -0.0003033729735761881, -0.04019424319267273, -0.11370786279439926, 0.03552732244133949, 0.01835738494992256, 0.02816416509449482, 0.0019677800592035055, 0.05881505459547043, -0.7886435389518738, -0.2127046287059784, -0.032485298812389374, -0.07534877210855484, -0.053940482437610626, -0.07258781790733337, -0.0225991141051054, -0.2101256549358368, -0.08919870853424072, -0.01660207100212574, -0.025604045018553734, 0.11408083885908127, 0.2744792401790619, -0.048510026186704636, -0.004083628766238689, -0.0631217435002327, -0.026210693642497063, -0.028229475021362305, 0.04995222017168999, 0.006285368464887142, 0.04015475884079933, 0.03424660488963127, -0.0013951970031484962, 0.02611575461924076, 0.09128784388303757, 0.02016233280301094, 0.10214071720838547, -1.3740026950836182, -0.02512725628912449, -1.243173360824585, -0.030643967911601067, -0.06514109671115875, -0.1506141573190689, 0.0020371698774397373, -0.38096871972084045, 0.3461913466453552, -0.05553228780627251, -0.3756134510040283, 0.05105608329176903, -0.010187853127717972, -0.8456947207450867, -0.08273907005786896, -0.00457135820761323, -0.010162219405174255, -0.018500326201319695, 0.00012045173207297921, -0.04323331639170647, -0.07277125865221024, 0.07787644863128662, 0.13476160168647766, 0.14346246421337128, 0.08180677145719528, -0.016018759459257126, -0.0777931958436966, 0.08595176041126251, -0.11363255977630615, -0.227872833609581, -0.09200733155012131, 0.12723904848098755, 0.1700257658958435, 0.005966154858469963, 0.03696858137845993, -0.007884401828050613, -0.014045944437384605, 0.050837382674217224, 0.050461724400520325, -0.017521658912301064, 0.03680682182312012, 0.06262355297803879, 0.04964990168809891, 0.01649741269648075, -0.039243075996637344, -1.5241385698318481, -1.175702691078186, -1.205459475517273, -0.7270891070365906, -0.2224906086921692, 0.35932615399360657, -0.0007296897238120437, 0.030481437221169472, 0.03272714465856552, 0.025815973058342934, 0.0006716707721352577, 0.05233195424079895, 0.11847932636737823, 0.09294754266738892, 0.03306260704994202, 0.04390424117445946, 0.09719708561897278, 0.26234936714172363, 0.04068278893828392, 0.1010318323969841, 0.06630143523216248, -0.06768570095300674, -0.08195598423480988, 0.09599702060222626, -2.390483856201172, 0.0014662665780633688, -0.17187829315662384, -0.059876758605241776, 0.06583993136882782, -0.23562492430210114, -0.026583895087242126, 0.0117484200745821, 0.021961277350783348, 0.05584508925676346, 0.0829809308052063, -0.31679555773735046, -0.007764480076730251, -0.03428258001804352, -0.01890483684837818, -0.030285310000181198, -0.028483442962169647, -0.0784643217921257, 0.33191561698913574, 0.3636525869369507, -0.4741602838039398, -0.45130401849746704, -0.3145905137062073, -0.14100375771522522, -0.03771091252565384, -0.08256002515554428, 0.0438714325428009, 0.05923862382769585, 0.058220915496349335, -0.004538584500551224, -0.0012159181060269475, -0.017356252297759056, 0.0005536660319194198, 0.005727473180741072, 0.0017301436746492982, 0.04737844690680504, 0.00666048051789403, 0.0029133390635252, 0.052255675196647644, 0.08138207346200943, 0.05385034158825874, -0.04741461202502251, 0.0122526241466403, -0.034774914383888245, 0.1430128663778305, 0.03576304018497467, -0.0017407976556569338, 0.405337393283844, 8.509762119501829e-05, 0.025666411966085434, 0.0013060527853667736, 0.01817777380347252, 0.040225330740213394, 0.07792056351900101, -0.027890130877494812, -0.027350571006536484, 0.022805575281381607, 0.055583879351615906, 0.16983303427696228, 0.23563973605632782, 0.00604805164039135, 0.0035725259222090244, 0.02754896692931652, 0.013540545478463173, 0.016153952106833458, 0.18932534754276276, -0.034753140062093735, -0.12115970999002457, 0.02151920273900032, 0.01870608702301979, -0.0034725998993963003, 0.030620034784078598, 0.0441073477268219, 0.022548338398337364, -0.05926062539219856, -0.04488547146320343, -0.15818707644939423, -0.024871166795492172, 0.009060516953468323, 0.041840750724077225, 0.044005103409290314, 0.19546307623386383, 0.07945031672716141, 0.344463586807251, 0.03146785497665405, 0.015017300844192505, 0.03931780159473419, -0.029353318735957146, -0.011145377531647682, 0.01619715243577957, 0.07022884488105774, 0.030369367450475693, 0.016431573778390884, 0.05368063598871231, 0.056132156401872635, 0.02446821518242359, -0.06984378397464752, -0.018497753888368607, -0.018901141360402107, 0.006415866781026125, -0.03086330182850361, -0.012173647992312908, -0.7501339912414551, -1.0088520050048828, -1.0694653987884521, 1.4096381664276123, 0.7377527952194214, 2.4142773151397705, 0.47610780596733093, 0.10362082719802856, 0.20364627242088318, -0.24175554513931274, -0.477462500333786, -0.10328655689954758, -0.04216554015874863, 0.0003622421936597675, -0.1132470965385437, 0.04466283693909645, 0.07839018106460571, 0.10991604626178741, 0.02403843216598034, 0.012711812742054462, 0.02325318567454815, 0.029638221487402916, 0.07403948903083801, -0.05395222827792168, 0.05147916078567505, -0.029806803911924362, -0.0324358269572258, 0.06773172318935394, 0.06883308291435242, -0.06530418246984482, -0.03561094030737877, -0.06478054821491241, -0.15056195855140686, -0.027099784463644028, -0.09128109365701675, 0.17086268961429596, 0.10646992176771164, -0.017005205154418945, -0.12661677598953247, 0.006029363721609116, -0.042880233377218246, 0.025117995217442513, 0.008742736652493477, 0.035148993134498596, 0.006862664595246315, -0.014167200773954391, -0.013207828626036644, -0.009935207664966583, -0.06781522929668427, -0.13709624111652374, 0.018964432179927826, -0.011001908220350742, 0.02115185372531414, 0.007740823086351156, 0.06477499008178711, 0.0502256415784359, 0.013894004747271538, 0.011861755512654781, -0.0029620183631777763, 0.01015362236648798, -0.007994482293725014, -0.020134612917900085, 0.001453265780583024, -0.0011497866362333298, 0.003735549747943878, -0.009907135739922523, 0.7004974484443665, 0.27136799693107605, 0.1279735267162323, 0.06485069543123245, 0.03437614440917969, 0.050189144909381866, -0.02341964654624462, 0.02026815339922905, -0.0019097629701718688, -0.05282322317361832, -0.052118200808763504, -0.0040089040994644165, 0.027838654816150665, -0.027856560423970222, -0.006459604948759079, 0.006591056007891893, -0.005438592750579119, 0.013937076553702354, 0.07439134269952774, 0.05461818724870682, 0.007882470265030861, 0.020293548703193665, 1.2488354444503784, -0.0468086302280426, -0.025191497057676315, 0.1064024269580841, 0.13278935849666595, -1.2884480953216553, -0.04547064006328583, -1.2768791913986206, 0.5486193299293518, -0.08252246677875519, 0.005069348029792309, 0.2665654420852661, 0.23708198964595795, -0.4756897985935211, 0.0015029070200398564, -0.04086822643876076, 0.046079911291599274, 0.025267530232667923, -0.31688493490219116, -0.18852940201759338, 0.08532864600419998, 0.07538136839866638, 0.0538364052772522, 0.06474847346544266, 0.03228846192359924, 0.051859013736248016, 0.2427048534154892, -0.033636320382356644, 0.00033471244387328625, -0.030860792845487595, 0.013021178543567657, -0.015360082499682903, 0.2761742174625397, -0.07473734766244888, -0.06578096747398376, -0.04872188717126846, -0.07813132554292679, 0.15961571037769318, 0.09311234951019287, 0.09127459675073624, 0.026324111968278885, 0.033341966569423676, 0.09568727016448975, -0.12081749737262726, 0.19712775945663452, 0.06888817250728607, 0.07770088315010071, 0.06719191372394562, 0.062705397605896, 0.0542413704097271, -0.06505966186523438, -0.10454083234071732, 0.061872389167547226, 0.04161745309829712, -0.030936183407902718, 0.31889089941978455, 0.14358896017074585, -0.03415575623512268, 0.01184496097266674, 0.054811716079711914, 0.02794531360268593, 0.08548180013895035, 0.017511243000626564, -0.00977475568652153, 0.054146215319633484, 0.08553733676671982, -0.7215740084648132, 0.2951855957508087, 0.05315103381872177, -0.8097793459892273, 0.09685717523097992, 0.07130932807922363, 0.009499448351562023, 0.0611552819609642, 0.210529163479805, 0.0015527583891525865, 0.050176750868558884, 0.10780155658721924, 0.15132185816764832, 0.09351072460412979, -0.122769795358181, 0.14106065034866333, -0.023488927632570267, -2.024268865585327, -0.8081671595573425, -0.1126481369137764, -0.005792553536593914, -0.0995904952287674, -0.09841513633728027, -0.039059121161699295, -0.07882201671600342, -0.043381012976169586, -0.1314028650522232, 0.035633448511362076, 0.1397554725408554, 0.0605742484331131, -0.21061047911643982, 0.1400848776102066, 0.11149559915065765, -0.005101052578538656, -0.037221506237983704, -0.0008438951335847378, 0.16984671354293823, 0.23708385229110718, -0.029526805505156517, 0.05982451140880585, 0.03174915909767151, 0.08561735600233078, -0.05547410249710083, -0.12910804152488708, 0.022523894906044006, 0.0073950509540736675, -0.036394067108631134, -0.04976493492722511, -0.05109983682632446, -0.14796090126037598, -0.0014773296425119042, 0.024155346676707268, -0.06130817160010338, -0.11982858180999756, -0.052997175604104996, -0.10015413910150528, -0.0016308630583807826, 0.04788293316960335, 0.07758094370365143, 0.0029379557818174362, -0.1066378802061081, -0.209262415766716, 0.023897698149085045, -0.004581545013934374, 0.005615143571048975, 0.018813004717230797, -0.051034968346357346, 0.21557357907295227, 0.08860772848129272, 0.012202451005578041, -0.032083794474601746, 0.023079877719283104, -0.0392121784389019, 0.01219300739467144, 0.7075290083885193, 0.5444117188453674, -0.16651660203933716, -0.3420833945274353, -0.050260964781045914, 0.04097432270646095, 0.07463344186544418, -0.13209418952465057, -0.1087198331952095, 0.1495465189218521, -0.37841805815696716, -0.726041316986084, 0.0170318391174078, -0.03803248703479767, -0.0631498172879219, -0.06639179587364197, -0.0873381644487381, -0.07099276036024094, 0.02541019581258297, 0.24973143637180328, 0.1128314733505249, -0.030404213815927505, -0.023147590458393097, 0.09660974144935608, -0.06665891408920288, -0.0949936956167221, -0.059170547872781754, -0.03164292871952057, -0.04541673883795738, -0.1355014145374298, -0.3915836215019226, -0.009758212603628635, 0.12147525697946548, 0.1208195611834526, 0.07632417976856232, 0.10696173459291458, 0.1325225830078125, 0.10151674598455429, 0.11379247158765793, 0.08296166360378265, 0.07291515916585922, 0.13589198887348175, 0.02748917043209076, -0.10787650942802429, -0.07183551788330078, -0.07074154168367386, -0.09287466108798981, -0.1350327730178833, -0.02936638705432415, 0.016083214432001114, 0.04799589887261391, 0.031156394630670547, 0.01847769506275654, 0.029028654098510742, 0.1966949701309204, 0.20140546560287476, -0.015422819182276726, -0.19018587470054626, 0.32887887954711914, -0.2878096103668213, -0.05816199257969856, 0.0880536213517189, 0.19351020455360413, 0.027245977893471718, -0.1361246109008789, 0.09621228277683258, 0.08146753907203674, -0.059228625148534775, -0.048792675137519836, -0.02373597025871277, 0.09919847548007965, -0.02115650475025177, -0.11169610917568207, -0.0056166257709264755, 0.11934276670217514, -0.01599249802529812, -0.03835216909646988, -0.34403568506240845, -0.007159040309488773, -0.014953636564314365, -0.024848496541380882, -0.01546195987612009, -0.025209540501236916, -0.01688677817583084, 0.005901213735342026, 0.019083663821220398, 0.018311040475964546, 0.01962597295641899, 0.004655058030039072, 0.011202148161828518, 0.08016616106033325, 0.011465117335319519, -4.8814035835675895e-05, -0.0001144310663221404, 0.01103578507900238, 0.013184372335672379, -0.06614650040864944, -0.0018768672598525882, 0.013697979971766472, 0.013480974361300468, 0.008747311308979988, 0.011795742437243462, -0.0006839417037554085, -0.010449085384607315, -0.007891182787716389, -0.006499900948256254, -0.01576269418001175, -0.013108590617775917, -0.4635086953639984, 0.09191016852855682, 0.0303995069116354, 0.09846457839012146, 0.02088717371225357, 0.20996317267417908, 0.013600943610072136, 0.009611021727323532, 0.001119461259804666, 0.007325666956603527, 0.003818499855697155, 0.026731086894869804, 0.02865922637283802, 0.08241061866283417, 0.004400776699185371, 0.005903690122067928, -0.0069842892698943615, 0.36456021666526794, 0.04058331251144409, -0.0033974735997617245, -0.521429181098938, -1.639752984046936, 0.038067229092121124, -2.0008206367492676, -1.4007747173309326, -0.10161826759576797, -0.09460704028606415, -0.08993107825517654, -0.10928788781166077, -0.12272433936595917, -0.11125095188617706, -0.014459065161645412, 0.12232983112335205, -0.020164132118225098, -0.337847501039505, -0.40767523646354675, 0.4029626250267029, -0.08111626654863358, -0.024590693414211273, -0.04122932255268097, -0.024947870522737503, -0.037680577486753464, 0.3717544972896576, 0.17857012152671814, 0.20042988657951355, 0.14788319170475006, 0.17057742178440094, 0.1350693702697754, -0.9146023392677307, -0.0008270058315247297, 0.011038625612854958, 0.04464840888977051, 0.08784396201372147, 0.1365014612674713, -0.5683977603912354, 0.01023195218294859, 0.008227039128541946, -0.0032803306821733713, -0.009302892722189426, -0.026538025587797165, -1.253798007965088, -0.09102807193994522, -0.09318862855434418, 0.005886116996407509, 0.007997777312994003, 0.02760947123169899, -0.13513192534446716, -0.06727547943592072, -0.2521686553955078, -0.06874630600214005, -0.019979257136583328, 0.20384922623634338, -0.22215653955936432, -0.2313413918018341, -0.3326411843299866, -0.02853056788444519, 0.020675303414463997, 0.09277278929948807, -0.12893573939800262, 0.1093476340174675, -0.001866461825557053, 0.09891083091497421, 0.1723119020462036, 0.11205977201461792, 0.14002682268619537, 0.0381348580121994, 0.10397359728813171, -0.04063659533858299, 0.039056479930877686, 0.09827583283185959, 0.4382920265197754, 0.11087258160114288, -0.12258005142211914, -0.03269573301076889, -0.47360795736312866, -0.034154921770095825, -0.09419688582420349, 0.005704833660274744, 0.09495730698108673, -0.006060873158276081, -0.04014241695404053, -0.32856041193008423, -0.31666100025177, 0.008508091792464256, -0.0028201306704431772, -0.01474866084754467, 0.19671714305877686, -0.003410231089219451, 