{
  "layers": [
    {
      "activation": "rectified",
      "bias": [
        0.5460761189460754,
        0.07926977425813675,
        0.33323344588279724,
        0.47216343879699707,
        0.2772333025932312,
        0.47836965322494507,
        -0.3304171860218048,
        0.6749206781387329,
        0.6120433807373047,
        0.12945502996444702,
        -0.562593936920166,
        0.4143391251564026,
        0.36285027861595154,
        -0.16039539873600006,
        0.2914460301399231,
        -0.31021830439567566,
        0.3360537588596344,
        -0.05091305077075958,
        0.08127184212207794,
        0.1651456207036972,
        0.5987730622291565,
        0.4410415291786194,
        0.48467743396759033,
        -0.19173641502857208,
        0.1303047388792038,
        0.3381401598453522,
        -0.1028108298778534,
        0.8730770945549011,
        0.06631068140268326,
        0.05683215335011482,
        -0.04281970486044884,
        -0.2167162448167801,
        -0.2475997656583786,
        1.001116394996643,
        -0.09692398458719254,
        0.1417895406484604,
        0.3943699896335602,
        0.1009092926979065,
        0.09510461986064911,
        0.04705289378762245,
        -0.8503691554069519,
        0.2592003643512726,
        0.4000418186187744,
        0.046178530901670456,
        0.08827478438615799,
        0.0034328598994761705,
        0.584380030632019,
        -0.43516266345977783,
        0.5400659441947937,
        0.19248804450035095,
        0.03549792245030403,
        0.222830668091774,
        0.6429103016853333,
        0.5125832557678223,
        -0.09942213445901871,
        0.018810003995895386,
        0.5193039178848267,
        0.34473899006843567,
        -0.10569968074560165,
        0.11037653684616089,
        0.2682076692581177,
        0.17661280930042267,
        0.12052831053733826,
        0.007700036279857159,
        0.05109903961420059,
        0.7227233052253723,
        0.3917456567287445,
        0.14291557669639587,
        -0.20737706124782562,
        -0.3964223861694336,
        0.26383769512176514,
        0.4930158853530884,
        -0.12789388000965118,
        0.7457846999168396,
        0.40839117765426636,
        0.233634352684021,
        0.06444167345762253,
        0.06843414157629013,
        0.5749068260192871,
        0.2119358628988266,
        -0.08709511160850525,
        0.0925421342253685,
        0.13310804963111877,
        0.26989689469337463,
        0.06973227113485336,
        0.16945351660251617,
        -0.46439215540885925,
        -0.04271593317389488,
        -0.024648606777191162,
        -0.4525824189186096,
        0.31077444553375244,
        0.8641971349716187,
        -0.6636114716529846,
        -0.018864542245864868,
        0.6717650890350342,
        0.7120974063873291,
        0.17044112086296082,
        0.42252564430236816,
        -0.09765321016311646,
        0.10111718624830246
      ],
      "weights": [
        -0.0009786742739379406,
        0.12644995748996735,
        -0.018922872841358185,
        -0.02892763912677765,
        -0.047376275062561035,
        -0.12886294722557068,
        -0.06501523405313492,
        0.028890550136566162,
        0.0014409307623282075,
        -0.07267948240041733,
        -0.02104591578245163,
        0.011844811961054802,
        0.031207045540213585,
        -0.019443564116954803,
        0.19013719260692596,
        0.050908997654914856,
        0.020141420885920525,
        0.024034995585680008,
        -0.9705696702003479,
        -0.017176080495119095,
        -0.13051603734493256,
        0.06661121547222137,
        0.1536715030670166,
        0.10310668498277664,
        0.039541855454444885,
        -0.9094895720481873,
        0.1064242348074913,
        -0.013479277491569519,
        -0.005020944867283106,
        -0.5166702270507812,
        -0.13482901453971863,
        -0.04414130002260208,
        0.04418320581316948,
        0.015387282706797123,
        0.00215382082387805,
        -0.009242461994290352,
        0.06699324399232864,
        -0.20291021466255188,
        -0.09528464078903198,
        -0.026150718331336975,
        0.09515482187271118,
        -0.0592595674097538,
        0.08547242730855942,
        0.03377912566065788,
        -0.05796108767390251,
        0.20871606469154358,
        0.057255394756793976,
        0.012543026357889175,
        0.15427592396736145,
        -0.5344777703285217,
        -0.15633386373519897,
        -0.09109523892402649,
        0.044678762555122375,
        0.04125889390707016,
        0.028258558362722397,
        -0.0036261023487895727,
        0.06913766264915466,
        -0.019495543092489243,
        -0.0034364406019449234,
        -0.011800860054790974,
        -0.01788959465920925,
        0.004169475752860308,
        -0.0440361425280571,
        -0.022018807008862495,
        0.07285263389348984,
        0.02928118407726288,
        0.030265044420957565,
        0.03976326435804367,
        0.0025245354045182467,
        -0.02843397483229637,
        0.024815985932946205,
        0.11145824939012527,
        -0.06006312370300293,
        0.45356181263923645,
        -0.01442690473049879,
        -0.013413427397608757,
        -0.02877102978527546,
        0.05001387000083923,
        -0.04797421395778656,
        0.12935614585876465,
        0.14297354221343994,
        -0.0063118403777480125,
        -0.08331772685050964,
        -0.042630214244127274,
        0.4871600866317749,
        0.545092761516571,
        0.2955215573310852,
        0.2940097451210022,
        -1.7595471143722534,
        -0.037703510373830795,
        -0.2080652415752411,
        0.1253911703824997,
        0.020093854516744614,
        -0.0015700337244197726,
        0.209140345454216,
        0.02058224193751812,
        -0.052997931838035583,
        -0.07647517323493958,
        0.001764829969033599,
        0.19400142133235931,
        0.01265836413949728,
        -0.005351854953914881,
        0.1497819423675537,
        0.025471385568380356,
        0.025774342939257622,
        0.006867199670523405,
        0.21688179671764374,
        0.10290078818798065,
        0.05967000126838684,
        0.09642326086759567,
        -0.06628353893756866,
        0.038560669869184494,
        0.014918169938027859,
        -0.038981590420007706,
        -0.08619391918182373,
        -0.01684756390750408,
        -0.05852902680635452,
        -0.05814368650317192,
        -0.017689112573862076,
        0.04301810264587402,
        0.01612335816025734,
        -0.0060836076736450195,
        0.19217395782470703,
        0.09167197346687317,
        0.07853821665048599,
        0.07809503376483917,
        -0.09647378325462341,
        -0.16239069402217865,
        0.03729713708162308,
        0.010229082778096199,
        -0.014096084982156754,
        -0.014810691587626934,
        0.09160672873258591,
        0.01784525252878666,
        0.020598821341991425,
        0.024204052984714508,
        -0.19156977534294128,
        -0.04084120690822601,
        -0.0031558757182210684,
        -0.0024157159496098757,
        0.06001866236329079,
        0.10364390164613724,
        -0.4759920835494995,
        0.5339080691337585,
        0.012251734733581543,
        0.0019004064379259944,
        -0.04246675595641136,
        -0.11337733268737793,
        -0.12759150564670563,
        -0.021771471947431564,
        0.0005047491868026555,
        0.16544392704963684,
        0.03755781054496765,
        -0.089140884578228,
        0.04730438441038132,
        0.08644865453243256,
        0.014654160477221012,
        0.06040249019861221,
        0.24154651165008545,
        0.013850280083715916,
        -0.0034308924805372953,
        -0.0054758754558861256,
        0.2736283838748932,
        -0.03405815735459328,
        0.1457013487815857,
        -0.15076182782649994,
        -0.0025306795723736286,
        -0.011874664574861526,
        -0.05836781486868858,
        -0.029354916885495186,
        -0.06461635231971741,
        -0.047925662249326706,
        0.19663496315479279,
        -0.02701539173722267,
        -0.026448320597410202,
        -0.029724182561039925,
        0.2903880774974823,
        -0.008694648742675781,
        -0.01987786404788494,
        -0.015990234911441803,
        -0.0756785199046135,
        0.01763196662068367,
        0.02045518159866333,
        -0.01888970658183098,
        -0.24278421700000763,
        -0.04458275064826012,
        -0.016942253336310387,
        0.032390788197517395,
        -1.0983906984329224,
        -0.004063895903527737,
        -0.034984998404979706,
        -0.015583153814077377,
        0.07147668302059174,
        -0.037882719188928604,
        -0.05801117420196533,
        -0.030331231653690338,
        -0.048403773456811905,
        -0.07764898985624313,
        -0.02134377509355545,
        -0.0021147937513887882,
        -0.18329690396785736,
        -0.030739160254597664,
        0.15215162932872772,
        -0.12623602151870728,
        -0.049965448677539825,
        0.08619366586208344,
        -0.1822487711906433,
        -0.032854847609996796,
        0.0045827822759747505,
        -0.026221979409456253,
        -0.0005413342732936144,
        -0.009329663589596748,
        -0.031696878373622894,
        0.17104706168174744,
        0.03892475739121437,
        0.01845419406890869,
        0.07146866619586945,
        0.1356213539838791,
        0.01243151817470789,
        -0.0009874990209937096,
        -0.0037281045224517584,
        0.1200101226568222,
        -0.004680156707763672,
        0.10066267848014832,
        0.017101990059018135,
        0.26036933064460754,
        -1.2892694473266602,
        0.0607786700129509,
        0.42986905574798584,
        0.1342848837375641,
        -0.01976100355386734,
        -0.05552227050065994,
        0.005870910827070475,
        0.058722227811813354,
        -0.019932277500629425,
        -0.042568035423755646,
        -0.056644003838300705,
        -0.113922119140625,
        0.2133822739124298,
        0.02077246829867363,
        -0.004004043526947498,
        -0.006042310036718845,
        0.009863507933914661,
        -0.005162451881915331,
        0.01295270211994648,
        0.008888819254934788,
        -0.19553519785404205,
        -0.05028362199664116,
        -0.04509696364402771,
        -0.00986838061362505,
        0.0020118134561926126,
        -0.03038632683455944,
        -0.003399346023797989,
        -0.021038001403212547,
        -0.07640467584133148,
        0.05261235684156418,
        0.031132226809859276,
        0.055976007133722305,
        0.04726962745189667,
        0.0275249145925045,
        0.017415622249245644,
        0.009354937821626663,
        0.000751210143789649,
        -0.02423262968659401,
        -0.06439733505249023,
        -0.004834283143281937,
        -0.0655764564871788,
        -0.16748876869678497,
        -0.03029632940888405,
        0.012595640495419502,
        -0.0019226714503020048,
        0.012570223771035671,
        0.014470632188022137,
        -0.036448121070861816,
        0.010037733241915703,
        0.031194742769002914,
        -0.13480351865291595,
        0.053222235292196274,
        0.008629875257611275,
        0.036071617156267166,
        0.102106012403965,
        -0.30477175116539,
        0.09445831179618835,
        -0.11225759983062744,
        0.08021443337202072,
        0.16911152005195618,
        0.017438987269997597,
        0.2807655930519104,
        -0.03881799429655075,
        0.04201536625623703,
        -0.10637548565864563,
        0.24489864706993103,
        0.0520661436021328,
        0.6734923124313354,
        0.10775317251682281,
        0.24141152203083038,
        0.193574920296669,
        0.26496756076812744,
        -0.8048341870307922,
        0.03101459890604019,
        -0.6773617267608643,
        0.2549075186252594,
        0.08433102071285248,
        0.3451164662837982,
        0.03416096419095993,
        -0.18274079263210297,
        -0.08076769858598709,
        -0.016002453863620758,
        0.18731918931007385,
        0.07774098962545395,
        0.013638662174344063,
        0.05330388993024826,
        0.01280567143112421,
        0.045340605080127716,
        0.045699603855609894,
        0.030257130041718483,
        -0.006896400358527899,
        -0.009333672933280468,
        0.018239282071590424,
        -0.0077368575148284435,
        -0.09908425807952881,
        -0.055395033210515976,
        -0.0711931437253952,
        -0.05128967761993408,
        0.0718928650021553,
        0.10372589528560638,
        0.09067606180906296,
        0.022588495165109634,
        0.0018157997401431203,
        0.036554936319589615,
        -0.04247647523880005,
        -0.041595861315727234,
        -0.008661906234920025,
        0.054746732115745544,
        -0.016487708315253258,
        -0.01197454147040844,
        -0.07162640243768692,
        0.06141641363501549,
        0.07198072969913483,
        0.09540912508964539,
        -0.030017195269465446,
        0.02423110045492649,
        -0.013212105259299278,
        -0.04306655749678612,
        -0.10102507472038269,
        -0.010401707142591476,
        0.03919018805027008,
        -0.0013696126407012343,
        0.0020357517059892416,
        0.04285320267081261,
        -0.015894731506705284,
        0.012456346303224564,
        0.028016041964292526,
        -0.09462663531303406,
        0.012442086823284626,
        0.03400355949997902,
        0.22359788417816162,
        0.1042570024728775,
        0.20099228620529175,
        -0.08226148784160614,
        -0.1687203347682953,
        0.15842272341251373,
        0.20954179763793945,
        0.033093854784965515,
        -0.0674118772149086,
        -0.010126005858182907,
        -0.02164582349359989,
        -0.16108006238937378,
        -0.06380719691514969,
        -0.14809022843837738,
        -0.21301095187664032,
        0.12403545528650284,
        -0.056562639772892,
        0.003925826400518417,
        -0.0655389204621315,
        0.22137010097503662,
        0.06993257999420166,
        0.009639794938266277,
        0.07463840395212173,
        0.34407827258110046,
        0.11230383068323135,
        -0.026334350928664207,
        -0.4018115699291229,
        -0.2512679994106293,
        -0.16973541676998138,
        -0.0746522918343544,
        -0.06322069466114044,
        0.13200253248214722,
        0.2147725373506546,
        0.016498345881700516,
        -0.00048647652147337794,
        0.09234803169965744,
        0.07760752737522125,
        0.0673443004488945,
        -0.026298271492123604,
        -0.1542537957429886,
        -0.12635302543640137,
        0.03707606717944145,
        -0.014445848762989044,
        -0.020646320655941963,
        0.013153151609003544,
        -0.13870641589164734,
        0.15442495048046112,
        0.09424670040607452,
        -0.0435921773314476,
        -0.12104015797376633,
        0.13447372615337372,
        0.08357739448547363,
        -0.09178173542022705,
        -0.010580481961369514,
        -0.12204667925834656,
        -0.05079314857721329,
        -0.1209908053278923,
        0.019476916640996933,
        -0.15784375369548798,
        -0.061823610216379166,
        0.020264538004994392,
        -0.07118406146764755,
        -0.0052920677699148655,
        -0.04554304480552673,
        0.0012818261748179793,
        -0.1663873940706253,
        0.11691794544458389,
        -0.23787687718868256,
        -0.018536649644374847,
        0.09884560108184814,
        -0.004648009315133095,
        -0.07017835974693298,
        -0.14029209315776825,
        -0.003981740213930607,
        -0.024348672479391098,
        0.1865832656621933,
        0.009638972580432892,
        -0.026297930628061295,
        -0.05567767471075058,
        0.049349695444107056,
        0.03086472675204277,
        0.01265015359967947,
        -0.055846378207206726,
        -0.0550222210586071,
        -0.03868955373764038,
        0.1129658967256546,
        -0.008427937515079975,
        -0.07646558433771133,
        -0.0066448417492210865,
        -0.04273822531104088,
        -0.031440965831279755,
        -0.02786886878311634,
        -0.012061514891684055,
        0.03673400357365608,
        0.029919952154159546,
        -0.025094006210565567,
        0.8674912452697754,
        -0.026081902906298637,
        -0.01303708553314209,
        -0.007401981391012669,
        -0.6300829648971558,
        -0.05696128308773041,
        -0.03273063898086548,
        -0.04416409879922867,
        -0.4862605929374695,
        0.04203737899661064,
        0.06967683136463165,
        0.06486289948225021,
        0.06641688197851181,
        -0.03592421114444733,
        -0.0096204224973917,
        0.0090112229809165,
        0.1016145870089531,
        -0.023127658292651176,
        0.006390082649886608,
        0.012780295684933662,
        -0.0009674839093349874,
        0.024005498737096786,
        0.03844483196735382,
        0.04480651393532753,
        -0.012317580170929432,
        -0.047080617398023605,
        0.005234723445028067,
        0.08802146464586258,
        0.25164687633514404,
        -0.0342678539454937,
        0.11533216387033463,
        -0.02673228085041046,
        -0.030292456969618797,
        0.07670363783836365,
        -0.01674177125096321,
        -0.007431786507368088,
        -0.0020772982388734818,
        0.03435136377811432,
        0.08582399040460587,
        -0.029929623007774353,
        0.3678463101387024,
        0.2596522867679596,
        -0.17354628443717957,
        0.024430185556411743,
        -0.12001249939203262,
        -0.042990632355213165,
        0.08355911821126938,
        -0.007091233041137457,
        0.015327025204896927,
        -0.17728932201862335,
        -0.0038626655004918575,
        0.252330482006073,
        -0.2517947256565094,
        -0.0037222281098365784,
        -0.05323059856891632,
        -0.1041087806224823,
        0.11641206592321396,
        0.24823994934558868,
        -0.23470060527324677,
        -0.0839136615395546,
        0.1948183923959732,
        0.07738225162029266,
        0.09273268282413483,
        0.1259119063615799,
        0.046724189072847366,
        0.08774074912071228,
        -0.04177102819085121,
        0.4189324975013733,
        -0.06406497210264206,
        -0.016621660441160202,
        -0.05689125508069992,
        0.08996003121137619,
        0.06918840855360031,
        0.048782430589199066,
        0.13334596157073975,
        0.11139579862356186,
        -0.001457248697988689,
        -0.04378890246152878,
        -0.08144966512918472,
        -0.026480339467525482,
        0.060582950711250305,
        -0.0356745645403862,
        0.004895767662674189,
        0.10986413061618805,
        0.04151559993624687,
        0.00023798759502824396,
        -0.1243475005030632,
        -0.23012739419937134,
        -0.05879123508930206,
        0.07535118609666824,
        -0.12960587441921234,
        -0.04497070237994194,
        -0.08242938667535782,
        -0.020118845626711845,
        0.020235372707247734,
        -0.22426851093769073,
        0.051852162927389145,
        0.06872717291116714,
        0.2611382305622101,
        0.03322500362992287,
        -0.16691558063030243,
        0.019190996885299683,
        -0.023091714829206467,
        -0.1450406163930893,
        0.21221111714839935,
        -0.1476869136095047,
        0.005201423540711403,
        0.08516602963209152,
        -0.3091585040092468,
        0.056143902242183685,
        0.5526849031448364,
        0.8898911476135254,
        0.06721476465463638,
        -0.06762736290693283,
        0.06930000334978104,
        -0.01691264659166336,
        -0.28488895297050476,
        0.04234875738620758,
        -0.08754566311836243,
        0.13187997043132782,
        0.14954961836338043,
        -0.049431778490543365,
        -0.7181386351585388,
        -0.2610948383808136,
        0.05912089720368385,
        0.0771455466747284,
        0.028823604807257652,
        -0.24634981155395508,
        -0.04006246104836464,
        -0.04000209644436836,
        0.10409065335988998,
        -0.01654750667512417,
        0.07329914718866348,
        -0.0194123275578022,
        0.013380641117691994,
        0.025931335985660553,
        -0.05600155144929886,
        -0.05368917062878609,
        -0.009730646386742592,
        -0.049876805394887924,
        0.02073659747838974,
        0.021362358704209328,
        0.015080624260008335,
        -0.00789773277938366,
        0.10816427320241928,
        0.0023182309232652187,
        -0.04104626178741455,
        -0.02469424158334732,
        -0.07783141732215881,
        -0.06377391517162323,
        -0.04589245095849037,
        1.4983444998506457e-05,
        0.07673272490501404,
        0.010108592920005322,
        0.0180332250893116,
        -0.00745756458491087,
        -0.03454462066292763,
        -0.03736479952931404,
        -0.01670563779771328,
        0.0026908544823527336,
        -0.10394882410764694,
        -0.0214947871863842,
        -0.06163835898041725,
        -0.01778564043343067,
        0.002433277200907469,
        0.05492705851793289,
        -0.04229537025094032,
        0.005722157657146454,
        0.035375334322452545,
        -0.017174364998936653,
        -0.21842046082019806,
        -0.0031411207746714354,
        -0.029467225074768066,
        0.020359838381409645,
        0.20295004546642303,
        0.0030612987466156483,
        -0.0011816730257123709,
        0.032626863569021225,
        -0.04468914866447449,
        -0.11676055192947388,
        -0.06146881729364395,
        0.24522525072097778,
        0.10928484052419662,
        0.06215404346585274,
        -0.243859201669693,
        -0.20203611254692078,
        0.04698869585990906,
        0.31253403425216675,
        0.05694955959916115,
        -0.027192486450076103,
        0.028913894668221474,
        -0.18195335566997528,
        0.19960029423236847,
        -0.1633632481098175,
        -0.45481064915657043,
        -0.20028048753738403,
        -0.14700697362422943,
        -0.1954738050699234,
        -0.008915075100958347,
        0.18366527557373047,
        0.13516665995121002,
        0.041274912655353546,
        0.07245417684316635,
        -0.0016293188091367483,
        -0.0007901478093117476,
        -0.10771191865205765,
        -0.016985176131129265,
        0.058668941259384155,
        -0.02931172586977482,
        -0.05953633040189743,
        -0.030848415568470955,
        -0.17361357808113098,
        -0.1687527894973755,
        -0.16334845125675201,
        0.1680164635181427,
        0.05272349342703819,
        0.1377314180135727,
        0.12455248087644577,
        -0.136190727353096,
        0.05612940713763237,
        0.009001843631267548,
        -0.04136276990175247,
        -0.005440578330308199,
        -0.08981356769800186,
        -0.06993769854307175,
        -0.058288320899009705,
        -0.006985034793615341,
        0.003214709460735321,
        0.018208762630820274,
        0.10000716894865036,
        0.0579223670065403,
        0.07319256663322449,
        0.09274827688932419,
        -0.11163495481014252,
        -0.21811065077781677,
        -0.20571625232696533,
        0.06667977571487427,
        -0.017366956919431686,
        -0.02249608375132084,
        -0.19284075498580933,
        -0.033152222633361816,
        -0.12812837958335876,
        -0.25416624546051025,
        -0.04424529895186424,
        -0.005608965177088976,
        -0.036435630172491074,
        -0.007986527867615223,
        0.06353709846735,
        -1.9354232790647075e-05,
        -0.0020555017981678247,
        0.2022574543952942,
        -0.1900814175605774,
        -0.013077951967716217,
        -0.021698497235774994,
        -0.03850027173757553,
        0.1277655065059662,
        0.0037273059133440256,
        -0.3045753538608551,
        0.0001338025467703119,
        0.09593863785266876,
        0.05729559063911438,
        -0.03468133136630058,
        0.7807209491729736,
        -0.25587907433509827,
        -0.008623773232102394,
        0.05575011298060417,
        0.30320537090301514,
        0.0001775601413100958,
        -1.1741645336151123,
        -0.8521583080291748,
        -0.7244024872779846,
        -1.4453539848327637,
        -0.02397426776587963,
        0.041130535304546356,
        -0.1127517819404602,
        0.020816097036004066,
        0.01383543387055397,
        -0.030794575810432434,
        0.013786988332867622,
        0.0216908510774374,
        -0.004034664947539568,
        -0.0008919422398321331,
        -0.005669123493134975,
        -0.0018962807953357697,
        -0.0016456980956718326,
        0.004597239196300507,
        0.02743104100227356,
        0.022688856348395348,
        0.0016641205875203013,
        -0.032383162528276443,
        -0.0012777714291587472,
        -0.02177225798368454,
        0.011603915132582188,
        -0.01553835067898035,
        -0.012992115691304207,
        0.02114936150610447,
        0.01291297934949398,
        -0.015603492967784405,
        -0.02962157130241394,
        -0.007712972350418568,
        -0.08157389611005783,
        -0.059859082102775574,
        -0.015617381781339645,
        0.057612594217061996,
        -0.04604010656476021,
        -0.05048469826579094,
        -0.014487110078334808,
        0.03847946599125862,
        0.1898346096277237,
        0.0013109351275488734,
        -0.11432267725467682,
        -0.029232695698738098,
        0.004776367451995611,
        0.0016396171413362026,
        0.10802178084850311,
        0.0004876122693531215,
        0.0036449278704822063,
        0.0036228264216333628,
        0.01837742142379284,
        -0.16824109852313995,
        -0.13684596121311188,
        0.09634578227996826,
        -0.03741349279880524,
        -0.16831403970718384,
        -0.0037045010831207037,
        0.07396300882101059,
        0.25481274724006653,
        -0.6853700876235962,
        -0.02734813280403614,
        0.06665407866239548,
        -0.1746615767478943,
        -0.11065918207168579,
        0.3664385974407196,
        0.0792524516582489,
        0.017354125156998634,
        -0.17884379625320435,
        0.17798668146133423,
        -0.17708900570869446,
        0.008428399451076984,
        -0.04040288180112839,
        -0.06393831968307495,
        0.05399783328175545,
        -0.04463794827461243,
        -0.026194578036665916,
        0.04394553229212761,
        -0.07546225935220718,
        0.06622985750436783,
        -0.015639642253518105,
        0.058690816164016724,
        0.11308234184980392,
        -0.049925096333026886,
        -0.05814174935221672,
        -0.0700734481215477,
        -0.07034894078969955,
        -0.3201500177383423,
        -0.1986701637506485,
        -0.2929883301258087,
        -0.12925904989242554,
        -0.02737811580300331,
        -0.003679924877360463,
        -0.0002086726453853771,
        -0.05218791961669922,
        -0.027852294966578484,
        -0.06750582903623581,
        -0.11616180837154388,
        -0.2726368010044098,
        -0.011944505386054516,
        -0.022839846089482307,
        0.13535894453525543,
        0.18435600399971008,
        0.1781415045261383,
        0.08836010098457336,
        0.009904058650135994,
        -0.014018474146723747,
        -0.09609998762607574,
        0.06562265753746033,
        -0.019958391785621643,
        0.018382135778665543,
        -0.4912681579589844,
        -0.01958591863512993,
        -0.2731855809688568,
        -0.19928506016731262,
        -0.19150252640247345,
        0.0010239920811727643,
        0.2712666392326355,
        -0.07955612242221832,
        0.0013891010312363505,
        0.03425407037138939,
        -0.007051676977425814,
        0.06830115616321564,
        0.08170327544212341,
        0.05147165805101395,
        0.03602847829461098,
        -0.011201826855540276,
        0.12843546271324158,
        0.19868604838848114,
        -0.001501212827861309,
        0.11148090660572052,
        0.057262122631073,
        -0.09295403957366943,
        -0.006220895331352949,
        -0.011489728465676308,
        0.31386786699295044,
        -0.4967668652534485,
        0.03945701941847801,
        0.15382663905620575,
        -0.007438393775373697,
        -0.08881793171167374,
        -0.5599802136421204,
        -1.078987717628479,
        -0.4815181791782379,
        -1.204588532447815,
        0.0526602528989315,
        0.017057087272405624,
        0.10405165702104568,
        -0.11993654072284698,
        -0.025652490556240082,
        0.05343448370695114,
        -0.005136000923812389,
        -0.01075914315879345,
        0.04052117094397545,
        0.025414690375328064,
        0.013007554225623608,
        -0.005229099653661251,
        0.02856992930173874,
        -0.03688822686672211,
        -0.06572286039590836,
        -0.029347646981477737,
        -0.04902419447898865,
        -0.006863713264465332,
        -0.007711103186011314,
        0.030680617317557335,
        0.08147089928388596,
        0.05434776842594147,
        0.023286711424589157,
        0.008568658493459225,
        -0.15590015053749084,
        0.01672281324863434,
        0.017180167138576508,
        0.01344187930226326,
        0.11882811039686203,
        0.0933806523680687,
        0.08290811628103256,
        -0.04667315259575844,
        -0.03129636496305466,
        0.03319241851568222,
        -0.002127348678186536,
        -0.010779835283756256,
        -0.2115776538848877,
        -0.00832575373351574,
        -0.025972288101911545,
        -0.02158108912408352,
        0.038716647773981094,
        0.04089746251702309,
        -0.09232600033283234,
        0.03338262811303139,
        0.0019907199312001467,
        0.03516222536563873,
        -0.0026306817308068275,
        -0.4102925956249237,
        0.227694571018219,
        -0.1487634927034378,
        0.023688774555921555,
        0.05263318866491318,
        -0.0022198124788701534,
        -0.09038791060447693,
        -0.14746008813381195,
        0.06185680627822876,
        -0.059021804481744766,
        -0.088787741959095,
        0.03680357336997986,
        0.060494013130664825,
        -0.03274354338645935,
        0.05103807896375656,
        -0.0027783873956650496,
        0.12941598892211914,
        -0.11555936932563782,
        0.008957120589911938,
        0.1812916398048401,
        0.0961638018488884,
        -0.013161337934434414,
        0.019815821200609207,
        -0.03420104831457138,
        0.10251892358064651,
        0.002673913026228547,
        0.01093518640846014,
        -0.013484549708664417,
        -0.001966550713405013,
        0.05281404033303261,
        0.04444902017712593,
        0.1426282823085785,
        0.0051378244534134865,
        -0.0024744519032537937,
        0.0009729289449751377,
        0.06948350369930267,
        0.02617204375565052,
        0.039490994065999985,
        -0.013664369471371174,
        0.33404359221458435,
        -0.028632905334234238,
        -0.03943474218249321,
        0.005603224039077759,
        0.18295298516750336,
        0.003033903893083334,
        -0.045791491866111755,
        -0.002799056936055422,
        -1.3198782205581665,
        -0.046590954065322876,
        -0.025560177862644196,
        -0.04707145318388939,
        -0.04695243760943413,
        0.0452706553041935,
        0.005573679227381945,
        0.002259946195408702,
        0.023169852793216705,
        -0.00456550857052207,
        0.0027188339736312628,
        0.0069059943780303,
        -0.04718859866261482,
        -0.0034904906060546637,
        0.06635608524084091,
        0.05237458273768425,
        -0.02304387092590332,
        -0.06560249626636505,
        -0.053898267447948456,
        -0.004307199269533157,
        -0.004113233182579279,
        -0.018869424238801003,
        0.012267385609447956,
        -0.3855013847351074,
        0.06441913545131683,
        -0.18742738664150238,
        0.04783713072538376,
        0.010376835241913795,
        0.01296576950699091,
        0.17338576912879944,
        0.15263788402080536,
        -0.1301054060459137,
        0.006614782847464085,
        -0.5038878917694092,
        0.14494886994361877,
        0.8217666745185852,
        -0.21938742697238922,
        -0.24595527350902557,
        0.006227801088243723,
        -0.016814734786748886,
        -0.13008439540863037,
        -0.06701982021331787,
        -0.13829922676086426,
        0.05168257653713226,
        -0.06288173794746399,
        -0.034737855195999146,
        0.23187196254730225,
        0.08129771053791046,
        -0.033526912331581116,
        -0.09873393923044205,
        0.26977214217185974,
        0.4751817286014557,
        0.1794908046722412,
        0.08594287931919098,
        -0.04044077917933464,
        0.038403984159231186,
        0.028068969026207924,
        -0.0014349311823025346,
        0.22674977779388428,
        0.016890568658709526,
        -0.01735813543200493,
        0.032580308616161346,
        0.048489753156900406,
        0.044140756130218506,
        -0.0010609261225908995,
        -0.018039105460047722,
        0.12239271402359009,
        -0.09668434411287308,
        -0.0876457542181015,
        -0.020527491346001625,
        0.11791148781776428,
        0.09666493535041809,
        0.11954304575920105,
        0.07453856617212296,
        0.09276650846004486,
        0.022312704473733902,
        0.10451193153858185,
        0.12946133315563202,
        -0.09462397545576096,
        -0.14763231575489044,
        -0.010100064799189568,
        -0.035762686282396317,
        0.016730180010199547,
        -0.011625368148088455,
        -0.059876229614019394,
        0.037959009408950806,
        0.0097060427069664,
        0.026124700903892517,
        0.05773203447461128,
        -0.02871946059167385,
        -0.0003750539617612958,
        0.04692584648728371,
        -0.015352713875472546,
        0.06815045326948166,
        0.14242307841777802,
        -0.0041153449565172195,
        0.0008950736955739558,
        -0.007530746515840292,
        -0.17869670689105988,
        0.12070547044277191,
        -0.024004649370908737,
        0.08726069331169128,
        -0.059755589812994,
        0.00967060960829258,
        0.04084431007504463,
        -0.07321812212467194,
        0.003634374588727951,
        0.05542181432247162,
        -0.021125497296452522,
        -0.17404654622077942,
        -0.008193278685212135,
        0.06829594075679779,
        0.052996233105659485,
        -0.10300150513648987,
        -0.011608817614614964,
        0.09797067195177078,
        -0.005286904517561197,
        0.02726884000003338,
        -0.004411156289279461,
        0.025342807173728943,
        -0.010439790785312653,
        0.024385852739214897,
        -0.2258240431547165,
        -0.1029880940914154,
        -0.008074257522821426,
        0.00796213373541832,
        0.03718150407075882,
        0.03739340975880623,
        0.03279725834727287,
        -0.04234056547284126,
        -0.13515855371952057,
        -0.10481029003858566,
        0.016321895644068718,
        -0.019357547163963318,
        -0.024517249315977097,
        -0.07332326471805573,
        -0.008706158958375454,
        0.04581926390528679,
        0.3062160313129425,
        0.21805095672607422,
        -0.005129375495016575,
        0.008491979911923409,
        -0.11772838979959488,
        -0.05484965071082115,
        -0.010623506270349026,
        0.04391716793179512,
        -0.05588868260383606,
        0.09252497553825378,
        -0.30982205271720886,
        -0.3794442415237427,
        0.031237352639436722,
        0.09393731504678726,
        -0.42996132373809814,
        -0.4313751757144928,
        0.2190771847963333,
        0.43977606296539307,
        0.15176089107990265,
        0.10866372287273407,
        -0.4191691279411316,
        -0.49501994252204895,
        -0.003077699802815914,
        0.14566868543624878,
        0.030086860060691833,
        0.2534548342227936,
        0.009460672736167908,
        -0.4416811168193817,
        -0.0520816445350647,
        0.03937653824687004,
        -0.229214146733284,
        0.051536403596401215,
        0.29370322823524475,
        0.06609828025102615,
        0.09646911919116974,
        -0.020421745255589485,
        0.003919328562915325,
        -0.10653378814458847,
        0.07384811341762543,
        -0.07610927522182465,
        0.023342514410614967,
        0.053582899272441864,
        -0.19176143407821655,
        0.13448773324489594,
        -0.26837024092674255,
        0.2041095793247223,
        0.06979665905237198,
        -0.17086975276470184,
        -1.1292178630828857,
        -0.24475929141044617,
        -0.04750482365489006,
        0.08496878296136856,
        -0.31951430439949036,
        -0.10973503440618515,
        -0.16652251780033112,
        -0.09475585073232651,
        0.14912854135036469,
        0.0132227074354887,
        -0.014743396081030369,
        -0.015973538160324097,
        -0.03497432917356491,
        0.036247119307518005,
        -0.041468068957328796,
        0.056726425886154175,
        0.15958082675933838,
        -0.0008318233303725719,
        0.06343443691730499,
        0.025704098865389824,
        0.09842635691165924,
        -0.027713408693671227,
        0.028471047058701515,
        0.07583379000425339,
        -0.8408593535423279,
        0.10220221430063248,
        -0.04643841087818146,
        -0.04232340306043625,
        0.026239639148116112,
        -0.005228906869888306,
        0.09810732305049896,
        0.031107384711503983,
        0.277026891708374,
        0.02235904149711132,
        -0.07926975190639496,
        -0.11174049228429794,
        -0.2863035202026367,
        -0.042579229921102524,
        -0.041905034333467484,
        0.028660092502832413,
        0.04937756434082985,
        0.03326374292373657,
        -0.08919858932495117,
        0.023025598376989365,
        0.003492492251098156,
        0.0012481269659474492,
        0.0004773599503096193,
        0.15131866931915283,
        0.19106051325798035,
        -0.17690099775791168,
        -0.012357284314930439,
        -0.05112734064459801,
        0.025289148092269897,
        -0.012729344889521599,
        0.24078117311000824,
        0.42607516050338745,
        0.547802209854126,
        0.09541064500808716,
        0.4750560522079468,
        0.08985137194395065,
        0.13306669890880585,
        -0.013083074241876602,
        0.021843094378709793,
        0.008531734347343445,
        -0.6043590307235718,
        -0.07267842441797256,
        0.09863390773534775,
        -0.0062026651576161385,
        -0.02703220024704933,
        -0.34307077527046204,
        -0.05624992400407791,
        0.09314217418432236,
        0.10299324989318848,
        0.005178682040423155,
        0.05762658640742302,
        -0.04010925441980362,
        0.03076067566871643,
        -0.05606420338153839,
        0.00901089422404766,
        -0.032628804445266724,
        -0.033196963369846344,
        0.0002955690724775195,
        -0.09955358505249023,
        -0.09797459095716476,
        -0.02802368625998497,
        -0.0025561791844666004,
        0.06651400029659271,
        0.023862309753894806,
        -0.020133206620812416,
        -0.013704937882721424,
        -0.06938865780830383,
        -0.07488661259412766,
        -0.007951204665005207,
        0.24653171002864838,
        -0.049998365342617035,
        -0.07240252941846848,
        -0.049353454262018204,
        -0.3645270764827728,
        -0.020874693989753723,
        0.030401652678847313,
        0.019012538716197014,
        0.013336948119103909,
        0.0324179045855999,
        -0.09914124011993408,
        -0.04629451781511307,
        -0.012028047814965248,
        0.3139486014842987,
        0.0018477446865290403,
        -0.2251618355512619,
        -0.0606892853975296,
        -0.09003914147615433,
        0.022508813068270683,
        0.15026062726974487,
        0.15054954588413239,
        -0.014469400979578495,
        -0.13111884891986847,
        -0.005650883074849844,
        -0.0009951033862307668,
        -0.09896162152290344,
        0.16220544278621674,
        -0.03900471329689026,
        -0.031001510098576546,
        -0.04366268590092659,
        0.17170263826847076,
        -0.013788198120892048,
        -0.01938239485025406,
        0.04647354036569595,
        -0.029114726930856705,
        -0.04131687805056572,
        0.021049942821264267,
        0.09355002641677856,
        0.01353135984390974,
        0.014140370301902294,
        -0.13345567882061005,
        -0.018095942214131355,
        -0.03239672631025314,
        0.062436457723379135,
        -0.21151497960090637,
        -0.025097273290157318,
        -0.0051452601328492165,
        0.013460136018693447,
        0.050841156393289566,
        0.08708002418279648,
        -0.0034500143956393003,
        0.13788916170597076,
        -0.07132559269666672,
        -0.037361934781074524,
        0.04476898908615112,
        0.7513466477394104,
        -0.5524238348007202,
        -0.38935554027557373,
        0.32274994254112244,
        -0.017772741615772247,
        0.01311840582638979,
        0.09443911164999008,
        -0.08509837090969086,
        0.022188102826476097,
        -0.0028577165212482214,
        -0.030462853610515594,
        -0.021807758137583733,
        -0.042513538151979446,
        0.03247804567217827,
        0.04732470214366913,
        0.0019555676262825727,
        0.08405842632055283,
        -0.0725671648979187,
        -0.07406631857156754,
        0.049675215035676956,
        -0.0012430648785084486,
        -0.01463695801794529,
        0.01812554895877838,
        -0.009241584688425064,
        0.012938788160681725,
        0.15939722955226898,
        -0.010283269919455051,
        -0.02270418033003807,
        0.3889794945716858,
        0.12658970057964325,
        -0.11529922485351562,
        -0.038341354578733444,
        -0.016364043578505516,
        -0.056927621364593506,
        0.10999955981969833,
        0.005885228049010038,
        -0.00045472534839063883,
        0.03869671747088432,
        -0.0217551551759243,
        -0.13227301836013794,
        -0.049646999686956406,
        -0.007897169329226017,
        0.014613261446356773,
        -0.04435163736343384,
        0.1723392754793167,
        0.12946680188179016,
        0.12449248135089874,
        0.23248276114463806,
        -0.11690269410610199,
        0.028990427032113075,
        0.29771339893341064,
        0.5955286622047424,
        0.15424716472625732,
        0.022818753495812416,
        0.29592210054397583,
        -0.0315161794424057,
        0.29269319772720337,
        0.10252732038497925,
        0.14276842772960663,
        -0.095084547996521,
        -0.019146829843521118,
        0.009205847978591919,
        0.393647164106369,
        0.29763415455818176,
        0.15758560597896576,
        0.15347826480865479,
        -0.45885154604911804,
        0.027546970173716545,
        -0.06328276544809341,
        -0.05465128645300865,
        0.02296512760221958,
        -0.003354859771206975,
        0.07212250679731369,
        0.06806422770023346,
        -0.014183307997882366,
        -0.08553539961576462,
        -0.05645212531089783,
        -0.07403038442134857,
        -0.10463369637727737,
        -0.015097229741513729,
        -0.045753948390483856,
        0.05764050409197807,
        -0.025637345388531685,
        0.04792354255914688,
        0.009246286004781723,
        -0.05705644562840462,
        0.1812354028224945,
        0.07836606353521347,
        0.043068818747997284,
        0.11355602741241455,
        -0.14376801252365112,
        -0.1314157396554947,
        -0.08949833363294601,
        -0.12744107842445374,
        -0.019593702629208565,
        -0.08608265221118927,
        -0.03355139121413231,
        -0.019083093851804733,
        -0.06615928560495377,
        0.036034103482961655,
        -0.12830911576747894,
        -0.028294380754232407,
        0.04281282424926758,
        0.021446477621793747,
        0.09349873661994934,
        0.03135184198617935,
        0.004323842469602823,
        0.04800870269536972,
        -0.08142475038766861,
        -0.019920695573091507,
        0.24719297885894775,
        -0.08710557967424393,
        -0.011458361521363258,
        -0.0352901853621006,
        -0.2854551374912262,
        -0.1296757012605667,
        0.08882371336221695,
        -0.33780795335769653,
        0.09210032224655151,
        -0.019481098279356956,
        -0.16794440150260925,
        0.035798586905002594,
        -0.24340428411960602,
        0.1492873579263687,
        0.20756609737873077,
        -0.047781478613615036,
        -0.009810270741581917,
        0.44315704703330994,
        0.07623766362667084,
        -0.002268061740323901,
        -0.18356874585151672,
        -0.034508299082517624,
        -0.014852337539196014,
        0.0837608352303505,
        -0.0576360709965229,
        0.021274181082844734,
        0.15812546014785767,
        0.1527898758649826,
        0.05334379896521568,
        0.05058547109365463,
        -0.25949203968048096,
        -0.26492536067962646,
        -0.23714245855808258,
        -0.24083897471427917,
        -0.20315369963645935,
        -0.19879935681819916,
        -0.11487887054681778,
        -0.09436512738466263,
        -0.012333092279732227,
        -0.03545201197266579,
        -0.01975315250456333,
        0.11813008040189743,
        0.07708516716957092,
        0.07804898172616959,
        0.051719482988119125,
        0.083223856985569,
        0.07764474302530289,
        -0.03421927988529205,
        -0.013760501518845558,
        0.02211265079677105,
        0.0630377009510994,
        0.0557459332048893,
        0.11348579823970795,
        0.1903044879436493,
        0.04081769287586212,
        -0.050930701196193695,
        0.0213201642036438,
        0.047540582716464996,
        -0.16312213242053986,
        -0.11341311782598495,
        -0.11115323752164841,
        -0.07028397917747498,
        -0.07902177423238754,
        0.05525583401322365,
        0.07304776459932327,
        0.03404569998383522,
        -0.000156489695655182,
        0.0030121991876512766,
        0.030748696997761726,
        0.028453771024942398,
        -0.05075395479798317,
        -0.9733655452728271,
        0.0008851037709973752,
        0.037492357194423676,
        0.08307556807994843,
        0.21760423481464386,
        -0.18995095789432526,
        -0.06890784949064255,
        0.06133590266108513,
        0.004506594501435757,
        -0.039735812693834305,
        0.051167115569114685,
        -0.4498184323310852,
        -0.33518916368484497,
        0.3325083255767822,
        -0.03032969869673252,
        -0.007603314705193043,
        0.1605435609817505,
        0.11273682117462158,
        -0.007140330504626036,
        -0.038095660507678986,
        -0.035808395594358444,
        0.0263841412961483,
        -0.07947731018066406,
        0.017949078232049942,
        -0.041497256606817245,
        0.11490530520677567,
        0.11497915536165237,
        -0.03014969453215599,
        -0.004524651449173689,
        -0.0033235386945307255,
        0.003106379183009267,
        -0.015259940177202225,
        -0.02313937619328499,
        0.043472059071063995,
        0.03225245326757431,
        0.017454367130994797,
        0.08129744976758957,
        -0.007135600317269564,
        -0.04578519985079765,
        0.01954587921500206,
        -0.007984122261404991,
        -0.04294080659747124,
        -0.08178310841321945,
        -0.054598595947027206,
        -0.1321246325969696,
        0.033511511981487274,
        0.06970658898353577,
        -0.03419368714094162,
        0.004368346184492111,
        -0.01152923796325922,
        0.023548835888504982,
        -0.08639401942491531,
        -0.11972686648368835,
        0.041940659284591675,
        0.0063471607863903046,
        -0.01113976538181305,
        0.0097269956022501,
        0.05870553478598595,
        -0.006243678275495768,
        0.12781448662281036,
        0.0022857943549752235,
        0.016846420243382454,
        0.05141347274184227,
        -0.12000074982643127,
        -0.2216292917728424,
        0.0005552172078751028,
        0.08939377218484879,
        0.03321125730872154,
        -0.24076643586158752,
        0.046319179236888885,
        0.5508761405944824,
        0.064731165766716,
        0.06415589898824692,
        0.17641495168209076,
        0.3499797582626343,
        -0.21934553980827332,
        0.43969646096229553,
        -0.1728871762752533,
        0.9984480738639832,
        0.04013631492853165,
        1.40590500831604,
        -0.29238441586494446,
        -0.5987878441810608,
        0.02702745608985424,
        0.29807817935943604,
        0.07144557684659958,
        0.21705672144889832,
        0.03981880843639374,
        -0.022394895553588867,
        0.023116588592529297,
        0.19938692450523376,
        0.11438687145709991,
        -0.06979743391275406,
        -0.17038479447364807,
        -0.05880054086446762,
        -0.2716889977455139,
        -0.30893898010253906,
        -0.10422498732805252,
        -0.045517049729824066,
        0.00713025126606226,
        -0.024132652208209038,
        0.017603999003767967,
        -0.000450981839094311,
        0.08281943202018738,
        0.17340584099292755,
        0.08442064374685287,
        0.11991848796606064,
        0.03874298557639122,
        -0.09484317898750305,
        0.003652551444247365,
        0.002189907245337963,
        -0.06554829329252243,
        -0.024028286337852478,
        0.02101542428135872,
        -0.01999867521226406,
        0.03811468929052353,
        0.027292201295495033,
        -0.01824391633272171,
        -0.03631419315934181,
        0.08834435045719147,
        0.2502574026584625,
        0.03816936910152435,
        0.05742235854268074,
        0.019596850499510765,
        -0.1052076444029808,
        -0.04960251227021217,
        -0.0581769123673439,
        0.2114517092704773,
        0.02099168673157692,
        0.3044242262840271,
        0.10955848544836044,
        0.062482140958309174,
        0.011816579848527908,
        -0.3909766674041748,
        -0.018522586673498154,
        0.001922256895340979,
        -0.04520703852176666,
        -0.5863558053970337,
        0.026626834645867348,
        -0.055423203855752945,
        -0.007632989436388016,
        -0.053909044712781906,
        0.046344999223947525,
        -0.058790434151887894,
        0.10581682622432709,
        0.0067637101747095585,
        -0.07177643477916718,
        -0.11871509999036789,
        0.032185472548007965,
        0.06300570070743561,
        0.14960217475891113,
        -0.12853600084781647,
        -0.03609146922826767,
        0.07974231988191605,
        -0.14585347473621368,
        -0.038379304111003876,
        -0.04824500158429146,
        -0.03817060589790344,
        -0.19174914062023163,
        -0.03376389294862747,
        0.23279441893100739,
        0.13904565572738647,
        -0.05412845313549042,
        0.09430752694606781,
        0.0407288558781147,
        0.10290652513504028,
        0.13101688027381897,
        0.17870888113975525,
        -0.0673566684126854,
        0.2748715281486511,
        0.10696115344762802,
        -0.043404802680015564,
        0.015558851882815361,
        -0.09827520698308945,
        -0.05661875009536743,
        0.02115800604224205,
        4.247402830515057e-05,
        -0.03656629100441933,
        0.09136734902858734,
        0.0022514816373586655,
        -0.02216976508498192,
        -0.012258617207407951,
        -0.050188157707452774,
        -0.02143975906074047,
        -0.12671230733394623,
        -0.0331941582262516,
        0.02605402283370495,
        0.08061054348945618,
        0.03595861792564392,
        -0.07647053152322769,
        -0.0155970873311162,
        0.023741677403450012,
        -0.012972948141396046,
        -0.2122008353471756,
        0.22105945646762848,
        -0.018447350710630417,
        0.07176389545202255,
        0.04434511810541153,
        0.023933345451951027,
        0.06894980370998383,
        0.153853639960289,
        0.08535123616456985,
        -0.0815291702747345,
        0.21163304150104523,
        0.11969125270843506,
        -0.09939471632242203,
        -0.11329376697540283,
        -0.01627277582883835,
        -0.081314817070961,
        0.34738340973854065,
        -0.10521534085273743,
        -0.02617604285478592,
        0.01614336110651493,
        -0.09912818670272827,
        -0.09112571179866791,
        -0.01660757139325142,
        0.1212729811668396,
        -0.0013684587320312858,
        0.05822041258215904,
        -0.01975104957818985,
        -0.03817855566740036,
        -0.04448138177394867,
        0.008395982906222343,
        -0.0005727862007915974,
        0.0402846559882164,
        -0.03874337300658226,
        -0.06299352645874023,
        -0.09146574139595032,
        -0.014297098852694035,
        0.07470899820327759,
        0.03544909507036209,
        -0.08667948842048645,
        -0.12151411175727844,
        -0.056246235966682434,
        0.0588616207242012,
        0.0786518082022667,
        -0.02876167744398117,
        0.884612500667572,
        0.9831898808479309,
        -0.00606538588181138,
        -0.00457455450668931,
        -0.0007711330545134842,
        -0.008186045102775097,
        0.04711225628852844,
        0.04661138355731964,
        0.09063064306974411,
        0.03110012784600258,
        -0.06256695091724396,
        -0.0479414276778698,
        -0.03879643604159355,
        0.009633219800889492,
        0.05252442881464958,
        -0.024662498384714127,
        0.26992952823638916,
        0.3242626488208771,
        0.04726365581154823,
        0.0527067594230175,
        0.08142800629138947,
        0.09874498844146729,
        -0.03939167782664299,
        -0.012841307558119297,
        -0.023364534601569176,
        -0.025090213865041733,
        0.19657054543495178,
        0.09671743214130402,
        -0.018257994204759598,
        0.676128625869751,
        -0.10041088610887527,
        -0.031309664249420166,
        0.05673079937696457,
        0.0787234753370285,
        0.004710418172180653,
        -0.017136529088020325,
        -0.10809522867202759,
        0.1421317607164383,
        -0.0005958324181847274,
        0.09048593789339066,
        -0.2119409441947937,
        -0.12319828569889069,
        0.17539069056510925,
        -0.4708073139190674,
        0.034511879086494446,
        -0.1370367407798767,
        0.16405753791332245,
        -0.2961500287055969,
        -0.035620857030153275,
        0.15299741923809052,
        0.17851875722408295,
        -0.20124240219593048,
        -0.092668317258358,
        -0.258667916059494,
        0.28845033049583435,
        -0.23980560898780823,
        0.08708474785089493,
        -0.2582065165042877,
        0.08736596256494522,
        0.32281196117401123,
        0.07291359454393387,
        0.0004280582652427256,
        0.27526789903640747,
        0.13354811072349548,
        0.13929566740989685,
        -0.12370498478412628,
        -0.15005618333816528,
        0.05653655156493187,
        -0.04258308932185173,
        0.0012436923570930958,
        -0.057437699288129807,
        -0.06449998915195465,
        0.04338096082210541,
        -0.01280517689883709,
        -0.0608348585665226,
        -0.00873243622481823,
        -0.09811637550592422,
        -0.013931706547737122,
        0.013469365425407887,
        0.031068503856658936,
        0.06355677545070648,
        0.02413974516093731,
        0.10760241001844406,
        -0.014289667829871178,
        0.05702032893896103,
        -0.024827200919389725,
        -0.08230985701084137,
        -0.051308415830135345,
        -0.002685273066163063,
        -0.0008894139318726957,
        0.08095936477184296,
        0.05520542711019516,
        0.020530080422759056,
        0.06956391781568527,
        0.03582394868135452,
        -0.014813181944191456,
        0.033275287598371506,
        0.14993302524089813,
        -0.009211228229105473,
        0.05870030075311661,
        -0.04649714007973671,
        -0.08137182891368866,
        -0.01293078251183033,
        0.012859185226261616,
        0.03528672829270363,
        -0.033870674669742584,
        -0.0889999195933342,
        0.007511048577725887,
        0.002529482590034604,
        -0.004153156653046608,
        0.016421323642134666,
        0.02427593059837818,
        0.02105216309428215,
        -0.0947655737400055,
        -0.014279937371611595,
        0.008618684485554695,
        -0.011283054016530514,
        0.11848964542150497,
        0.09232968837022781,
        -0.0033392752520740032,
        0.011159706860780716,
        -0.0023441710509359837,
        -0.007606239058077335,
        0.01718679443001747,
        0.46361660957336426,
        0.25946930050849915,
        -3.0827579498291016,
        -0.07855477184057236,
        0.24793539941310883,
        -0.08095137774944305,
        -0.11057936400175095,
        0.1620827168226242,
        -0.049575481563806534,
        -0.09127012640237808,
        0.010290003381669521,
        -0.006591941695660353,
        0.00042950466740876436,
        -0.005132684484124184,
        -0.032964110374450684,
        -0.0018188436515629292,
        -0.002042057691141963,
        0.007338757626712322,
        0.01474246010184288,
        0.017150331288576126,
        0.014641455374658108,
        0.012102660723030567,
        0.029275480657815933,
        0.0068321931175887585,
        -0.0006619090563617647,
        -0.009118588641285896,
        -0.012966273352503777,
        -0.00827560294419527,
        -0.008658770471811295,
        0.018891064450144768,
        0.005625513847917318,
        -0.01172308623790741,
        -0.0008735803421586752,
        -0.01418384537100792,
        0.02124575711786747,
        0.021899685263633728,
        0.005675354041159153,
        0.01049879565834999,
        -0.0478626973927021,
        -0.01945614442229271,
        -0.022860608994960785,
        0.008021155372262001,
        -0.00936507061123848,
        0.008611941710114479,
        0.001885942998342216,
        -0.0061126998625695705,
        -0.015338495373725891,
        0.0049298605881631374,
        -0.03657466918230057,
        -0.004234864842146635,
        0.010048622265458107,
        0.01378549076616764,
        -0.023883119225502014,
        -0.021069752052426338,
        0.001129882992245257,
        -0.001552883768454194,
        0.0008792954031378031,
        -0.07460329681634903,
        0.46615469455718994,
        -0.7306214570999146,
        0.040832921862602234,
        0.04577010124921799,
        -0.06253667175769806,
        0.01991404965519905,
        -0.027801265940070152,
        -0.6760650277137756,
        0.03724225237965584,
        -0.06295274943113327,
        -0.09091521054506302,
        -0.1021314263343811,
        -0.24973270297050476,
        -1.354140043258667,
        -0.05812070518732071,
        -0.05094223842024803,
        -0.35263124108314514,
        0.08613695204257965,
        -0.09244374185800552,
        -0.31167036294937134,
        0.042791079729795456,
        -0.1797417849302292,
        0.18621322512626648,
        -0.020808806642889977,
        0.024246742948889732,
        -0.011601509526371956,
        0.0038057505153119564,
        -0.00257776933722198,
        -0.021190056577324867,
        0.0034928873647004366,
        0.02225773222744465,
        -0.009731908328831196,
        0.007946938276290894,
        -0.0033074726816266775,
        -0.07449501752853394,
        0.017238082364201546,
        -0.008735577575862408,
        0.028070131316781044,
        0.015029183588922024,
        -0.007915567606687546,
        0.019050106406211853,
        -0.007082533091306686,
        -0.003458036109805107,
        0.011636429466307163,
        0.026838619261980057,
        0.04168934375047684,
        0.02731919288635254,
        -0.006315005477517843,
        -0.039600636810064316,
        -0.003014090470969677,
        0.06124012544751167,
        0.06546410173177719,
        0.03592724725604057,
        -0.0543428435921669,
        0.012126782909035683,
        -0.024416230618953705,
        0.013788342475891113,
        0.01374526135623455,
        0.019077695906162262,
        0.00012599903857335448,
        -0.11968336254358292,
        -0.03160515055060387,
        0.028459228575229645,
        0.03599195554852486,
        0.04823479428887367,
        -0.00424957973882556,
        -0.00017351636779494584,
        0.014761591330170631,
        -0.15844373404979706,
        -0.06871163845062256,
        -0.17930248379707336,
        -0.6254152655601501,
        -0.09329685568809509,
        -0.01435034815222025,
        0.1994909793138504,
        -0.030642477795481682,
        0.30038440227508545,
        -0.11559653282165527,
        -0.028292616829276085,
        -0.13285014033317566,
        0.09074071794748306,
        -0.10934344679117203,
        0.03374864533543587,
        -0.013778078369796276,
        -0.05538472160696983,
        0.07993649691343307,
        0.029894420877099037,
        -0.008788247592747211,
        -0.29648879170417786,
        -0.003603259800001979,
        -0.2104780524969101,
        -0.04460781440138817,
        -0.12683530151844025,
        -0.09806196391582489,
        -0.06736167520284653,
        0.09300875663757324,
        -0.050162892788648605,
        -0.01700342446565628,
        -0.05005936697125435,
        0.013848159462213516,
        0.006987675093114376,
        0.04056674614548683,
        0.030896568670868874,
        0.019430266693234444,
        0.05524454638361931,
        -0.02592315711081028,
        -0.06775057315826416,
        0.008299638517200947,
        -0.12151976674795151,
        0.014721880666911602,
        -0.0498785637319088,
        -0.008243611082434654,
        -0.010781059972941875,
        0.05817662924528122,
        0.10445623844861984,
        0.07508436590433121,
        -0.17229706048965454,
        -0.21085196733474731,
        -0.17138122022151947,
        -0.03493357077240944,
        -0.10080166906118393,
        0.004824276547878981,
        -0.15351104736328125,
        -0.03437921404838562,
        -0.3882475197315216,
        0.09093961864709854,
        0.0040552676655352116,
        -0.10924562066793442,
        -0.19241641461849213,
        0.01338567491620779,
        0.2319766879081726,
        -0.12055361270904541,
        -0.0522749237716198,
        0.11505486071109772,
        -0.10931812971830368,
        0.021305633708834648,
        0.005485125817358494,
        -0.01855267584323883,
        0.0027655926533043385,
        0.06302440166473389,
        -0.2996554374694824,
        0.41448527574539185,
        -0.018336979672312737,
        0.006373701151460409,
        0.05044131726026535,
        -0.025201978161931038,
        0.03323226049542427,
        -0.045508481562137604,
        0.049551986157894135,
        0.02358701452612877,
        -0.01246174331754446,
        0.0022011518012732267,
        0.10947110503911972,
        0.07697004824876785,
        0.015106946229934692,
        -0.08409520238637924,
        0.01509993989020586,
        -0.164710134267807,
        -0.016899487003684044,
        -0.2027306854724884,
        0.041887715458869934,
        0.13339169323444366,
        -0.08060995489358902,
        0.05022629722952843,
        -0.025801043957471848,
        -0.02266327291727066,
        -0.04414232820272446,
        0.033418718725442886,
        0.014948522672057152,
        0.0342474989593029,
        0.0009697271161712706,
        -0.006237371824681759,
        -0.003848753636702895,
        0.00292029557749629,
        0.11831732094287872,
        -0.0634070411324501,
        -0.04112761840224266,
        0.004519755486398935,
        0.046166907995939255,
        0.08395061641931534,
        0.0665249228477478,
        0.009136921726167202,
        -0.09626219421625137,
        0.03718988969922066,
        0.02384154312312603,
        -0.015493606217205524,
        -0.04620867595076561,
        -0.01215658150613308,
        0.008170899003744125,
        -0.02903875708580017,
        -0.805972695350647,
        0.5905278921127319,
        0.29871422052383423,
        -0.00313145131804049,
        0.010205687023699284,
        0.012152399867773056,
        -0.013411737978458405,
        0.0015648354310542345,
        0.06893493235111237,
        -7.681996066821739e-05,
        -0.02446242794394493,
        -0.0441642701625824,
        -0.07506413012742996,
        0.0389716662466526,
        0.10681788623332977,
        0.02797063998878002,
        -0.0020007342100143433,
        0.007916620001196861,
        -0.014597449451684952,
        0.001402924070134759,
        0.2064918428659439,
        -0.013517227955162525,
        -0.018007926642894745,
        0.04117049276828766,
        -0.09450089931488037,
        -0.065730981528759,
        0.022234011441469193,
        0.4016261100769043,
        0.0487261638045311,
        0.05753263458609581,
        -0.05623175948858261,
        0.019023090600967407,
        -0.012777186930179596,
        -0.11390646547079086,
        0.02409231849014759,
        0.16794142127037048,
        0.003214456606656313,
        -0.046125419437885284,
        0.008221757598221302,
        0.06020316854119301,
        -0.0616699755191803,
        0.07435057312250137,
        0.1306794136762619,
        -0.013720016926527023,
        0.042356327176094055,
        0.021194983273744583,
        0.15186740458011627,
        0.07696979492902756,
        0.025493038818240166,
        0.047134362161159515,
        -0.8393206000328064,
        -0.34447813034057617,
        -0.6476213335990906,
        -0.032803311944007874,
        0.08421669155359268,
        0.05838457867503166,
        0.06630942225456238,
        0.04388609528541565,
        -0.016751663759350777,
        -0.018558496609330177,
        0.015792617574334145,
        -0.04018386825919151,
        0.07490827143192291,
        0.06643040478229523,
        0.021057868376374245,
        0.01946050487458706,
        -0.09490817040205002,
        -0.018061619251966476,
        -0.0784570649266243,
        0.011413907632231712,
        0.02681818976998329,
        0.013519487343728542,
        0.040961842983961105,
        0.009991797618567944,
        0.07597097009420395,
        0.12423009425401688,
        0.06031862273812294,
        0.0432807058095932,
        -0.19473661482334137,
        -0.13938897848129272,
        -0.08469827473163605,
        0.022988349199295044,
        0.11399979889392853,
        0.007756792474538088,
        0.043210696429014206,
        0.016618743538856506,
        0.0033384987618774176,
        0.038412757217884064,
        0.06642737239599228,
        -0.06647027283906937,
        -0.0406811460852623,
        0.07336322218179703,
        0.15812948346138,
        1.0907374620437622,
        0.320098340511322,
        0.09293756633996964,
        0.06731850653886795,
        0.3574110269546509,
        0.12835124135017395,
        0.1209707111120224,
        0.011729096062481403,
        -0.11347545683383942,
        -0.14850662648677826,
        0.19943498075008392,
        -0.04289358854293823,
        0.1492537260055542,
        0.13765549659729004,
        0.06061927229166031,
        0.20976831018924713,
        0.5598569512367249,
        0.19078822433948517,
        0.3015872836112976,
        0.645180344581604,
        0.4729606807231903,
        0.07872728258371353,
        0.04490667209029198,
        -0.13613304495811462,
        0.07161363214254379,
        0.04603098705410957,
        0.020647592842578888,
        -0.03905541077256203,
        -0.03190607577562332,
        0.023290062323212624,
        0.022117378190159798,
        0.12148332595825195,
        0.02579502947628498,
        0.07996901124715805,
        0.008896264247596264,
        -0.029150182381272316,
        0.04450694099068642,
        0.055358435958623886,
        0.012938018888235092,
        0.10892673581838608,
        0.005114159546792507,
        -0.09761516749858856,
        -0.07265076786279678,
        0.024295808747410774,
        -0.022397292777895927,
        -0.03187285736203194,
        -0.018320152536034584,
        0.05405697599053383,
        0.09745154529809952,
        0.12345113605260849,
        -0.04497462511062622,
        -0.20245811343193054,
        -0.24647536873817444,
        0.011031890287995338,
        0.0035985654685646296,
        0.4524862468242645,
        0.0224648155272007,
        -0.007036712486296892,
        0.07877281308174133,
        0.037386197596788406,
        -0.06854948401451111,
        0.0266987606883049,
        -0.07994499057531357,
        0.0005589080974459648,
        0.002686235588043928,
        0.006368867587298155,
        0.033669330179691315,
        -0.21909865736961365,
        0.32062989473342896,
        -0.051654137670993805,
        -0.03760720044374466,
        0.09913478046655655,
        0.19738909602165222,
        0.03627456724643707,
        0.24991971254348755,
        0.20584437251091003,
        0.11850568652153015,
        -0.14918462932109833,
        0.0037239023949950933,
        0.2659790515899658,
        -0.33411845564842224,
        -0.029824474826455116,
        0.15903016924858093,
        0.00771861057728529,
        -0.087106853723526,
        -0.10906248539686203,
        -1.0294172763824463,
        0.15837816894054413,
        -1.3388363122940063,
        -1.1057186126708984,
        -0.08252904564142227,
        -0.05985746160149574,
        -0.013504870235919952,
        -0.17675703763961792,
        0.002166505204513669,
        0.0031670061871409416,
        0.020217733457684517,
        0.03190814331173897,
        0.013961910270154476,
        0.00457732193171978,
        0.007387732155621052,
        0.05514960363507271,
        -0.029943179339170456,
        0.02286873199045658,
        0.030212905257940292,
        -0.026262056082487106,
        0.02228797972202301,
        -0.009702852927148342,
        -0.03614458814263344,
        0.020253516733646393,
        -0.0616188645362854,
        -0.02656390145421028,
        0.019525187090039253,
        0.09901314973831177,
        -0.000398964446503669,
        0.017346154898405075,
        0.021505780518054962,
        0.055700257420539856,
        -0.018510567024350166,
        0.031056616455316544,
        -0.016222301870584488,
        0.06783613562583923,
        -0.014718374237418175,
        -0.06340418010950089,
        -0.012124136090278625,
        0.10758382827043533,
        0.003526178887113929,
        -0.11621006578207016,
        -0.0033973476383835077,
        0.03944415971636772,
        -0.02848048135638237,
        0.04036138206720352,
        -0.02443542331457138,
        -0.002420000499114394,
        0.007358086295425892,
        0.1355724334716797,
        0.5525169968605042,
        -0.041655853390693665,
        0.42390215396881104,
        0.01676858589053154,
        0.07285840064287186,
        0.08505497127771378,
        0.14199069142341614,
        -0.3257036805152893,
        0.22869755327701569,
        -0.1564912647008896,
        0.023953847587108612,
        0.15461473166942596,
        -0.2154923379421234,
        -0.3458571434020996,
        -0.45008546113967896,
        0.11200384795665741,
        0.25555869936943054,
        -0.4392869472503662,
        -0.021727068349719048,
        -0.1183186024427414,
        0.009389704093337059,
        0.08035466074943542,
        0.4857906699180603,
        -0.14016570150852203,
        0.03171655163168907,
        -0.04855071008205414,
        -0.04599342122673988,
        0.14248526096343994,
        -0.0397208034992218,
        -0.017270950600504875,
        0.043571438640356064,
        -0.05246887356042862,
        0.12371639162302017,
        0.08426615595817566,
        0.08946803957223892,
        0.24252402782440186,
        0.0866050198674202,
        0.034783344715833664,
        0.025238925591111183,
        -0.22090555727481842,
        -0.08608439564704895,
        -0.032668475061655045,
        0.02074028179049492,
        0.05964130163192749,
        -0.044346921145915985,
        -0.054320480674505234,
        -0.07510165870189667,
        0.015663327649235725,
        0.057334769517183304,
        0.029138462617993355,
        0.04561898484826088,
        0.05714434012770653,
        0.06500113010406494,
        0.04144519940018654,
        0.05243583023548126,
        0.03268500417470932,
        0.10284151881933212,
        -0.0006369674229063094,
        0.0383695587515831,
        0.4435763955116272,
        0.04708268120884895,
        0.30877265334129333,
        0.03965532407164574,
        -0.03606048971414566,
        0.03362573683261871,
        -0.17913423478603363,
        -0.034974485635757446,
        0.002641015686094761,
        0.050000499933958054,
        0.11704395711421967,
        -0.2659602165222168,
        0.4536239802837372,
        0.5265831351280212,
        -0.06777484714984894,
        0.08745606988668442,
        -0.15509317815303802,
        0.06720789521932602,
        -1.0956343412399292,
        0.22293175756931305,
        -0.19044318795204163,
        0.10611101239919662,
        0.14730843901634216,
        0.14994105696678162,
        0.10350605845451355,
        0.1814795583486557,
        -0.02338580973446369,
        -0.1845882534980774,
        0.05464871600270271,
        0.47627168893814087,
        0.11468285322189331,
        0.05370824784040451,
        -0.14116759598255157,
        0.24896970391273499,
        0.17985062301158905,
        0.21427132189273834,
        0.058507855981588364,
        -0.02082904800772667,
        0.24660217761993408,
        -0.02282312698662281,
        0.03158922120928764,
        0.01381061039865017,
        0.11023871600627899,
        0.0364367850124836,
        0.06196478009223938,
        0.016048157587647438,
        -0.0004543463874142617,
        0.001898122252896428,
        0.02707521989941597,
        -0.008057950995862484,
        0.0031240913085639477,
        -0.023937439545989037,
        0.03465455025434494,
        0.07155656069517136,
        -0.02662915550172329,
        0.0029221258591860533,
        -0.03421686217188835,
        0.0028102872893214226,
        0.2102673202753067,
        0.07806038856506348,
        0.10630711913108826,
        0.07712090015411377,
        0.1873028427362442,
        0.07079713046550751,
        0.1731879562139511,
        0.1410204917192459,
        -0.2487201988697052,
        -0.03629102185368538,
        0.019640687853097916,
        0.07311970740556717,
        -0.17548146843910217,
        -0.02134610339999199,
        0.044786542654037476,
        -0.005707971751689911,
        0.06744761765003204,
        0.06784307956695557,
        -0.02076851576566696,
        -0.03156329318881035,
        0.0028735119849443436,
        0.037692829966545105,
        0.012196633964776993,
        0.1254478543996811,
        0.044019341468811035,
        0.0521361418068409,
        0.028325527906417847,
        0.8605965971946716,
        -0.029937151819467545,
        -0.0349152646958828,
        0.20803315937519073,
        -0.570938766002655,
        0.014293409883975983,
        -0.05793888121843338,
        -0.1599116325378418,
        0.05965466797351837,
        0.20933809876441956,
        0.03215376287698746,
        0.05371696501970291,
        -0.09200096130371094,
        0.025932677090168,
        0.059018831700086594,
        0.0465833880007267,
        0.019338151440024376,
        0.022815359756350517,
        -0.060815829783678055,
        -0.0504724346101284,
        -0.10672234743833542,
        -0.11467122286558151,
        -0.10566417872905731,
        0.09674427658319473,
        -0.019347593188285828,
        -0.10672485828399658,
        -0.05388045310974121,
        0.034968215972185135,
        -0.02221914567053318,
        -0.01583263836801052,
        -0.02414723113179207,
        -0.0018534839618951082,
        -0.046409670263528824,
        -0.2537270784378052,
        -0.05541294813156128,
        0.1332521289587021,
        -0.1417722851037979,
        -0.19744879007339478,
        0.0690535232424736,
        -0.16672973334789276,
        0.0750584527850151,
        0.29256904125213623,
        0.08806078135967255,
        -0.07086451351642609,
        0.004973745904862881,
        0.008538509719073772,
        0.027428317815065384,
        -0.02790878713130951,
        -0.09400495886802673,
        -0.03950978443026543,
        0.09342833608388901,
        0.09293977171182632,
        0.038719624280929565,
        0.005439203232526779,
        0.05485181510448456,
        -0.2625626027584076,
        -0.016023362055420876,
        -0.02458621934056282,
        -0.01519633736461401,
        -0.07207276672124863,
        0.04400433227419853,
        0.05940268561244011,
        0.03287673369050026,
        0.003192257136106491,
        0.07156161963939667,
        -0.02106930874288082,
        -0.17006641626358032,
        0.2500840723514557,
        -0.02765817381441593,
        -0.05128955841064453,
        -0.03677939996123314,
        -0.3189055025577545,
        -0.016689501702785492,
        0.1829683929681778,
        0.04243742302060127,
        -0.10760035365819931,
        -0.05589525029063225,
        0.05933799967169762,
        0.022389668971300125,
        0.1533868908882141,
        -0.0768408477306366,
        -0.7836719751358032,
        0.10306794196367264,
        0.241637721657753,
        -1.147691249847412,
        0.0012131314724683762,
        0.21629051864147186,
        0.009763929061591625,
        0.08171514421701431,
        0.027182521298527718,
        0.014260568656027317,
        0.0005643675103783607,
        0.040268052369356155,
        -0.016425656154751778,
        0.013091078959405422,
        -0.009824296459555626,
        0.019999975338578224,
        -0.023893389850854874,
        -0.06753510236740112,
        -0.0545540526509285,
        -0.06682485342025757,
        0.06481028348207474,
        0.045072879642248154,
        -0.056619323790073395,
        -0.031137727200984955,
        -0.034437090158462524,
        -0.08651550859212875,
        0.014119837433099747,
        -0.0003831384237855673,
        -0.024954603984951973,
        0.04246395081281662,
        -0.009463852271437645,
        0.0567043200135231,
        -0.0007275460520759225,
        -0.003483427222818136,
        0.02102762460708618,
        0.00045215353020466864,
        -0.09708460420370102,
        -0.021523447707295418,
        0.07137970626354218,
        0.04721846058964729,
        0.003928012680262327,
        0.015019332990050316,
        0.004966265521943569,
        0.06357689201831818,
        -0.19865436851978302,
        -0.05349421501159668,
        -0.38062140345573425,
        -0.06648450344800949,
        -0.02833503484725952,
        0.006929581984877586,
        0.2541193962097168,
        0.020653801038861275,
        -6.070127710700035e-05,
        0.007676216773688793,
        -0.22030536830425262,
        0.010518824681639671,
        -0.04663923382759094,
        0.1370520144701004,
        0.05162494629621506,
        0.028412584215402603,
        0.07527384907007217,
        -0.10873716324567795,
        -0.20517896115779877,
        0.37866005301475525,
        -0.044909194111824036,
        0.09567432105541229,
        0.0567445233464241,
        -0.08693559467792511,
        0.030136574059724808,
        0.1689366102218628,
        -0.06482701748609543,
        -0.1419481635093689,
        0.05876164883375168,
        -0.2116185575723648,
        -0.16709183156490326,
        0.22994646430015564,
        -0.08998356759548187,
        0.10084092617034912,
        0.1589047610759735,
        0.03978915885090828,
        -0.05719052627682686,
        0.04267529025673866,
        -0.10833863168954849,
        -0.03852679952979088,
        -0.05187949538230896,
        -0.32799649238586426,
        0.01792334020137787,
        -0.060946106910705566,
        -0.029402507469058037,
        -0.0013077639741823077,
        -0.16639326512813568,
        0.008619926869869232,
        -0.0038877162151038647,
        0.03327227011322975,
        0.0017047480214387178,
        -0.02339751645922661,
        0.06662439554929733,
        -0.021625563502311707,
        0.08430515974760056,
        0.09880398213863373,
        0.045496225357055664,
        0.25220176577568054,
        0.037048954516649246,
        0.07713580876588821,
        0.030030081048607826,
        -0.2684765160083771,
        -0.02123401127755642,
        0.04998691380023956,
        0.06033647432923317,
        -0.12919214367866516,
        0.04969070106744766,
        0.0042978390119969845,
        0.09567701816558838,
        -0.15516449511051178,
        0.12420570850372314,
        0.11441679298877716,
        0.03408035263419151,
        -0.053841229528188705,
        -0.011933062225580215,
        0.03585048392415047,
        -0.0822942927479744,
        0.0710359662771225,
        -0.03450896590948105,
        0.049762219190597534,
        0.19056634604930878,
        -0.23420429229736328,
        0.14406976103782654,
        -0.47880789637565613,
        0.028103629127144814,
        0.0943598821759224,
        -0.08016940206289291,
        0.15041136741638184,
        0.3610348701477051,
        -0.4649827480316162,
        -0.027872784063220024,
        0.22419370710849762,
        -0.010745975188910961,
        0.09240271151065826,
        0.1869998723268509,
        -0.10474962741136551,
        -0.26498088240623474,
        0.301029771566391,
        0.08065378665924072,
        0.22322122752666473,
        0.009551946073770523,
        -0.5295911431312561,
        0.0012395152589306235,
        -0.7106007933616638,
        -0.05185011401772499,
        -0.08306922763586044,
        -0.05813121050596237,
        0.029249176383018494,
        -0.13329459726810455,
        0.04103861004114151,
        -0.032806310802698135,
        0.011363422498106956,
        0.0324060283601284,
        0.033347200602293015,
        0.03229070082306862,
        0.047507476061582565,
        0.1258104294538498,
        -0.0007420160691253841,
        0.02878621406853199,
        0.056332122534513474,
        -0.16525150835514069,
        -0.019608402624726295,
        -0.0037565843667834997,
        -0.07260114699602127,
        0.13360512256622314,
        -0.03699680417776108,
        -0.030076729133725166,
        -0.011274226009845734,
        0.03621036186814308,
        0.02743048593401909,
        0.02212047018110752,
        0.01012835931032896,
        -0.08151603490114212,
        -0.06709159910678864,
        -0.009888013824820518,
        0.019176747649908066,
        0.006716446485370398,
        -0.03238927200436592,
        0.013945164158940315,
        -0.012650253251194954,
        -0.2570401728153229,
        0.04909719154238701,
        0.24164007604122162,
        0.04897020012140274,
        -0.023314157500863075,
        -0.08773649483919144,
        -0.2875707447528839,
        -0.059811849147081375,
        0.00015552493277937174,
        0.050863828510046005,
        -0.14198137819766998,
        0.05011114850640297,
        -0.03730333223938942,
        -0.0025847633369266987,
        0.00137908267788589,
        0.038596395403146744,
        -0.03716513141989708,
        -0.19482478499412537,
        -0.09630019962787628,
        -0.14159129559993744,
        -0.04197004809975624,
        -0.03473339229822159,
        0.10602018982172012,
        -0.011374551802873611,
        0.08768346160650253,
        0.03478492051362991,
        -0.03629787266254425,
        0.051920514553785324,
        0.21159017086029053,
        -0.05640413612127304,
        0.02600833587348461,
        0.04504935443401337,
        -0.2196732759475708,
        -0.2779293954372406,
        -0.09538684785366058,
        0.0133053632453084,
        0.13501471281051636,
        0.03871225565671921,
        -0.17322921752929688,
        -0.03150574862957001,
        0.4037928879261017,
        0.20034462213516235,
        -0.25767186284065247,
        0.0036435227375477552,
        0.2053138017654419,
        0.22063730657100677,
        -0.051679469645023346,
        -0.06673052906990051,
        -0.09191323071718216,
        -0.10819493234157562,
        -0.012423855252563953,
        0.06766938418149948,
        0.08671411871910095,
        5.9510341088753194e-05,
        -0.1919170469045639,
        0.030801186338067055,
        0.2796599864959717,
        0.09377524256706238,
        0.1618209183216095,
        0.0206445325165987,
        -0.029638370499014854,
        0.05949317291378975,
        0.006883519235998392,
        -0.008619015105068684,
        -0.04223882779479027,
        -0.03450430929660797,
        -0.03578150272369385,
        -0.08953195810317993,
        0.03514549508690834,
        -0.10661634802818298,
        -0.10134277492761612,
        -0.278344064950943,
        -0.0934615433216095,
        -0.11568199098110199,
        -0.20006877183914185,
        -0.09288512915372849,
        0.21698136627674103,
        -0.013743564486503601,
        9.816003148443997e-05,
        -0.06083676218986511,
        -0.020803185179829597,
        -0.14282940328121185,
        -0.01665044203400612,
        0.10387827455997467,
        -0.005292363930493593,
        -0.018603388220071793,
        -0.023234201595187187,
        -0.10606138408184052,
        -0.0037943818606436253,
        -0.1586078703403473,
        0.07657861709594727,
        -0.050090014934539795,
        -0.05496729537844658,
        -0.05263548344373703,
        -0.029576580971479416,
        -0.021329153329133987,
        0.006634354125708342,
        0.10406489670276642,
        0.04595847800374031,
        -0.048896368592977524,
        -0.1073734238743782,
        -0.09662485122680664,
        0.11824414134025574,
        0.020833229646086693,
        0.2089983969926834,
        -0.006793570704758167,
        0.03097967617213726,
        0.002480962546542287,
        0.1700584590435028,
        -0.02004341222345829,
        -0.011035020463168621,
        -0.0024777757935225964,
        0.13981136679649353,
        0.011502106674015522,
        -0.003950083162635565,
        0.02269592136144638,
        -1.2798529863357544,
        0.14407894015312195,
        0.15664255619049072,
        0.10316701233386993,
        -0.8673306107521057,
        -0.015917496755719185,
        0.007276664488017559,
        0.0012960778549313545,
        -0.01202703732997179,
        -0.06031422317028046,
        -0.0479026660323143,
        0.009785452857613564,
        0.18562428653240204,
        -0.06004558131098747,
        -0.0009018891141749918,
        -0.012521687895059586,
        -0.02401738055050373,
        -0.06468362361192703,
        -0.00711219385266304,
        -0.0366322323679924,
        -0.0045793852768838406,
        0.07881812751293182,
        -0.0025397322606295347,
        -0.0019254134967923164,
        -0.03406843915581703,
        0.00911062490195036,
        -0.021277593448758125,
        0.02460413984954357,
        0.08741812407970428,
        0.016181929036974907,
        -0.08987071365118027,
        -0.049577485769987106,
        -0.0011967589380219579,
        0.02189236879348755,
        -0.5112565755844116,
        0.09981846809387207,
        -0.204309344291687,
        0.10893512517213821,
        -0.007761540822684765,
        -0.30652767419815063,
        -0.2814006805419922,
        -0.026285411790013313,
        0.16576902568340302,
        -0.09771561622619629,
        -0.08000383526086807,
        2.9321687179617584e-05,
        0.008476723916828632,
        0.18649399280548096,
        0.12793311476707458,
        -0.12605126202106476,
        -0.05557404085993767,
        0.1734074503183365,
        0.003741958411410451,
        -0.12392526119947433,
        0.235666424036026,
        -0.06175856292247772,
        0.042229730635881424,
        0.004496777430176735,
        -0.0646127313375473,
        0.09559948742389679,
        -0.06824816763401031,
        -0.051983579993247986,
        0.11719687283039093,
        0.08893124014139175,
        -0.046157270669937134,
        0.09972177445888519,
        -0.015506851486861706,
        -0.015386797487735748,
        -0.10757382214069366,
        -0.09400024265050888,
        0.01282830722630024,
        -0.018044544383883476,
        -0.0025618658401072025,
        -0.06880433112382889,
        -0.10729755461215973,
        0.02429516427218914,
        -0.06779178977012634,
        0.08319593220949173,
        -0.09036274254322052,
        0.0061589800752699375,
        -0.01849859394133091,
        -0.025298435240983963,
        0.040899623185396194,
        0.02804613672196865,
        0.02436937391757965,
        0.016847942024469376,
        -0.03292340412735939,
        -0.09496469795703888,
        -0.10046836733818054,
        -0.08635246753692627,
        0.039177898317575455,
        0.22016917169094086,
        0.012624000199139118,
        0.13798440992832184,
        -0.14813324809074402,
        -0.2358413189649582,
        0.009791834279894829,
        -0.15780195593833923,
        -0.1744547337293625,
        0.07696197926998138,
        -0.07009174674749374,
        -0.052461590617895126,
        -0.0023831056896597147,
        -0.002178642200306058,
        0.0038038408383727074,
        0.15007300674915314,
        0.31555280089378357,
        -0.4785424470901489,
        0.013308603316545486,
        -0.042145006358623505,
        0.6318400502204895,
        -0.251730740070343,
        0.16214486956596375,
        0.27906906604766846,
        -0.10333723574876785,
        0.25915682315826416,
        0.05638600513339043,
        0.18794134259223938,
        0.10324055701494217,
        0.06856565177440643,
        0.022580919787287712,
        0.08718452602624893,
        -0.10208110511302948,
        0.06870277971029282,
        -0.012749647721648216,
        0.01996927335858345,
        0.029426302760839462,
        -0.13025549054145813,
        -0.4355734586715698,
        -0.13473999500274658,
        -0.3245174288749695,
        -0.16672104597091675,
        -0.2858584523200989,
        -0.7240673899650574,
        -0.23962987959384918,
        -0.14026592671871185,
        -0.15691210329532623,
        -0.12195424735546112,
        -0.05779261514544487,
        -0.04569254443049431,
        -0.14912785589694977,
        -0.07840804010629654,
        -0.01308814063668251,
        -0.02626846171915531,
        -0.022135285660624504,
        0.03672800585627556,
        0.06655186414718628,
        0.019397784024477005,
        -0.10220806300640106,
        0.095136858522892,
        -0.015104373916983604,
        -0.037625446915626526,
        -0.023088393732905388,
        0.06271926313638687,
        -0.014472991228103638,
        -0.03856825456023216,
        -0.00513219041749835,
        -0.048802927136421204,
        0.1023256704211235,
        0.1061711236834526,
        -0.1694333851337433,
        -0.2869517207145691,
        -0.11709132790565491,
        -0.12880359590053558,
        0.007517400197684765,
        -0.015633977949619293,
        0.3077039420604706,
        0.06598837673664093,
        0.08405964821577072,
        -0.04279809072613716,
        -0.2291373610496521,
        0.0357605405151844,
        0.004442737437784672,
        -0.08879350125789642,
        0.0011862160172313452,
        -0.05382191762328148,
        0.2677675783634186,
        -0.16512244939804077,
        0.013180180452764034,
        -0.09001951664686203,
        -0.03999249264597893,
        -0.15371482074260712,
        -0.05542804300785065,
        -0.08682183921337128,
        -0.04418899491429329,
        -0.10600162297487259,
        -0.002488186350092292,
        -0.08004717528820038,
        0.09090518206357956,
        0.1999940276145935,
        0.016930952668190002,
        0.013325448147952557,
        -0.10101727396249771,
        -0.018271416425704956,
        0.38812455534935,
        -0.30352774262428284,
        -0.10227712243795395,
        -0.5978614687919617,
        -1.314275860786438,
        -0.010798918083310127,
        0.04607956111431122,
        0.016017872840166092,
        -0.7911243438720703,
        0.16501107811927795,
        0.09700760245323181,
        0.0630151629447937,
        -0.040440190583467484,
        0.0112075787037611,
        0.004330899100750685,
        -0.008522980846464634,
        0.4666946232318878,
        -0.038842905312776566,
        0.02867966704070568,
        -0.0254365261644125,
        -0.027028612792491913,
        -0.013956443406641483,
        -0.044626690447330475,
        0.028847642242908478,
        0.06125137582421303,
        0.049067866057157516,
        -0.019350368529558182,
        0.0016842082841321826,
        -0.351509153842926,
        0.040380727499723434,
        0.05739468336105347,
        -0.005896204151213169,
        0.061130497604608536,
        0.02170339785516262,
        0.04231112077832222,
        0.010555130429565907,
        -0.07001970708370209,
        0.016974227502942085,
        0.04802102595567703,
        0.06446363776922226,
        -0.22257491946220398,
        -0.00027849647449329495,
        0.03536755591630936,
        0.01986614614725113,
        -0.004018363077193499,
        0.02051308937370777,
        -0.08987612277269363,
        0.003871671389788389,
        -4.128593718633056e-05,
        0.0666855201125145,
        0.11663734167814255,
        -0.1403188556432724,
        0.07116571068763733,
        -0.34200042486190796,
        -0.044841814786195755,
        -0.01551103126257658,
        0.006352134980261326,
        0.2525836229324341,
        0.659738302230835,
        0.7192848920822144,
        -0.06899998337030411,
        -0.013570588082075119,
        -0.0826668068766594,
        -0.20640254020690918,
        0.5217973589897156,
        -0.14238663017749786,
        0.04727558046579361,
        0.30873650312423706,
        -0.006112264934927225,
        0.13456451892852783,
        0.21353887021541595,
        0.062109317630529404,
        -0.029318902641534805,
        -0.06668547540903091,
        0.023141315206885338,
        -0.0011359542841091752,
        -0.07573375105857849,
        -0.1020025685429573,
        0.15814439952373505,
        0.008116012439131737,
        0.02863125130534172,
        0.10859616845846176,
        0.1512150913476944,
        0.10863576829433441,
        0.11713670939207077,
        0.06567791104316711,
        0.05173996090888977,
        0.09981846064329147,
        0.06563610583543777,
        0.0699198842048645,
        0.061060693114995956,
        -0.02750101312994957,
        -0.00549435056746006,
        0.0042427172884345055,
        -0.09815896302461624,
        -0.0642307922244072,
        -0.05242075398564339,
        -0.03718706592917442,
        0.09727257490158081,
        0.07925844937562943,
        0.034758590161800385,
        0.09649116545915604,
        0.0006452884408645332,
        -0.03525746986269951,
        -0.027062194421887398,
        0.10997674614191055,
        -0.021523460745811462,
        0.01949945278465748,
        0.019594183191657066,
        0.07140104472637177,
        0.24226658046245575,
        0.039971668273210526,
        0.007490695454180241,
        0.10654760152101517,
        0.06871169060468674,
        -0.04681769013404846,
        0.00024616249720565975,
        -0.0929340124130249,
        -0.001395688857883215,
        0.045164745301008224,
        0.06368451565504074,
        -0.10003460943698883,
        0.3740270435810089,
        0.30378738045692444,
        0.15112484991550446,
        -0.01636601984500885,
        0.23974306881427765,
        -0.13212424516677856,
        -0.3172432780265808,
        0.06850583851337433,
        0.09917404502630234,
        -0.23987913131713867,
        -0.07722236961126328,
        -0.058604151010513306,
        0.1027197390794754,
        0.08122909069061279,
        0.1291426569223404,
        0.11811211705207825,
        -0.05583438277244568,
        -0.12674543261528015,
        0.1583065390586853,
        -0.1081392765045166,
        0.050658345222473145,
        0.006371869705617428,
        0.18215592205524445,
        -0.23517613112926483,
        -0.0468251034617424,
        -0.060546036809682846,
        -0.2074480801820755,
        0.6120215058326721,
        0.11183668673038483,
        0.07877881079912186,
        0.2676193118095398,
        0.11887290328741074,
        0.07720707356929779,
        0.06551030278205872,
        -0.1509849578142166,
        -0.021290116012096405,
        0.10598393529653549,
        0.12407425791025162,
        0.054746147245168686,
        0.0397808812558651,
        0.03920017182826996,
        0.0012802695855498314,
        -0.13326922059059143,
        0.04556502401828766,
        0.013194721192121506,
        0.0463930107653141,
        0.05021899938583374,
        0.05499246343970299,
        0.007558980956673622,
        -0.014478635974228382,
        0.07780984044075012,
        -0.008198363706469536,
        0.03152713552117348,
        0.04921545833349228,
        0.02536644972860813,
        0.1960454136133194,
        0.05935947224497795,
        0.07226073741912842,
        0.2676489055156708,
        0.019566001370549202,
        0.024644190445542336,
        0.1512870043516159,
        0.10063613951206207,
        0.018097516149282455,
        -0.0016624443233013153,
        0.06146479398012161,
        0.002084155799821019,
        0.008548318408429623,
        -0.17735910415649414,
        0.2074904590845108,
        0.05937514454126358,
        -0.08041304349899292,
        0.04777616634964943,
        0.1554127037525177,
        -0.09381020069122314,
        -0.09809974581003189,
        0.11317344754934311,
        -0.06770773231983185,
        0.16077248752117157,
        -0.006586338859051466,
        0.07141692191362381,
        0.3509038984775543,
        -0.37033864855766296,
        0.4075925052165985,
        -0.12106741964817047,
        0.03731846809387207,
        -0.1131073385477066,
        0.2308676689863205,
        0.07183414697647095,
        0.23375028371810913,
        -0.05964112654328346,
        -0.15801377594470978,
        -0.08974902331829071,
        0.028731396421790123,
        -0.16510538756847382,
        -0.10735901445150375,
        0.09173122048377991,
        0.16299287974834442,
        0.192142516374588,
        0.18020446598529816,
        0.013886201195418835,
        0.018902111798524857,
        -0.0007823285995982587,
        0.012316849082708359,
        0.0011419202201068401,
        0.10173161327838898,
        0.07884804904460907,
        0.10636542737483978,
        -0.06759048998355865,
        -0.047405488789081573,
        0.011519664898514748,
